9.710596203804016113e-01
-1.054058820009231567e-01
3.219185769557952881e-01
8.839673399925231934e-01
-1.356078863143920898e+00
4.475627839565277100e-01
5.515787601470947266e-01
-6.680623441934585571e-02
1.247787594795227051e+00
8.638461112976074219e+00
2.980402946472167969e+00
3.513095617294311523e+00
1.024060368537902832e+00
-7.000378370285034180e-01
1.025566980242729187e-01
9.960788488388061523e-02
-1.421307206153869629e+00
1.796683192253112793e+00
2.055909156799316406e+00
5.754655003547668457e-01
2.551937580108642578e+00
4.572986662387847900e-01
3.224958181381225586e+00
2.735295772552490234e+00
2.491946935653686523e+00
1.576786041259765625e+00
2.582674741744995117e+00
4.533522427082061768e-01
2.198880195617675781e+00
-5.180510878562927246e-01
7.002855539321899414e-01
-3.904624283313751221e-01
1.127518892288208008e+00
-8.985634446144104004e-01
-3.211578726768493652e-01
3.792419433593750000e-01
1.049134880304336548e-01
2.112704992294311523e+00
2.316864252090454102e+00
-7.655803561210632324e-01
2.574362039566040039e+00
2.587905168533325195e+00
2.445664167404174805e+00
1.562986016273498535e+00
2.628014087677001953e+00
8.414053320884704590e-01
7.694191932678222656e-01
5.219823718070983887e-01
1.288619995117187500e+00
1.241479516029357910e+00
-1.222361803054809570e+00
1.116492390632629395e+00
-6.712741255760192871e-01
-5.107886791229248047e-01
1.005958795547485352e+00
3.074975311756134033e-01
-2.248873710632324219e-01
-2.039712190628051758e+00
8.188075065612792969e+00
8.198084831237792969e+00
8.181721687316894531e+00
8.104453086853027344e+00
8.050471305847167969e+00
2.351109504699707031e+00
2.909136533737182617e+00
3.084104776382446289e+00
3.086483955383300781e+00
-1.676196932792663574e+00
-1.510073900222778320e+00
1.640780806541442871e+00
2.344383001327514648e+00
3.732242584228515625e+00
2.993692159652709961e+00
4.241018295288085938e+00
3.578903198242187500e+00
1.995853304862976074e+00
2.170143127441406250e+00
2.236975193023681641e+00
9.409286975860595703e-01
2.881561517715454102e+00
4.966564178466796875e+00
4.946092605590820312e+00
1.504498958587646484e+00
-4.040648043155670166e-01
4.391631603240966797e+00
5.315573215484619141e+00
1.684809207916259766e+00
1.446264982223510742e-01
3.478132486343383789e-01
-4.233003258705139160e-01
3.884785890579223633e+00
5.779099941253662109e+00
1.082886338233947754e+00
1.436647653579711914e+00
1.022315025329589844e+00
-6.131355762481689453e-01
3.099839210510253906e+00
1.448478460311889648e+00
4.153860092163085938e+00
2.910128593444824219e+00
5.176787376403808594e+00
3.317786931991577148e+00
5.080846309661865234e+00
6.524976253509521484e+00
2.907509326934814453e+00
3.929904460906982422e+00
4.603011131286621094e+00
3.767429351806640625e+00
3.344724416732788086e+00
4.273212909698486328e+00
5.392999172210693359e+00
2.262790441513061523e+00
2.026434898376464844e+00
1.575235724449157715e+00
3.156004846096038818e-01
-9.457221031188964844e-01
2.702690362930297852e+00
3.666908502578735352e+00
2.839694023132324219e+00
3.888202190399169922e+00
3.823014020919799805e+00
1.545531511306762695e+00
6.462172865867614746e-01
2.293704748153686523e-01
6.836626529693603516e-01
1.926077008247375488e+00
2.394546508789062500e+00
1.215551257133483887e+00
-3.948662579059600830e-01
5.693328857421875000e+00
2.758945226669311523e+00
1.531787872314453125e+00
2.705425024032592773e-01
1.421976208686828613e+00
1.029397487640380859e+00
1.218466997146606445e+00
3.069320917129516602e+00
4.781513690948486328e+00
3.030011892318725586e+00
1.512949168682098389e-01
9.556061029434204102e-01
-3.083199858665466309e-01
2.269484400749206543e-01
5.050995349884033203e-01
-2.225551366806030273e+00
1.483901500701904297e+00
4.426997184753417969e+00
2.457004070281982422e+00
5.502395033836364746e-01
1.592769861221313477e+00
1.479359995573759079e-02
6.973811388015747070e-01
-1.458231806755065918e+00
5.014563560485839844e+00
2.007526397705078125e+00
3.300747573375701904e-01
8.309314846992492676e-01
-4.631225168704986572e-01
3.076582908630371094e+00
3.519342184066772461e+00
-2.345228672027587891e+00
-3.065895140171051025e-01
2.139631748199462891e+00
3.084320783615112305e+00
-7.798045873641967773e-01
-1.482712030410766602e+00
5.764220714569091797e+00
4.464846134185791016e+00
2.266486167907714844e+00
1.312097430229187012e+00
-6.410133838653564453e-02
2.303104847669601440e-01
3.216323614120483398e+00
2.755393028259277344e+00
4.311622142791748047e+00
4.141475200653076172e+00
1.242137551307678223e+00
3.489704802632331848e-02
3.687461376190185547e+00
3.793734788894653320e+00
-1.038210868835449219e+00
8.096366524696350098e-01
1.018312811851501465e+00
1.744118571281433105e+00
-1.434096097946166992e-01
8.534626960754394531e+00
2.459073781967163086e+00
3.822948932647705078e+00
8.162602782249450684e-01
-1.078763365745544434e+00
-4.293574988842010498e-01
5.658271908760070801e-01
1.253924489021301270e+00
-6.884976029396057129e-01
5.259736776351928711e-01
-1.291515529155731201e-01
6.733287572860717773e-01
2.694269180297851562e+00
7.298493981361389160e-01
-2.623472809791564941e-01
6.491605043411254883e-01
8.308803439140319824e-01
1.393450200557708740e-01
-3.608387410640716553e-01
1.247532963752746582e+00
1.781984686851501465e+00
2.457509636878967285e-01
-7.144825458526611328e-01
1.396748542785644531e+00
-8.797217011451721191e-01
-5.081354975700378418e-01
8.442125916481018066e-01
5.565912127494812012e-01
1.281122446060180664e+00
3.845055699348449707e-01
1.168287321925163269e-01
1.009687185287475586e+00
1.724404454231262207e+00
1.208735942840576172e+00
1.866749763488769531e+00
2.651222944259643555e+00
6.963210105895996094e-01
-6.906555593013763428e-02
8.270910263061523438e+00
8.328413009643554688e+00
3.265645980834960938e+00
1.246872544288635254e-01
-4.098323285579681396e-01
-1.458366751670837402e+00
2.635475993156433105e-01
2.956142723560333252e-01
-9.328971505165100098e-01
3.639064550399780273e+00
5.845617055892944336e-01
4.055614769458770752e-01
3.008641719818115234e+00
2.213781833648681641e+00
-1.314420551061630249e-01
1.537975192070007324e+00
2.099486112594604492e+00
1.160983443260192871e+00
7.910689115524291992e-01
-1.259067654609680176e+00
-8.915883898735046387e-01
3.082390069961547852e+00
1.550731360912322998e-01
4.555096626281738281e-01
2.880207061767578125e+00
-4.173617064952850342e-01
7.548798918724060059e-01
-5.780535936355590820e-01
1.686489731073379517e-01
6.484736800193786621e-01
-2.705705165863037109e-01
2.239035844802856445e+00
1.563284635543823242e+00
6.305929273366928101e-02
1.291924357414245605e+00
1.035915970802307129e+00
-8.284434080123901367e-01
1.017213344573974609e+00
2.610170364379882812e+00
-3.055813014507293701e-01
1.950021028518676758e+00
-2.882474362850189209e-01
-3.272072970867156982e-01
8.587220311164855957e-01
6.369817733764648438e+00
3.954108953475952148e+00
3.225859880447387695e+00
3.188614606857299805e+00
1.299916028976440430e+00
2.648544073104858398e+00
2.491307020187377930e+00
-4.072284996509552002e-01
5.238833427429199219e+00
5.411647796630859375e+00
2.323035478591918945e+00
3.047843456268310547e+00
-1.198217272758483887e-01
5.502465963363647461e-01
1.706802248954772949e+00
2.227916002273559570e+00
6.456420421600341797e+00
-1.832286119461059570e+00
-6.274032592773437500e-01
2.282141447067260742e+00
2.827115356922149658e-01
4.879256248474121094e+00
-5.515740513801574707e-01
2.067513704299926758e+00
-4.560262858867645264e-01
-2.052503228187561035e-01
1.368869066238403320e+00
1.231548786163330078e+00
1.497382044792175293e+00
1.244253635406494141e+00
2.777974843978881836e+00
3.707688093185424805e+00
4.855655431747436523e-01
-4.145362228155136108e-02
-2.945860624313354492e-01
2.053612470626831055e+00
6.684955358505249023e-01
1.290251255035400391e+00
1.377699613571166992e+00
-1.996183991432189941e-01
2.753310203552246094e+00
2.162531614303588867e+00
3.835246562957763672e-01
1.335740208625793457e+00
1.473971843719482422e+00
2.066132426261901855e-01
6.025774478912353516e-01
1.494008898735046387e+00
1.220598220825195312e+00
-4.085938632488250732e-01
1.420712471008300781e+00
-5.446600914001464844e-01
1.315553903579711914e+00
-6.842693090438842773e-01
4.407992362976074219e-01
-1.351170420646667480e+00
6.385459303855895996e-01
3.352665424346923828e+00
7.438715100288391113e-01
1.053873658180236816e+00
-1.545046567916870117e+00
1.016270399093627930e+00
5.074722170829772949e-01
1.474189281463623047e+00
-1.945760101079940796e-01
5.367803573608398438e-01
7.261204719543457031e-01
-6.027623414993286133e-01
1.414343714714050293e+00
-1.822921484708786011e-01
1.341146111488342285e+00
7.193718552589416504e-01
-2.611834704875946045e-01
5.066828250885009766e+00
1.674498558044433594e+00
1.253953099250793457e+00
4.536540985107421875e+00
5.276122570037841797e+00
2.098574161529541016e+00
2.729797601699829102e+00
5.453430414199829102e-01
5.091257572174072266e+00
2.884704113006591797e+00
7.098666429519653320e-01
2.198077201843261719e+00
1.449934959411621094e+00
1.242916941642761230e+00
2.877078056335449219e+00
2.008184432983398438e+00
1.326790452003479004e+00
-2.071463823318481445e+00
1.151109576225280762e+00
3.397520065307617188e+00
1.714550703763961792e-01
1.862369418144226074e+00
-4.987745881080627441e-01
7.293376445770263672e+00
6.929528117179870605e-01
-9.514294266700744629e-01
-1.167973279953002930e+00
-1.358909964561462402e+00
5.005007743835449219e+00
6.021677017211914062e+00
5.785120964050292969e+00
5.071436882019042969e+00
3.304530858993530273e+00
1.810753107070922852e+00
1.494261503219604492e+00
5.497407317161560059e-01
-3.040752410888671875e-01
3.119560718536376953e+00
3.228033781051635742e+00
3.735440596938133240e-02
2.122879743576049805e+00
1.295689344406127930e+00
-3.896792531013488770e-01
-5.224493741989135742e-01
1.547202229499816895e+00
1.734661698341369629e+00
1.127162128686904907e-01
2.487988710403442383e+00
4.120278358459472656e+00
1.505862116813659668e+00
-7.422792315483093262e-01
5.511992454528808594e+00
1.611385226249694824e+00
8.242109417915344238e-01
9.453323483467102051e-01
-4.750756025314331055e-01
-3.662801682949066162e-01
3.586604893207550049e-01
3.940912187099456787e-01
3.981346786022186279e-01
4.668005108833312988e-01
-7.912712693214416504e-01
9.595971107482910156e-01
9.985448718070983887e-01
-3.972598314285278320e-01
-5.017373561859130859e-01
-5.354604721069335938e-01
1.580675482749938965e+00
1.260633230209350586e+00
-4.184229671955108643e-01
-7.728588581085205078e-02
-1.239848971366882324e+00
-1.617244780063629150e-01
8.012633919715881348e-01
1.576532602310180664e+00
-1.237479925155639648e+00
1.582139879465103149e-01
-9.210550785064697266e-02
-6.928223967552185059e-01
-1.455499231815338135e-01
5.763698816299438477e-01
4.385326430201530457e-02
4.681823253631591797e+00
6.774168014526367188e+00
3.610122442245483398e+00
-2.876204550266265869e-01
2.760889768600463867e+00
-6.299430131912231445e-02
1.499427795410156250e+00
2.455966234207153320e+00
1.810522794723510742e+00
6.811714172363281250e-01
1.756576776504516602e+00
4.823966026306152344e+00
3.537737607955932617e+00
4.165118217468261719e+00
3.983141899108886719e+00
8.279407024383544922e-01
-2.431938983500003815e-02
2.971481978893280029e-01
2.243083119392395020e-01
-6.405539512634277344e-01
-9.201813936233520508e-01
3.591775894165039062e-01
1.848956346511840820e+00
4.513743400573730469e+00
-5.805219411849975586e-01
-2.076260894536972046e-01
9.889555573463439941e-01
2.929857075214385986e-01
4.005110263824462891e+00
4.753307819366455078e+00
1.764970421791076660e+00
1.439164280891418457e+00
-2.672277390956878662e-01
2.433681726455688477e+00
1.125765323638916016e+00
1.199907422065734863e+00
1.686057329177856445e+00
-7.404688000679016113e-01
4.674387454986572266e+00
4.290964603424072266e+00
3.163627147674560547e+00
-7.026594281196594238e-01
-7.083230018615722656e-01
7.481992840766906738e-01
1.097069144248962402e+00
1.502978429198265076e-02
3.557896614074707031e-01
5.018205642700195312e-01
-9.323545694351196289e-01
3.102469444274902344e+00
1.123428225517272949e+00
2.037314176559448242e+00
1.493885040283203125e+00
2.541904449462890625e+00
5.659048557281494141e-01
5.820937156677246094e-01
1.474722266197204590e+00
1.558189034461975098e+00
-1.675306558609008789e+00
-5.737159848213195801e-01
2.624507188796997070e+00
3.323894500732421875e+00
2.068800687789916992e+00
3.279207944869995117e+00
1.911160826683044434e+00
1.278641462326049805e+00
8.187417387962341309e-01
-2.474030256271362305e-01
3.225720524787902832e-01
-1.494957320392131805e-02
-2.465787231922149658e-01
-1.135739326477050781e+00
1.070337519049644470e-01
6.575962305068969727e-01
1.128491997718811035e+00
-3.274486362934112549e-01
8.196818351745605469e+00
6.975487709045410156e+00
5.769370555877685547e+00
3.429130017757415771e-01
-1.547171831130981445e+00
8.218113332986831665e-02
3.395345211029052734e-01
1.600445985794067383e+00
1.693797111511230469e+00
5.057324171066284180e-01
5.317263126373291016e+00
6.588269233703613281e+00
5.668323993682861328e+00
1.108524203300476074e+00
2.054181575775146484e+00
7.993942499160766602e-01
-1.145805358886718750e+00
2.998737096786499023e+00
2.453159093856811523e+00
2.115619033575057983e-01
-1.434793710708618164e+00
3.240133523941040039e-01
-8.409989476203918457e-01
-9.087122678756713867e-01
1.007406592369079590e+00
1.432763218879699707e+00
1.719786882400512695e+00
8.351954221725463867e-01
3.558031558990478516e+00
9.494072198867797852e-01
9.415502548217773438e-01
2.368971146643161774e-02
3.712350368499755859e+00
3.342248678207397461e+00
5.045161724090576172e+00
-3.670235872268676758e-01
-3.889136910438537598e-01
1.163728609681129456e-01
1.093531250953674316e+00
4.240132808685302734e+00
2.666139125823974609e+00
3.186082601547241211e+00
4.589531421661376953e+00
4.136818408966064453e+00
2.223508119583129883e+00
4.514226913452148438e+00
1.231548190116882324e+00
-4.488244056701660156e-01
6.333997845649719238e-01
-1.246673345565795898e+00
1.357658028602600098e+00
2.779909610748291016e+00
3.923613071441650391e+00
3.858041524887084961e+00
4.199337482452392578e+00
3.719357967376708984e+00
2.904389142990112305e+00
3.204071760177612305e+00
3.235147476196289062e+00
1.016838550567626953e+00
-1.370440870523452759e-01
-1.513190388679504395e+00
-1.015109419822692871e+00
9.425207972526550293e-01
