4.742720127105712891e-01
4.866872429847717285e-01
-1.090457677841186523e+00
-5.587151646614074707e-01
-9.005296975374221802e-02
-1.898180544376373291e-01
5.108647346496582031e-01
9.097005724906921387e-01
7.637803554534912109e-01
8.423792839050292969e+00
3.043318033218383789e+00
4.290085315704345703e+00
2.479650020599365234e+00
-2.315122485160827637e-01
-1.207936167716979980e+00
1.410679340362548828e+00
-7.918038368225097656e-01
2.060340881347656250e+00
1.732222437858581543e+00
-1.064270138740539551e+00
1.349585175514221191e+00
6.027357578277587891e-01
2.556606531143188477e+00
3.827428579330444336e+00
4.149833202362060547e+00
9.444696307182312012e-01
2.845461845397949219e+00
-6.211635470390319824e-02
-1.474725842475891113e+00
9.370575547218322754e-01
3.583597898483276367e+00
6.937469840049743652e-01
-6.645964980125427246e-01
2.412444114685058594e+00
1.207170963287353516e+00
4.346254467964172363e-01
1.634532690048217773e+00
2.199900150299072266e+00
1.921136498451232910e+00
2.500591039657592773e+00
-3.838107287883758545e-01
1.537817597389221191e+00
1.365012168884277344e+00
5.220902562141418457e-01
-1.474851667881011963e-01
2.309184551239013672e+00
1.721844673156738281e+00
7.223250269889831543e-01
1.057456254959106445e+00
-1.717154741287231445e+00
1.327890343964099884e-02
1.102291703224182129e+00
7.023427486419677734e-01
2.802375853061676025e-01
-5.455900430679321289e-01
-5.900572538375854492e-01
8.135050535202026367e-01
1.922314405441284180e+00
7.742676258087158203e+00
1.027481365203857422e+01
7.234640598297119141e+00
7.911137104034423828e+00
7.853139400482177734e+00
3.088464736938476562e+00
4.328733921051025391e+00
1.883697032928466797e+00
2.356257200241088867e+00
3.951790332794189453e-01
1.108409523963928223e+00
8.227779269218444824e-01
7.708398699760437012e-01
3.608949899673461914e+00
3.294516801834106445e+00
3.982168912887573242e+00
3.652088642120361328e+00
3.752936601638793945e+00
1.905775547027587891e+00
2.326505661010742188e+00
1.708883881568908691e+00
2.387608289718627930e+00
5.029395580291748047e+00
5.533166885375976562e+00
5.151727795600891113e-01
3.219970703125000000e+00
4.479884147644042969e+00
3.879719495773315430e+00
-9.395160079002380371e-01
-1.931752324104309082e+00
-2.218598365783691406e+00
-1.856789588928222656e-01
4.716798782348632812e+00
5.293498516082763672e+00
1.148805379867553711e+00
8.299116790294647217e-02
8.450322747230529785e-01
5.453139543533325195e-01
1.690802812576293945e+00
1.013884782791137695e+00
4.054861068725585938e+00
3.666586160659790039e+00
4.812067508697509766e+00
3.415060043334960938e+00
4.911502361297607422e+00
4.540845870971679688e+00
3.650455474853515625e+00
3.930814266204833984e+00
4.811822414398193359e+00
3.838672399520874023e+00
3.929680347442626953e+00
5.840507030487060547e+00
4.845242977142333984e+00
3.766507863998413086e+00
3.884540319442749023e+00
2.818385362625122070e+00
4.028752446174621582e-01
1.673165082931518555e+00
1.520149111747741699e-01
4.553022861480712891e+00
2.763684749603271484e+00
9.203724265098571777e-01
2.735770463943481445e+00
1.202076077461242676e+00
-6.030893921852111816e-01
-7.496396899223327637e-01
3.424967050552368164e+00
2.613248586654663086e+00
3.030073881149291992e+00
1.642228126525878906e+00
6.577425599098205566e-01
4.695029258728027344e+00
3.564943313598632812e+00
4.974802017211914062e+00
-3.183187246322631836e-01
-2.088518068194389343e-02
-3.622974455356597900e-01
-7.246621251106262207e-01
2.491776943206787109e+00
5.088339328765869141e+00
3.906687259674072266e+00
-7.396935224533081055e-01
-1.062981560826301575e-01
-5.900762081146240234e-01
8.160436153411865234e-01
2.627897024154663086e+00
6.659727543592453003e-02
-1.750169515609741211e+00
4.962896823883056641e+00
1.888360142707824707e+00
-6.161146759986877441e-01
1.688873052597045898e+00
2.280639171600341797e+00
-8.128722906112670898e-01
8.669310808181762695e-01
4.215524196624755859e+00
1.922447383403778076e-01
4.433797001838684082e-01
6.495934724807739258e-02
2.085845232009887695e+00
5.320252895355224609e+00
4.340472698211669922e+00
-8.004390597343444824e-01
4.942386150360107422e-01
2.226739168167114258e+00
2.704212188720703125e+00
-1.277867317199707031e+00
-8.344838023185729980e-01
6.290563583374023438e+00
4.252317905426025391e+00
1.563861012458801270e+00
2.179567813873291016e+00
3.473789095878601074e-01
-2.369045317173004150e-01
4.090367317199707031e+00
2.204687356948852539e+00
2.063924074172973633e+00
3.301753759384155273e+00
-6.205831840634346008e-02
5.487667322158813477e-01
2.644500970840454102e+00
1.187317967414855957e+00
-3.409823179244995117e-01
1.679157137870788574e+00
1.294117808341979980e+00
9.260726571083068848e-01
-3.129771053791046143e-01
1.008343315124511719e+01
2.317892313003540039e+00
1.549792289733886719e+00
1.914009153842926025e-01
3.954770565032958984e-01
-1.425345897674560547e+00
1.165749952197074890e-01
5.313230752944946289e-01
7.296407818794250488e-01
2.407889604568481445e+00
-6.820933818817138672e-01
2.529086589813232422e+00
2.003949403762817383e+00
8.419404029846191406e-01
1.018784642219543457e+00
-4.509781301021575928e-01
1.112445235252380371e+00
-2.040255814790725708e-01
-1.439106225967407227e+00
3.226479530334472656e+00
-1.086819052696228027e+00
-1.586087197065353394e-01
6.974723935127258301e-01
8.609383106231689453e-01
-1.604575365781784058e-01
7.906069159507751465e-01
2.425211966037750244e-01
3.837566375732421875e-01
-6.979925036430358887e-01
7.600375413894653320e-01
8.602160215377807617e-01
-1.173404157161712646e-01
6.237041354179382324e-01
9.458399415016174316e-01
7.039641737937927246e-01
1.866296291351318359e+00
1.255260229110717773e+00
-9.802846610546112061e-02
9.603337287902832031e+00
9.144629478454589844e+00
1.265460014343261719e+00
-9.643703699111938477e-01
5.016398429870605469e-01
-1.352380871772766113e+00
2.466702014207839966e-01
-9.823727011680603027e-01
-8.370434641838073730e-01
4.812170028686523438e+00
-1.834138989448547363e+00
1.378511667251586914e+00
2.176408052444458008e+00
4.973621964454650879e-01
9.799744486808776855e-01
3.035165071487426758e-01
6.802551150321960449e-01
1.871163129806518555e+00
1.104719996452331543e+00
9.198141098022460938e-01
2.199424266815185547e+00
1.124618649482727051e+00
1.044710427522659302e-01
2.026615381240844727e+00
6.746484637260437012e-01
5.556196570396423340e-01
6.729521155357360840e-01
-3.980962932109832764e-01
-1.971251845359802246e+00
4.912276268005371094e-01
-7.322785854339599609e-01
5.192041993141174316e-01
2.203619956970214844e+00
-9.218671917915344238e-01
2.363286018371582031e+00
2.296551316976547241e-01
-1.289226412773132324e-01
1.448056548833847046e-01
2.026790857315063477e+00
7.617406845092773438e-01
1.154844641685485840e+00
-9.108421951532363892e-02
-3.919946253299713135e-01
1.025100946426391602e+00
5.683921813964843750e+00
5.915720939636230469e+00
1.825228810310363770e+00
1.905443310737609863e+00
8.396804332733154297e-01
-9.237807393074035645e-01
5.468085408210754395e-02
1.026533126831054688e+00
4.807830810546875000e+00
5.267590999603271484e+00
2.992832660675048828e+00
2.539253473281860352e+00
-3.847699165344238281e-01
1.815536022186279297e-01
1.002342343330383301e+00
3.204741477966308594e+00
6.541587829589843750e+00
-7.257432490587234497e-02
-4.788558781147003174e-01
6.093365550041198730e-01
2.138619869947433472e-01
3.635953903198242188e+00
-2.527224719524383545e-01
-3.958523571491241455e-01
-1.429623126983642578e+00
1.287648320198059082e+00
2.032466411590576172e+00
2.022863388061523438e+00
2.761596918106079102e+00
2.405581235885620117e+00
2.584622144699096680e+00
2.701998472213745117e+00
1.330738306045532227e+00
1.711295962333679199e+00
4.492627978324890137e-01
3.094517946243286133e+00
1.354934930801391602e+00
1.257995367050170898e+00
7.060188055038452148e-01
2.219931036233901978e-01
1.010193824768066406e+00
6.211489439010620117e-01
4.412781596183776855e-01
-6.041252017021179199e-01
3.542245864868164062e+00
1.325269103050231934e+00
1.610632777214050293e+00
3.907528519630432129e-01
1.128626465797424316e+00
1.509978771209716797e-01
2.221014261245727539e+00
3.817727327346801758e+00
3.080972194671630859e+00
4.134659096598625183e-02
1.412667870521545410e+00
2.431089639663696289e+00
-1.631438016891479492e+00
-8.514990657567977905e-02
1.149187445640563965e+00
7.286611795425415039e-01
7.059462070465087891e-01
3.273206710815429688e+00
-2.536566853523254395e-01
4.750680625438690186e-01
5.225586891174316406e-01
1.825881719589233398e+00
-1.358681917190551758e+00
2.403680384159088135e-01
8.801091909408569336e-01
-1.549584746360778809e+00
2.183622837066650391e+00
-5.005259513854980469e-01
2.984879314899444580e-01
5.211566448211669922e+00
1.685347199440002441e+00
2.602510452270507812e+00
5.694401264190673828e+00
4.148620128631591797e+00
3.063818693161010742e+00
2.582839250564575195e+00
1.160871982574462891e+00
2.603493332862854004e-01
1.874662160873413086e+00
1.497334837913513184e+00
9.669867157936096191e-01
5.510421395301818848e-01
2.587479591369628906e+00
2.633917331695556641e+00
6.052519679069519043e-01
7.240754961967468262e-01
3.721694648265838623e-01
1.702081441879272461e+00
1.697207331657409668e+00
-9.428272843360900879e-01
-4.651845395565032959e-01
1.476345658302307129e-01
6.373606681823730469e+00
1.225495696067810059e+00
5.329546928405761719e-01
9.917232990264892578e-01
1.028168678283691406e+00
6.989161014556884766e+00
5.448308467864990234e+00
5.609935760498046875e+00
4.263130187988281250e+00
3.765799045562744141e+00
1.945875734090805054e-01
1.500784307718276978e-01
-5.719760656356811523e-01
1.322637200355529785e+00
3.543057918548583984e+00
-9.404572099447250366e-02
-5.354039072990417480e-01
2.131068468093872070e+00
1.588184833526611328e+00
-1.587644666433334351e-01
-4.442410469055175781e-01
3.261215090751647949e-01
1.512953519821166992e+00
6.632731556892395020e-01
-4.971694350242614746e-01
4.560201644897460938e+00
4.136472046375274658e-01
6.593272686004638672e-01
5.337231159210205078e+00
1.181927204132080078e+00
2.113387823104858398e+00
9.012616276741027832e-01
1.711500167846679688e+00
6.546985507011413574e-01
1.007819771766662598e+00
9.421039819717407227e-01
1.110259890556335449e-01
1.212213158607482910e+00
-2.502526640892028809e-01
-1.268931984901428223e+00
-5.515621975064277649e-02
-6.727600693702697754e-01
1.440905313938856125e-02
-7.671893835067749023e-01
-9.325757622718811035e-02
1.050695657730102539e+00
9.402102231979370117e-01
5.414758920669555664e-01
1.253799676895141602e+00
1.763307303190231323e-01
1.227254748344421387e+00
-9.010513126850128174e-02
1.761073946952819824e+00
1.306549072265625000e+00
1.502602338790893555e+00
8.746147155761718750e-01
6.468714475631713867e-01
-2.037991285324096680e-01
1.100627422332763672e+00
5.338481903076171875e+00
5.620459556579589844e+00
3.801797151565551758e+00
6.333648562431335449e-01
3.741934537887573242e+00
8.505005836486816406e-01
-3.945605754852294922e-01
2.983709812164306641e+00
2.619337797164916992e+00
1.871320962905883789e+00
2.252935886383056641e+00
4.324508190155029297e+00
2.077506780624389648e+00
5.275286197662353516e+00
2.411094427108764648e+00
3.614214360713958740e-01
1.656192064285278320e+00
9.769327640533447266e-01
1.403313636779785156e+00
-2.141014486551284790e-01
2.362602502107620239e-01
-1.080868124961853027e+00
-1.931745857000350952e-01
5.071178436279296875e+00
-4.101952314376831055e-01
1.822697401046752930e+00
-7.604672908782958984e-01
2.296667546033859253e-01
3.172775268554687500e+00
4.909294128417968750e+00
3.648597717285156250e+00
3.836734294891357422e-01
-9.434548616409301758e-01
-6.935558319091796875e-01
1.451964974403381348e+00
2.482987791299819946e-01
5.914881825447082520e-01
2.363556921482086182e-01
5.993093013763427734e+00
2.437337636947631836e+00
2.649042129516601562e+00
1.803001403808593750e+00
2.568172693252563477e+00
2.239298582077026367e+00
6.383297443389892578e-01
2.912316098809242249e-02
3.042763471603393555e-01
-4.639794677495956421e-02
-1.495535373687744141e-01
3.542395114898681641e+00
1.258987426757812500e+00
8.423771858215332031e-01
1.313535094261169434e+00
2.126640558242797852e+00
1.516327381134033203e+00
1.767376184463500977e+00
2.132781744003295898e+00
1.279526948928833008e+00
-3.580088913440704346e-01
2.055914163589477539e+00
2.534317493438720703e+00
1.758162379264831543e+00
1.875652074813842773e+00
1.321743249893188477e+00
1.756995201110839844e+00
8.631474375724792480e-01
1.048419713973999023e+00
6.853116750717163086e-01
5.056689977645874023e-01
3.762536868453025818e-02
2.290583401918411255e-01
9.447206258773803711e-01
-3.103207349777221680e-01
1.420486532151699066e-02
-1.347934454679489136e-01
1.164146780967712402e+00
7.277314186096191406e+00
6.426833152770996094e+00
6.131163597106933594e+00
1.158057332038879395e+00
-1.876708269119262695e-01
-8.947613835334777832e-01
-7.308112978935241699e-01
1.427807062864303589e-01
-1.267799615859985352e+00
-1.108057379722595215e+00
5.399232387542724609e+00
5.999393463134765625e+00
4.347858905792236328e+00
1.030229449272155762e+00
2.780619144439697266e+00
-1.617601156234741211e+00
1.786689907312393188e-01
3.031857728958129883e+00
3.050512790679931641e+00
2.412169575691223145e-01
-3.172993063926696777e-01
9.932033419609069824e-01
5.992885306477546692e-02
-4.281808435916900635e-01
7.714458107948303223e-01
-5.406199023127555847e-02
9.014322161674499512e-01
1.809985041618347168e+00
4.386348247528076172e+00
3.839936256408691406e+00
9.012587070465087891e-01
-4.665732979774475098e-01
3.050219535827636719e+00
2.296798467636108398e+00
1.588220953941345215e+00
1.809552192687988281e+00
1.043303966522216797e+00
-2.656364142894744873e-01
-1.716649234294891357e-01
4.925771713256835938e+00
3.578864812850952148e+00
3.324016332626342773e+00
3.048051595687866211e+00
4.191431999206542969e+00
2.453461170196533203e+00
4.046072006225585938e+00
-8.208124041557312012e-01
-1.282139897346496582e+00
-4.770837128162384033e-01
-4.885743558406829834e-01
1.080272078514099121e+00
4.150573253631591797e+00
1.231590867042541504e+00
3.205071687698364258e+00
4.576576232910156250e+00
2.444880247116088867e+00
3.285989761352539062e+00
1.773138999938964844e+00
8.318653702735900879e-02
-4.562119245529174805e-01
-6.455179452896118164e-01
-1.135244011878967285e+00
-6.693087220191955566e-01
1.177997469902038574e+00
