1.961094856262207031e+00
-1.950269639492034912e-01
2.633230388164520264e-01
8.087313771247863770e-01
2.979269437491893768e-02
-4.933900535106658936e-01
-1.896906495094299316e-01
-3.842719793319702148e-01
1.827793568372726440e-01
2.913980484008789062e+00
2.771613597869873047e+00
2.785890102386474609e+00
2.335240125656127930e+00
1.046609878540039062e+00
-1.327603578567504883e+00
8.763656020164489746e-01
3.892430067062377930e-01
1.805714488029479980e+00
3.255721569061279297e+00
8.518706560134887695e-01
-8.533392846584320068e-02
9.956596046686172485e-02
2.306364774703979492e+00
2.382851600646972656e+00
2.362474679946899414e+00
2.300291538238525391e+00
2.468425512313842773e+00
4.160126447677612305e-01
9.876264929771423340e-01
1.531839609146118164e+00
-5.666673183441162109e-01
-9.334830045700073242e-01
-6.596089899539947510e-02
-5.390403866767883301e-01
6.794239878654479980e-01
8.177999854087829590e-01
1.491760164499282837e-01
1.665455341339111328e+00
1.696368217468261719e+00
1.087909340858459473e+00
-1.280657291412353516e+00
1.613920211791992188e+00
2.611804246902465820e+00
4.660569429397583008e-01
-1.611433029174804688e+00
2.691305428743362427e-02
1.819321274757385254e+00
2.896066665649414062e+00
2.151258707046508789e+00
9.054549932479858398e-01
-3.573060929775238037e-01
2.225246876478195190e-01
2.488758713006973267e-01
-8.265210390090942383e-01
-3.041973151266574860e-02
-8.303983509540557861e-02
-1.169005393981933594e+00
9.203460216522216797e-01
3.230153560638427734e+00
3.232732772827148438e+00
3.231796026229858398e+00
3.261867284774780273e+00
3.266453981399536133e+00
3.637073040008544922e+00
3.596613645553588867e+00
3.491809606552124023e+00
3.553502798080444336e+00
-1.639720559120178223e+00
5.841792225837707520e-01
2.216346263885498047e+00
1.905092120170593262e+00
3.857023715972900391e+00
3.868112802505493164e+00
3.081686258316040039e+00
3.079224109649658203e+00
2.940600395202636719e+00
3.168121576309204102e+00
3.572582006454467773e+00
2.165681362152099609e+00
2.867710828781127930e+00
1.944393515586853027e+00
1.957988262176513672e+00
7.800449728965759277e-01
1.734739780426025391e+00
3.117015838623046875e+00
3.117835998535156250e+00
-5.228248834609985352e-01
1.557454586029052734e+00
-4.182897508144378662e-02
-4.558797180652618408e-01
3.593301773071289062e+00
3.587579965591430664e+00
2.272759199142456055e+00
1.529774665832519531e+00
5.678764581680297852e-01
3.491723164916038513e-02
2.540813922882080078e+00
2.957611322402954102e+00
3.425558090209960938e+00
3.321809053421020508e+00
3.711668491363525391e+00
3.718752145767211914e+00
2.834773302078247070e+00
2.829957723617553711e+00
3.699897766113281250e+00
3.674667358398437500e+00
3.552597522735595703e+00
3.542268514633178711e+00
3.745011806488037109e+00
3.391413211822509766e+00
3.383985996246337891e+00
2.562732934951782227e+00
2.492585420608520508e+00
1.432867288589477539e+00
1.435974240303039551e+00
2.312743902206420898e+00
1.964762449264526367e+00
3.216153621673583984e+00
3.448068380355834961e+00
3.315682888031005859e+00
3.432652235031127930e+00
-6.004022955894470215e-01
2.018979787826538086e-01
-3.986544907093048096e-01
3.288501977920532227e+00
3.331773042678833008e+00
2.903952598571777344e+00
2.964659929275512695e+00
-1.337735652923583984e-01
3.104711771011352539e+00
2.355175018310546875e+00
2.338921070098876953e+00
8.270773291587829590e-02
-1.211382269859313965e+00
5.966377258300781250e-01
4.992262721061706543e-01
3.655682802200317383e+00
3.662327289581298828e+00
2.741129398345947266e+00
8.276537060737609863e-01
1.271288752555847168e+00
1.005839183926582336e-01
2.118401288986206055e+00
-4.205452799797058105e-01
-4.344862401485443115e-01
-8.760888129472732544e-02
2.588916063308715820e+00
2.128095388412475586e+00
9.765711426734924316e-01
8.780485391616821289e-01
3.008406639099121094e+00
1.986135542392730713e-02
-2.067023366689682007e-01
2.516909122467041016e+00
-3.954502753913402557e-03
4.398978650569915771e-01
3.300116956233978271e-01
-9.452242255210876465e-01
2.563246726989746094e+00
2.557066679000854492e+00
-1.160858631134033203e+00
1.834404915571212769e-01
2.704664468765258789e+00
2.256686449050903320e+00
3.295208513736724854e-01
2.645834982395172119e-01
3.741179466247558594e+00
3.744775533676147461e+00
3.225863933563232422e+00
3.457088232040405273e+00
-6.476534903049468994e-02
-2.396253123879432678e-02
4.085439682006835938e+00
4.082056045532226562e+00
3.638077497482299805e+00
3.634178161621093750e+00
4.580546021461486816e-01
-7.502852678298950195e-01
3.223372459411621094e+00
1.676018238067626953e+00
6.761014461517333984e-01
5.165487527847290039e-01
-4.864977002143859863e-01
2.529822289943695068e-01
1.900860905647277832e+00
2.612796545028686523e+00
6.614595651626586914e-01
6.245893239974975586e-01
-4.770429134368896484e-01
-9.017363190650939941e-01
-2.176731079816818237e-01
4.261228144168853760e-01
-1.366402022540569305e-02
4.216904342174530029e-01
4.819888770580291748e-01
5.038788914680480957e-01
4.412660002708435059e-01
2.586179673671722412e-01
1.905626803636550903e-01
6.978853344917297363e-01
-6.498596072196960449e-01
-1.499185413122177124e-01
3.061152994632720947e-01
-7.352478504180908203e-01
1.574414968490600586e+00
-3.210196271538734436e-02
-4.118082821369171143e-01
-2.694515883922576904e-01
1.327197790145874023e+00
1.327308535575866699e+00
-1.124687552452087402e+00
7.384536862373352051e-01
5.302758812904357910e-01
3.649974167346954346e-01
4.626030325889587402e-01
6.170676946640014648e-01
2.307099550962448120e-01
1.019504070281982422e+00
-2.032945305109024048e-01
1.025831937789916992e+00
-1.041388437151908875e-01
2.462672889232635498e-01
1.011246442794799805e-01
2.686469316482543945e+00
2.685490846633911133e+00
2.761788845062255859e+00
9.249652624130249023e-01
-8.573857545852661133e-01
7.085243463516235352e-01
5.763916969299316406e-01
1.336525321006774902e+00
4.346354678273200989e-02
2.849315166473388672e+00
-1.378291398286819458e-01
1.377741456031799316e+00
1.672181248664855957e+00
1.226154327392578125e+00
1.970254182815551758e+00
2.759639620780944824e-01
1.015471220016479492e+00
1.138206124305725098e+00
9.940380454063415527e-01
-1.069991827011108398e+00
-2.565008774399757385e-02
1.668853521347045898e+00
1.607188344001770020e+00
1.747802734375000000e+00
1.716929435729980469e+00
9.274981915950775146e-02
5.952513813972473145e-01
-2.239549458026885986e-01
-9.907569885253906250e-01
2.232215255498886108e-01
-4.971515387296676636e-03
1.259127855300903320e+00
7.347100377082824707e-01
-1.362159103155136108e-01
2.045586824417114258e+00
6.047818660736083984e-01
1.307873129844665527e+00
-6.139714717864990234e-01
2.259762525558471680e+00
2.627694129943847656e+00
1.782320022583007812e+00
-7.475345581769943237e-02
5.346162319183349609e-01
-1.313314914703369141e+00
2.878492832183837891e+00
2.875009536743164062e+00
2.899371862411499023e+00
3.117249011993408203e+00
8.744423389434814453e-01
1.411653757095336914e+00
1.422542452812194824e+00
1.012738943099975586e+00
2.674068689346313477e+00
2.685672521591186523e+00
3.839337587356567383e+00
3.763624191284179688e+00
1.281933665275573730e+00
-4.135832488536834717e-01
9.651431441307067871e-01
1.611791491508483887e+00
2.490250587463378906e+00
2.526088476181030273e+00
-3.205482363700866699e-01
-1.419203281402587891e-01
6.582424640655517578e-01
2.224288463592529297e+00
-1.315150737762451172e+00
-4.347431361675262451e-01
-7.028145194053649902e-01
1.375820636749267578e+00
1.318000793457031250e+00
1.291005611419677734e+00
1.684403657913208008e+00
1.189821362495422363e+00
2.895800113677978516e+00
2.685874223709106445e+00
1.035505294799804688e+00
1.654338359832763672e+00
7.117442488670349121e-01
2.210458040237426758e+00
1.388174772262573242e+00
-3.308980166912078857e-01
1.288317680358886719e+00
9.512611031532287598e-01
-4.198111966252326965e-02
-5.698732733726501465e-01
2.013422727584838867e+00
3.529559373855590820e-01
2.492160081863403320e+00
2.627261579036712646e-01
2.039555162191390991e-01
2.037284135818481445e+00
1.483809351921081543e+00
3.714533448219299316e-01
2.913135051727294922e+00
2.259544849395751953e+00
2.527789592742919922e+00
-4.559632241725921631e-01
1.276473104953765869e-01
2.752547860145568848e-01
-2.244570106267929077e-01
1.794909834861755371e+00
1.987356185913085938e+00
4.444250762462615967e-01
-6.479329466819763184e-01
7.657127380371093750e-01
1.384919285774230957e+00
4.295917749404907227e-01
8.464477062225341797e-01
1.874865498393774033e-03
8.930662870407104492e-01
2.320131778717041016e+00
1.829621553421020508e+00
4.014176428318023682e-01
2.029369592666625977e+00
-1.733663439750671387e+00
-2.259730920195579529e-02
2.506271600723266602e+00
1.920729637145996094e+00
2.763386249542236328e+00
2.371579885482788086e+00
2.384156465530395508e+00
2.527575731277465820e+00
2.598832368850708008e+00
1.431073904037475586e+00
3.701563119888305664e+00
3.582130670547485352e+00
1.135378956794738770e+00
7.299433946609497070e-01
1.300721645355224609e+00
1.014786005020141602e+00
3.697357892990112305e+00
1.382036328315734863e+00
1.419457674026489258e+00
-5.458634495735168457e-01
1.372718930244445801e+00
1.490783214569091797e+00
-1.196740865707397461e+00
-6.825553253293037415e-03
-2.341700196266174316e-01
2.805242300033569336e+00
3.857240974903106689e-01
-2.309682816267013550e-01
4.111447185277938843e-02
3.581752479076385498e-01
2.793370485305786133e+00
2.793128490447998047e+00
2.797959327697753906e+00
3.158900976181030273e+00
2.877551078796386719e+00
2.096329212188720703e+00
2.071164548397064209e-01
-6.318468451499938965e-01
1.684888452291488647e-01
3.583919286727905273e+00
-1.519976973533630371e+00
-4.018673300743103027e-01
3.766225814819335938e+00
4.054835796356201172e+00
1.789912343025207520e+00
6.979706883430480957e-01
1.251030564308166504e+00
3.363672494888305664e-01
1.045476317405700684e+00
1.276835799217224121e+00
3.104110479354858398e+00
8.388013839721679688e-01
-4.847874641418457031e-01
3.101901531219482422e+00
1.768515944480895996e+00
1.613643407821655273e+00
1.392259240150451660e+00
1.801631331443786621e+00
-4.169585704803466797e-01
-3.766225874423980713e-01
3.001823723316192627e-01
-3.384336829185485840e-01
2.013168632984161377e-01
-1.770107001066207886e-01
7.915316224098205566e-01
9.012616276741027832e-01
4.026463627815246582e-01
1.013060212135314941e+00
5.385236740112304688e-01
3.195506632328033447e-01
-1.453570246696472168e+00
9.903488755226135254e-01
-9.071053266525268555e-01
-1.226768374443054199e+00
1.821043193340301514e-01
-1.080792993307113647e-01
1.036865830421447754e+00
-1.554542422294616699e+00
-9.607409238815307617e-01
1.208006978034973145e+00
-4.056294858455657959e-01
6.880813837051391602e-01
-4.379958808422088623e-01
-1.017275333404541016e+00
2.390613794326782227e+00
2.388391017913818359e+00
3.392059564590454102e+00
3.413793742656707764e-01
3.259032249450683594e+00
2.000454425811767578e+00
1.133248448371887207e+00
3.409773111343383789e+00
2.338322401046752930e+00
2.042215824127197266e+00
1.369229197502136230e+00
2.074246883392333984e+00
3.228253602981567383e+00
3.163616895675659180e+00
3.170240879058837891e+00
1.381487011909484863e+00
1.688268661499023438e+00
2.413658857345581055e+00
5.306125879287719727e-01
-7.600172758102416992e-01
8.385209739208221436e-02
1.656150966882705688e-01
-7.164522409439086914e-01
1.390559315681457520e+00
1.029217019677162170e-01
2.669698894023895264e-01
8.892173171043395996e-01
4.504686295986175537e-01
8.854262232780456543e-01
9.879866242408752441e-01
1.551891088485717773e+00
1.020932197570800781e+00
6.858295798301696777e-01
1.567191677168011665e-03
3.898960053920745850e-01
-2.205142527818679810e-01
2.017261981964111328e+00
4.228056371212005615e-01
1.853736519813537598e+00
2.215053558349609375e+00
2.363060235977172852e+00
1.338615775108337402e+00
1.893177390098571777e+00
3.681534901261329651e-02
1.433202505111694336e+00
9.439660906791687012e-01
5.304272770881652832e-01
-4.721530079841613770e-01
-3.226742446422576904e-01
2.193836450576782227e+00
7.240498661994934082e-01
1.134487509727478027e+00
3.284165859222412109e-01
1.626895308494567871e+00
1.024464011192321777e+00
2.027968645095825195e+00
1.134422421455383301e+00
2.256203413009643555e+00
-1.527068018913269043e-01
3.172888755798339844e-01
2.427144050598144531e+00
2.378921985626220703e+00
2.759097099304199219e+00
2.384213447570800781e+00
9.710030555725097656e-01
9.939323663711547852e-01
9.506620168685913086e-01
8.285035490989685059e-01
-2.651501595973968506e-01
8.523224294185638428e-02
-3.438870012760162354e-01
8.930686116218566895e-01
-1.071529269218444824e+00
-4.015801846981048584e-01
-1.239809036254882812e+00
-6.810110807418823242e-01
1.574633479118347168e+00
1.554639101028442383e+00
1.561531066894531250e+00
6.519327759742736816e-01
1.434493660926818848e+00
3.572633862495422363e-01
1.365848034620285034e-01
-1.399828642606735229e-01
6.241800785064697266e-01
-5.614375472068786621e-01
1.999331235885620117e+00
1.957527518272399902e+00
2.000829219818115234e+00
1.749677062034606934e-01
9.508030414581298828e-01
3.214614987373352051e-01
-1.773051738739013672e+00
1.120654225349426270e+00
9.872851371765136719e-01
4.194678664207458496e-01
8.740511536598205566e-01
5.072110295295715332e-01
9.419139623641967773e-01
9.429573416709899902e-01
-1.558470606803894043e+00
-9.353356957435607910e-01
3.410323858261108398e-01
-8.090522140264511108e-02
1.376906275749206543e+00
1.382399678230285645e+00
-8.075821995735168457e-01
-7.787790298461914062e-01
1.424157857894897461e+00
1.381434082984924316e+00
1.375321269035339355e+00
-2.289176285266876221e-01
-2.779133617877960205e-02
-2.471242398023605347e-01
-2.902241647243499756e-01
3.884834289550781250e+00
3.874824285507202148e+00
3.937492609024047852e+00
3.974501848220825195e+00
3.967079162597656250e+00
3.969380617141723633e+00
3.870803833007812500e+00
-1.754688322544097900e-01
4.342072904109954834e-01
4.269595742225646973e-01
7.349785566329956055e-01
2.817182987928390503e-02
1.353852152824401855e+00
1.353838205337524414e+00
1.507047295570373535e+00
1.287291049957275391e+00
1.396113038063049316e+00
1.117372035980224609e+00
9.773535728454589844e-01
1.947300791740417480e+00
8.443748354911804199e-01
-2.115173637866973877e-01
-1.811353564262390137e-01
-4.336569011211395264e-01
-6.357536315917968750e-01
