	metabolite_0	metabolite_1	metabolite_2	metabolite_3	metabolite_4	metabolite_5	metabolite_6	metabolite_7	metabolite_8	metabolite_9	metabolite_10	metabolite_11	metabolite_12	metabolite_13	metabolite_14	metabolite_15	metabolite_16	metabolite_17	metabolite_18	metabolite_19	metabolite_20	metabolite_21	metabolite_22	metabolite_23	metabolite_24	metabolite_25	metabolite_26	metabolite_27	metabolite_28	metabolite_29	metabolite_30	metabolite_31	metabolite_32	metabolite_33	metabolite_34	metabolite_35	metabolite_36	metabolite_37	metabolite_38	metabolite_39	metabolite_40	metabolite_41	metabolite_42	metabolite_43	metabolite_44	metabolite_45	metabolite_46	metabolite_47	metabolite_48	metabolite_49	metabolite_50	metabolite_51	metabolite_52	metabolite_53	metabolite_54	metabolite_55	metabolite_56	metabolite_57	metabolite_58	metabolite_59	metabolite_60	metabolite_61	metabolite_62	metabolite_63	metabolite_64	metabolite_65	metabolite_66	metabolite_67	metabolite_68	metabolite_69	metabolite_70	metabolite_71	metabolite_72	metabolite_73	metabolite_74	metabolite_75	metabolite_76	metabolite_77	metabolite_78	metabolite_79	metabolite_80	metabolite_81	metabolite_82	metabolite_83	metabolite_84	metabolite_85	metabolite_86	metabolite_87	metabolite_88	metabolite_89	metabolite_90	metabolite_91	metabolite_92	metabolite_93	metabolite_94	metabolite_95	metabolite_96	metabolite_97	metabolite_98	metabolite_99
microbe_0	0.015094381178063498	-0.04581396259146597	0.021914663586218408	0.010127741018609138	0.0011915951003744762	-0.00945702264955206	-0.004619168956995656	0.0065923242911434254	-0.0011279715306604654	0.019061169357177832	-0.011085201847933268	0.004753259169128166	-0.005645305676451384	-0.004582492497377411	-0.00501509685335666	0.005331337259274482	0.01082508704421481	-0.007745478476886447	0.007053210066870097	0.016089187966416896	0.010436962184937615	0.014427942935447247	0.011058603506098885	-0.0031925349772132794	-0.017959827942862105	0.0057934864691180366	-0.004702157901416815	0.013109650598815747	-0.011771244685625737	-0.00904599825862995	0.0005130719053647592	-0.006203639398084881	0.009179207548395185	-0.006106911691224903	0.0027961811897565525	0.0023360865606791847	0.011227208869892147	0.00298300160576348	0.022120810952143577	0.003721131600474381	-0.026228066963457364	0.008466875954882713	-0.0006180593026252623	-0.009855767077904032	-0.011871543103885829	-0.0058993141291878715	-0.005556613733743054	0.011825854792980595	0.014802140653893181	-0.006502493875619519	0.0026111658012106798	-0.01444827092049672	-0.003717840866788169	-0.01892952600224218	-0.006847942367732784	-0.01041927875052262	9.107658449147849e-05	0.016436501958110528	0.011898986226091202	-0.002005685171679872	-0.017789388724852362	0.016434839114954247	0.007643753885570037	0.005944261573891607	0.004501337620623547	0.0019155392658989356	0.013238432815874557	4.813807240533485e-05	-0.010806560910864738	-0.0007726021227230095	-0.00891072398126469	0.012752275371650246	0.004301684401654127	-0.011531282063956816	-0.008659211688323731	-7.834411896334714e-06	0.012275288025886288	0.01479777403066218	-0.012274359960626535	0.010007002330034709	-0.00531988865346289	-0.018204373301111243	-0.0014338510821583217	0.006232163644493749	0.007013786847996473	0.011773187927933249	0.000823877196383549	0.006046730037812642	0.001027621825409275	-0.024056323836417537	-0.017756129696671508	0.006783567832973514	0.008610075925871374	0.0018923883847516976	0.00603498370309552	-0.003939016538470064	-0.020188418448928935	-0.008070800636198472	-0.017886486343408725	0.01061305683109115
microbe_1	0.015093989925100228	-0.045814149288339844	0.02191179055131717	0.010129329959185217	0.0011925587343935423	-0.009458671313426995	-0.004619696454353617	0.006593697856487661	-0.0011296301147042248	0.01906277748021632	-0.011086759873816354	0.0047548940518806065	-0.005643740790142009	-0.004584423787786868	-0.005017143149746599	0.005332856536975884	0.010823468357247013	-0.007746556200416609	0.007055166360505086	0.016090648925950867	0.010437506085512811	0.01442901272566665	0.011057656412458532	-0.0031896197436274906	-0.017961339749452708	0.0057947443886890715	-0.0047038897730433335	0.013109741273561008	-0.011773814574315804	-0.009044402054230564	0.000514186423006914	-0.0062037112324612315	0.009179942642623638	-0.006107290684556621	0.002796788847619483	0.002338535098386829	0.011228533881112043	0.0029827369551712335	0.022118079530780106	0.0037190044485118923	-0.026227039940266476	0.008467998007584007	-0.0006187563277136321	-0.009853386767506737	-0.011873281543090891	-0.005900705171295845	-0.005555249369535727	0.011823926059536874	0.014799264440609923	-0.006503338022534742	0.002609694579193786	-0.014450079244122296	-0.0037195497993749715	-0.01893201446627931	-0.006846623646240189	-0.01041739145615362	8.532652333427537e-05	0.01643358945893465	0.011899722948615743	-0.0020056208120864324	-0.017787025538907618	0.016436369090219644	0.007645834854112243	0.0059466052967292946	0.004502617751234998	0.001915654305986711	0.013238068764540797	4.98037813482996e-05	-0.010808016960370002	-0.0007714801791040143	-0.008908791688678315	0.012751535031181628	0.00429935202925865	-0.01153339226126452	-0.00865715558907846	-6.415807024505449e-06	0.012276974252006634	0.014798808342668446	-0.01227380171234621	0.010006852476666953	-0.0053214029736509405	-0.018208723316385213	-0.0014338978036403174	0.006233622543224668	0.00701475705812072	0.011774969651353592	0.0008248291785888442	0.0060504068970315406	0.0010263958232209214	-0.02405570529266913	-0.017756154999356615	0.006783065888367405	0.008611965225914113	0.001891458832414289	0.006036753819246482	-0.003941852999924701	-0.020190869500673718	-0.0080681545433689	-0.017887486703103063	0.010614332856561708
microbe_2	0.015094219979784721	-0.045814039511559976	0.0219134798807274	0.01012839567048409	0.0011919921226588338	-0.009457701907740236	-0.004619386288681707	0.006592890207289936	-0.0011286548760103716	0.019061831912328117	-0.01108584376279204	0.004753932749421409	-0.005644660935060823	-0.004583288199184302	-0.005015939938232447	0.005331963209678664	0.010824420136670142	-0.007745922504649436	0.007054016070137444	0.016089789889429294	0.010437186274835445	0.014428383694644609	0.011058213298537567	-0.0031913338856423244	-0.017960450815129276	0.005794004738597702	-0.004702871441636232	0.01310968795728768	-0.011772303493283183	-0.00904534061402167	0.0005135310924955019	-0.0062036689942257355	0.00917951041108379	-0.006107067838471009	0.0027964315479922716	0.002337095371093584	0.011227754781484075	0.0029828925683274953	0.02211968559217503	0.0037202552026773823	-0.026227643824500716	0.008467338246497473	-0.0006183464806278627	-0.009854786377500379	-0.011872259349982244	-0.005899887245853039	-0.00555605160851327	0.01182506014465699	0.014800955638892147	-0.0065028416685886	0.0026105596500013532	-0.014449015959341924	-0.003718544956002587	-0.01893055126251429	-0.006847399047541634	-0.0104185011753157	8.87075290503872e-05	0.016435301993130903	0.011899289759646377	-0.0020056586551888134	-0.01778841507981312	0.016435469472811024	0.007644611255554979	0.0059452272000282795	0.004501865041168764	0.001915586663020193	0.01323828282481021	4.882435325112219e-05	-0.010807160810919397	-0.0007721398760507196	-0.008909927866555579	0.01275197034748315	0.004300723451959315	-0.011532151476346873	-0.008658364564619998	-7.249939227568086e-06	0.012275982759917162	0.014798200172649115	-0.01227412995939875	0.010006940589659	-0.005320512561345397	-0.018206165530284393	-0.0014338703316546242	0.0062327647184444255	0.007014186579670834	0.011773922007353988	0.0008242694180593466	0.006048244923150431	0.0010271167060590947	-0.024056068993139692	-0.01775614012151085	0.006783361029155605	0.008610854327426384	0.0018920054042994312	0.006035713000260219	-0.00394018517550869	-0.02018942829513989	-0.008069710432034752	-0.01788689849686451	0.01061358256029666
microbe_3	0.015093568833716719	-0.045814350223418454	0.021908698407985545	0.010131040078336359	0.0011935958587616473	-0.009460445710600101	-0.004620264180640907	0.006595176175083161	-0.0011314151885954901	0.019064508244756622	-0.011088436720604024	0.00475665361693103	-0.005642056559726296	-0.004586502365655481	-0.005019345504383595	0.005334491680499907	0.010821726223132377	-0.007747716115190411	0.007057271848439069	0.01609222130374512	0.010438091465988307	0.01443016410210539	0.011056637089900522	-0.003186482183381068	-0.017962966852091058	0.005796098241930444	-0.004705753723703739	0.013109838863502948	-0.01177658045236792	-0.009042684117289538	0.0005153859379497111	-0.006203788545196941	0.009180733797898372	-0.006107698581343007	0.0027974428477529033	0.0023411703707749316	0.011229959942663289	0.0029824521213309384	0.02211513980096636	0.0037167150719528315	-0.026225934592430392	0.008469205632237815	-0.0006195065105527829	-0.009850824925699848	-0.011875152562197882	-0.0059022022994985705	-0.005553780953790544	0.011821850233637896	0.014796168876500773	-0.006504246547263771	0.002608111156261108	-0.014452025477298205	-0.003721389061578314	-0.018934692709928803	-0.006845204354094383	-0.010415360229628922	7.913794092047691e-05	0.0164304548416344	0.011900515856366513	-0.002005551544188789	-0.017784482127528523	0.01643801574714413	0.007648074525129955	0.00594912776067184	0.00450399550941399	0.0019157781194635848	0.013237676949285232	5.159652351046859e-05	-0.010809584053678465	-0.0007702726718515421	-0.008906712032203102	0.012750738229568667	0.0042968417813857365	-0.011535663390143145	-0.008654942683983539	-4.889014017881582e-06	0.012278789076063012	0.014799921535192297	-0.012273200889955673	0.010006691194918624	-0.005323032781583196	-0.01821340508015933	-0.0014339480882780108	0.0062351927030513295	0.007015801260112333	0.011776887255692734	0.0008258537625321187	0.006054364167341973	0.001025076321501818	-0.024055039576451793	-0.017756182231719497	0.006782525663580823	0.00861399861107285	0.0018904583889249107	0.006038658931102305	-0.003944905780581372	-0.0201935074788288	-0.00806530664956338	-0.01788856335398428	0.010615706196526478
microbe_4	0.015094104499278446	-0.04581409461618931	0.021912631888364245	0.010128864655205919	0.001192276544643673	-0.009458188520128676	-0.004619541982485119	0.0065932956228043	-0.0011291444163922734	0.01906230655886134	-0.011086303622868898	0.004754415294234244	-0.005644199050090715	-0.00458385823037942	-0.005016543914087648	0.005332411633012355	0.010823942372133908	-0.007746240600793309	0.007054593481174784	0.016090221099828845	0.010437346810140413	0.014428699449227254	0.011057933758538255	-0.003190473438100753	-0.017960897033322747	0.005794376020613565	-0.004703382613259217	0.013109714720447274	-0.011773062010342086	-0.009044869485341618	0.0005138600486278289	-0.006203690196544785	0.00917972737826774	-0.00610717970047827	0.002796610901618271	0.0023378180707294867	0.011228145865976329	0.0029828144552210036	0.0221188793978417	0.003719627361846521	-0.02622734069284637	0.008467669426644751	-0.000618552211491652	-0.009854083815537738	-0.011872772460062821	-0.005900297819732198	-0.005555648908766107	0.011824490868164672	0.014800106708411673	-0.006503090823284659	0.002610125410572404	-0.014449549696201148	-0.0037190493570393446	-0.018931285746630274	-0.006847009819497641	-0.010417944129798712	8.701036625331782e-05	0.016434442352665717	0.011899507207431041	-0.002005639659093901	-0.017787717572228735	0.016435921053590742	0.007645225465090338	0.005945918962967506	0.0045022428788977255	0.0019156206177472455	0.013238175373017436	4.9315996587011995e-05	-0.010807590572096487	-0.0007718087280996974	-0.008909357539562353	0.012751751831841966	0.004300035039166775	-0.01153277431291629	-0.008657757695397065	-6.831230044045122e-06	0.012276480459012971	0.014798505455638192	-0.012273965189288142	0.010006896359597117	-0.005320959521441272	-0.018207449461687553	-0.0014338841217620656	0.006233195320586412	0.007014472942629954	0.011774447893013459	0.0008245504009460093	0.006049330168768848	0.0010267548446377533	-0.024055886426483573	-0.01775614758974026	0.006783212877390216	0.008611411964929247	0.0018917310417140704	0.006036235459969041	-0.00394102237301398	-0.02019015173680794	-0.00806892942289671	-0.017887193758638346	0.0106139591863703
microbe_5	0.015093664307774174	-0.04581430466540423	0.021909399489702372	0.010130652342988461	0.0011933607115338016	-0.009460043401495047	-0.004620135460048906	0.006594840995879685	-0.0011310104587579188	0.019064115828479243	-0.011088056529099721	0.004756254670713438	-0.005642438425320716	-0.004586031089655503	-0.005018846164474549	0.00533412094437738	0.010822121217233568	-0.0077474531276915184	0.007056794471119461	0.016091864798497706	0.010437958742661888	0.01442990305050338	0.011056868200923633	-0.0031871935624758485	-0.017962597939078687	0.0057957912827590954	-0.00470533111013479	0.013109816736933547	-0.011775953344784165	-0.009043073625165085	0.000515113971903753	-0.006203771016078885	0.009180554419247776	-0.006107606098896809	0.0027972945662901247	0.0023405728754158917	0.011229636611700455	0.0029825167017130116	0.02211580632596336	0.003717234142343935	-0.026226185207966442	0.008468931827476923	-0.0006193364215832838	-0.009851405772141802	-0.011874728345999903	-0.00590186285559248	-0.005554113887720577	0.011822320885683748	0.014796870733810554	-0.006504040557434546	0.002608470165772977	-0.014451584207812937	-0.0037209720456237057	-0.01893408547169484	-0.0068455261502297915	-0.010415820769657774	8.054107832973154e-05	0.016431165553474947	0.011900336080376992	-0.0020055672493005453	-0.017785058795239228	0.0164376424005881	0.007647566724477202	0.005948555842373821	0.004503683130275674	0.0019157500472316048	0.013237765785565639	5.1190055045696736e-05	-0.010809228746582605	-0.0007705464499940251	-0.008907183552755563	0.012750918888413645	0.004297410929934062	-0.011535148457048977	-0.008655444415998102	-5.2351838255200456e-06	0.012278377600969942	0.014799669141030041	-0.012273337114427782	0.010006727762332517	-0.005322663255199488	-0.018212343583769122	-0.0014339366872411392	0.006234836700683751	0.0070155645081747715	0.011776452477224185	0.0008256214585950356	0.006053466935368675	0.0010253754921518768	-0.0240551905143025	-0.017756176057325337	0.00678264814875704	0.008613537581616856	0.001890685219496431	0.00603822698505474	-0.003944213623564594	-0.02019290936999115	-0.008065952352580466	-0.01788831924490935	0.010615394819129957
microbe_6	0.015094972678742762	-0.04581368034100881	0.0219190070730542	0.010125338840176967	0.0011901382675057757	-0.009454530180757342	-0.004618371480491297	0.006590247719435633	-0.0011254640644416947	0.019058738178480535	-0.01108284640668528	0.004750787534791247	-0.005647671489369555	-0.004579572750573446	-0.005012003239203654	0.0053290403979685055	0.010827534193580823	-0.007743849162197319	0.007050252519905534	0.016086979271179382	0.010436139909862875	0.014426325614428099	0.011060035333034983	-0.0031969422605004696	-0.017957542376466146	0.005791584732005263	-0.004699539638196724	0.013109513515704486	-0.01176735949867912	-0.009048411418593139	0.0005113869649190396	-0.006203530798057657	0.009178096224581154	-0.006106338724796094	0.0027952625256891395	0.002332384833527764	0.01122520570286183	0.002983401707538604	0.0221249403460227	0.0037243474530012912	-0.026229619628796566	0.008465179622848984	-0.000617005532169923	-0.00985936565823186	-0.011868914911726196	-0.005897211135910241	-0.005558676395067094	0.011828770674134476	0.014806488945843415	-0.006501217684713187	0.0026133900113866296	-0.014445537076275265	-0.003715257283069276	-0.018925763914011604	-0.0068499360258820405	-0.010422131983611832	9.97695923388095e-05	0.016440905107485984	0.011897872440600695	-0.002005782471244952	-0.01779296141623762	0.01643252608094921	0.007640607853663161	0.005940718307052572	0.004499402304607612	0.001915365346986003	0.013238983192820958	4.5619834682625315e-05	-0.010804359638664114	-0.0007742982898448457	-0.00891364524317088	0.012753394626790029	0.0043052105087654	-0.011528091843669847	-0.008662320122544972	-9.97907487418695e-06	0.012272738770061875	0.014796210346009085	-0.012275203926725153	0.010007228880060256	-0.005317599286981563	-0.018197796898551326	-0.001433780448090432	0.006229958064801632	0.007012320073297527	0.011770494298204565	0.0008224379788594029	0.006041171320231973	0.0010294753094596733	-0.02405725895789023	-0.017756091443784414	0.00678432667853693	0.008607219660581608	0.0018937936925464052	0.006032307621368662	-0.003934728343786694	-0.020184712921027723	-0.008074801029429902	-0.017884973988246677	0.010611127721273608
microbe_7	0.015094118156814117	-0.04581408809912885	0.021912732177896403	0.010128809189779125	0.0011922429069023029	-0.009458130969930232	-0.004619523569042515	0.0065932476755184155	-0.0011290865199087598	0.01906225042382897	-0.01108624923658669	0.004754358225095859	-0.0056442536758510055	-0.004583790814487062	-0.005016472483661404	0.005332358599319721	0.010823998875923216	-0.007746202980509407	0.0070545251924904635	0.01609017010185869	0.01043732782410784	0.014428662105872828	0.011057966818901734	-0.003190575200669777	-0.01796084426042548	0.005794332110194929	-0.004703322158513216	0.013109711555248071	-0.011772972302787777	-0.00904492520432797	0.000513821143965424	-0.00620368768900963	0.009179701718204848	-0.006107166470891708	0.0027965896899988935	0.0023377325991951643	0.011228099613577765	0.0029828236934255556	0.022118974744045315	0.0037197016147123875	-0.026227376543324642	0.008467630258954723	-0.0006185278803148911	-0.009854166905449397	-0.011872711776061213	-0.005900249262381859	-0.0055556965348662925	0.011824558194800577	0.014800207108892172	-0.0065030613565005314	0.002610176766776856	-0.014449486572731842	-0.0037189897030304245	-0.018931198881380572	-0.006847055852339596	-0.010418010009913572	8.721108464455202e-05	0.016434544019784225	0.011899481490528933	-0.0020056419057054888	-0.017787800064374127	0.016435867646476365	0.007645152824357213	0.005945837150224197	0.0045021981931544185	0.0019156166020227704	0.013238188081021065	4.9257851393393753e-05	-0.010807539745521549	-0.0007718478919819735	-0.008909424990437866	0.012751777675036286	0.004300116455698215	-0.011532700651889525	-0.008657829468013297	-6.880749532603425e-06	0.012276421597622657	0.01479846935072796	-0.012273984676158565	0.010006901590554857	-0.005320906660801417	-0.018207297614943	-0.0014338824908471104	0.006233144394553067	0.0070144390753353394	0.011774385698082177	0.0008245171699365443	0.00604920182000054	0.0010267976409107267	-0.02405590801809845	-0.017756146706495005	0.006783230398858434	0.008611346014801978	0.0018917634897602127	0.006036173670214744	-0.003940923360157524	-0.02019006617751568	-0.008069021790522251	-0.0178871588389074	0.01061391464392586
microbe_8	0.015093900571137672	-0.04581419192598619	0.021911134410464394	0.010129692839853361	0.0011927788081722585	-0.009459047833642736	-0.004619816923675486	0.00659401154997464	-0.0011300089004782563	0.019063144741756174	-0.011087115694217685	0.004755267424777294	-0.005643383402963368	-0.00458486485396945	-0.005017610480880593	0.005333203508106004	0.010823098683127464	-0.007746802329844392	0.007055613136899437	0.01609098257843594	0.010437630300985126	0.014429257043292764	0.011057440116155049	-0.0031889539654810922	-0.01796168501433799	0.005795031671109407	-0.004704285296162633	0.013109761981769157	-0.011774401482938446	-0.009044037514657651	0.0005144409554373591	-0.0062037276379246584	0.009180110522712292	-0.006107377238676709	0.002796927623917745	0.0023390942929928313	0.011228836485856389	0.002982676514532225	0.022117455731486203	0.0037185186516626905	-0.02622680538973178	0.008468254260863756	-0.0006189155136099578	-0.009852843154585997	-0.011873678566107215	-0.005901022856108709	-0.0055549377773952795	0.011823485577311605	0.014798607573881389	-0.0065035308079675405	0.0026093585829730656	-0.014450492227273067	-0.0037199400836991914	-0.018932582779220747	-0.00684632247793749	-0.010416960437743036	8.401333008707657e-05	0.016432924305270047	0.011899891200573031	-0.0020056061137065217	-0.017786485836852352	0.016436718504448805	0.007646310103637864	0.005947140553819555	0.004502910106190616	0.0019156805787275228	0.013237985622859338	5.018419429975163e-05	-0.010808349491507635	-0.0007712239507363747	-0.008908350393619584	0.012751365952961845	0.0042988193643711085	-0.011533874186026527	-0.008656686019178107	-6.091827455013965e-06	0.01227735935065061	0.014799044557815538	-0.012273674220159264	0.010006818253303887	-0.005321748812589129	-0.018209716768546314	-0.0014339084738459029	0.006233955725065601	0.007014978633743763	0.011775376559575957	0.0008250465913379277	0.00605124661448241	0.0010261158300607226	-0.024055564030263182	-0.017756160777958663	0.006782951254757596	0.008612396702378494	0.0018912465421761374	0.0060371580766122165	-0.003942500788170131	-0.020191429269433004	-0.008067550231320667	-0.017887715164254952	0.01061462427398936
microbe_9	0.015094038963045873	-0.04581412588856523	0.021912150645022613	0.010129130808280542	0.0011924379566944955	-0.009458464677063648	-0.004619630340127804	0.006593525699778294	-0.0011294222349900428	0.019062575925065176	-0.011086564597624898	0.004754689142783253	-0.005643936926189454	-0.004584181728242244	-0.00501688667585232	0.0053326661173131	0.010823671236435146	-0.007746421123234183	0.007054921167164871	0.016090465815633666	0.010437437915379058	0.014428878642810937	0.011057775117058414	-0.0031899851263326277	-0.017961150266186453	0.005794586726518202	-0.004703672707782089	0.013109729908782591	-0.011773492475638674	-0.009044602115551297	0.00051404673421045	-0.006203702229052754	0.009179850509108498	-0.006107243183179904	0.0027967126864244345	0.002338228209314331	0.011228367809965561	0.0029827701253260404	0.02211842187526033	0.003719271056492151	-0.026227168662888743	0.008467857374375989	-0.0006186689656190111	-0.009853685105264746	-0.011873063654677923	-0.005900530824124894	-0.0055554203730145794	0.011824167798602517	0.014799624932679972	-0.006503232220829876	0.0026098789757659883	-0.014449852596699838	-0.0037193356091932556	-0.018931702573014225	-0.006846788929059603	-0.010417628001425757	8.604721100423027e-05	0.016433954498920753	0.011899630611017054	-0.002005628878638095	-0.017787321730361152	0.016436177329770683	0.0076455740345611305	0.005946311544696964	0.004502457305228885	0.001915639887362191	0.013238114393152447	4.959500863020716e-05	-0.010807834465454438	-0.0007716207986401269	-0.00890903387383142	0.012751627822237717	0.004299644358675889	-0.011533127778306989	-0.008657413291620016	-6.593608792477418e-06	0.012276762907754734	0.014798678706497743	-0.012273871680758958	0.010006871258636656	-0.005321213175341309	-0.018208178104380256	-0.001433891947772853	0.006233439691199558	0.007014635456201252	0.01177474633788523	0.0008247098612774902	0.006049946055480326	0.0010265494850057802	-0.02405578281825373	-0.01775615182802805	0.006783128799922374	0.00861172842925954	0.0018915753384635067	0.006036531960582807	-0.003941497490176065	-0.020190562296502738	-0.008068486193141617	-0.017887361322367536	0.010614172925076099
microbe_10	0.015093862416198117	-0.045814210132641746	0.02191085423246375	0.01012984779313762	0.0011928727816400823	-0.009459208611135559	-0.004619868365151193	0.006594145499893511	-0.0011301706453846895	0.01906330156571176	-0.011087267632704996	0.004755426858336791	-0.005643230795448161	-0.004585053193166229	-0.005017810035446057	0.005333351667875522	0.010822940828978824	-0.007746907429306926	0.0070558039144076115	0.01609112505102515	0.010437683342100513	0.014429361369099818	0.01105734775570287	-0.0031886696722700507	-0.017961832445525735	0.005795154343267085	-0.00470445418806489	0.01310977082435887	-0.01177465209815888	-0.009043881853006247	0.0005145496430570382	-0.00620373464320397	0.009180182209008594	-0.006107414198058542	0.002796986882635778	0.002339333074080792	0.011228965700783182	0.0029826507058398955	0.02211718936361987	0.0037183112120720107	-0.026226705234559937	0.008468363683301446	-0.0006189834874085311	-0.00985261102701672	-0.011873848098478886	-0.005901158510359354	-0.005554804724770131	0.01182329748746981	0.014798327085925319	-0.006503613129068088	0.0026092151095878217	-0.014450668574764607	-0.003720106738589188	-0.01893282545391932	-0.006846193876384101	-0.010416776389034576	8.345258484937067e-05	0.016432640278718307	0.01189996304566056	-0.002005599837367104	-0.017786255379257543	0.016436867707443417	0.007646513039427233	0.005947369113374637	0.004503034944366135	0.0019156917974223523	0.013237950120619258	5.0346634025470304e-05	-0.010808491485271474	-0.000771114538936376	-0.008908161956690641	0.012751293755052863	0.004298591911709728	-0.011534079972201412	-0.008656485508639422	-5.953485287099082e-06	0.01227752379120886	0.01479914542379173	-0.01227361977985748	0.010006803639622395	-0.005321896488902585	-0.01821014098148635	-0.001433913030118927	0.006234097996685558	0.00701507324851252	0.011775550313018846	0.0008251394285223456	0.00605160518132899	0.0010259962704821878	-0.024055503709954976	-0.017756163245473317	0.006782902305183025	0.008612580946680009	0.0018911558923496107	0.006037330698115663	-0.003942777399532883	-0.020191668295689538	-0.008067292184682167	-0.01788781271920598	0.010614748711832071
microbe_11	0.015093871063681569	-0.045814206006262445	0.02191091773235789	0.010129812674330569	0.0011928514833752547	-0.009459172172322547	-0.004619856706390493	0.006594115141315582	-0.0011301339873158421	0.019063266022933407	-0.011087233197175299	0.0047553907241145305	-0.005643265382607166	-0.004585010507734001	-0.005017764808148577	0.005333318088759188	0.010822976605241437	-0.007746883609432667	0.007055760676353436	0.01609109276085851	0.010437671320795476	0.01442933772456782	0.011057368688391817	-0.003188734104840635	-0.01796179903153608	0.005795126540695125	-0.004704415910191929	0.013109768820263233	-0.011774595298410392	-0.009043917132358519	0.000514525009958345	-0.006203733055518659	0.009180165961936326	-0.006107405821537796	0.002796973452165466	0.002339278956434973	0.01122893641534981	0.0029826565551543636	0.022117249733567816	0.0037183582264415163	-0.02622672793385393	0.008468338883662675	-0.0006189680817414028	-0.009852663636700704	-0.011873809675449133	-0.005901127765509519	-0.0055548348799842814	0.011823340116387911	0.014798390656068148	-0.006503594471710412	0.002609247626576147	-0.01445062860714752	-0.003720068967715498	-0.018932770453820684	-0.0068462230228017555	-0.010416818102065128	8.357967285467505e-05	0.016432704650852906	0.011899946762599648	-0.0020056012598445513	-0.017786307610456416	0.016436833891889237	0.00764646704580493	0.005947317312349876	0.0045030066508851725	0.001915689254803267	0.013237958166891566	5.030981848191951e-05	-0.010808459303626401	-0.0007711393361642081	-0.008908204664273	0.012751310118077683	0.004298643461866723	-0.011534033332564142	-0.008656530952599863	-5.98483932987004e-06	0.012277486522194112	0.014799122563400144	-0.012273632118275882	0.010006806951685538	-0.005321863019357328	-0.018210044837332552	-0.001433911997479477	0.00623406575206684	0.007015051804902445	0.01177551093332022	0.000825118387786216	0.0060515239152883135	0.0010260233676153106	-0.024055517381025418	-0.017756162686232688	0.006782913399176121	0.00861253918932	0.0018911764373402105	0.006037291574961214	-0.003942714707986038	-0.020191614122478392	-0.008067350668696571	-0.017887790609229286	0.010614720509083037
microbe_12	0.015093843535229263	-0.045814219142203835	0.021910715586402063	0.010129924471758207	0.0011929192844032776	-0.0094592881718653	-0.004619893820961424	0.006594211785000377	-0.001130250684838979	0.019063379170033902	-0.01108734281945355	0.0047555057540212275	-0.005643155277631207	-0.004585146392803016	-0.00501790878500716	0.00533342498472587	0.010822862714865725	-0.0077469594377677364	0.007055898320642599	0.016091195553574765	0.010437709589492309	0.014429412994717273	0.011057302051140338	-0.0031885289897968204	-0.01796190540183745	0.005795215047574708	-0.004704537764209503	0.013109775200113697	-0.011774776115081095	-0.009043804823850237	0.0005146034271171279	-0.006203738109765889	0.009180217682966707	-0.006107432487405751	0.0027970162068077574	0.0023394512348834783	0.01122902964277959	0.0029826379344105153	0.02211705755150206	0.0037182085606067986	-0.026226655672780996	0.008468417830986171	-0.0006190171242374367	-0.009852496158707234	-0.011873931991559741	-0.00590122563885467	-0.0055547388836889935	0.011823204411226317	0.014798188286482212	-0.006503653865658253	0.0026091441117943627	-0.014450755840306993	-0.0037201892077484595	-0.018932945541474913	-0.006846130237915474	-0.010416685312545602	8.317510011238063e-05	0.01643249972820141	0.011899998598196498	-0.0020055967315210366	-0.01778614133733479	0.01643694154053362	0.007646613462186718	0.005947482216052578	0.004503096720527519	0.00191569734899261	0.01323793255233853	5.0427017311026334e-05	-0.010808561750874395	-0.0007710603965157123	-0.008908068708691106	0.01275125802792325	0.004298479356778045	-0.011534181805473949	-0.00865638628601505	-5.885026676136738e-06	0.012277605164606239	0.014799195337312152	-0.012273592840078406	0.01000679640804325	-0.005321969566514739	-0.01821035090322652	-0.0014339152847902773	0.006234168399785557	0.007015120068623432	0.011775636294896457	0.0008251853689957862	0.006051782618104951	0.0010259371064341065	-0.024055473860455184	-0.017756164466522752	0.006782878082489877	0.008612672119958191	0.0018911110342900482	0.0060374161198531295	-0.003942914280644092	-0.020191786577813876	-0.008067164490323304	-0.017887860994265863	0.010614810289888796
microbe_13	0.015093852915479376	-0.04581421466616521	0.021910784467122427	0.010129886377069056	0.0011928961813754049	-0.009459248645316111	-0.004619881174265768	0.006594178853910561	-0.0011302109204547502	0.019063340615447157	-0.011087305465941024	0.004755466557873055	-0.0056431927956217525	-0.004585100090311324	-0.005017859725258752	0.005333388560197076	0.010822901522721607	-0.007746933599455404	0.007055851418701116	0.016091160527218117	0.010437696549531186	0.014429387346605269	0.01105732475761431	-0.003188598882226364	-0.017961869156427775	0.005795184889080577	-0.004704496242762908	0.013109773026195875	-0.011774714502260399	-0.009043843092688818	0.000514576706669696	-0.006203736387544	0.009180200059157135	-0.006107423401079061	0.0027970016382721247	0.002339392531440278	0.011228997875769984	0.0029826442793816233	0.022117123037052218	0.0037182595588593544	-0.026226680295557827	0.008468390929886464	-0.0006190004131316363	-0.009852553226407589	-0.01187389031265612	-0.005901192288761218	-0.005554771594182481	0.01182325065241501	0.014798257243403964	-0.006503633627321575	0.0026091793841930017	-0.014450712485931477	-0.0037201482362630173	-0.01893288588080201	-0.00684616185412951	-0.010416730560236679	8.331295724542907e-05	0.01643256955507376	0.011899980935348697	-0.0020055982745357578	-0.01778619799447813	0.016436904859531816	0.007646563571176981	0.005947426025535255	0.004503066029525949	0.0019156945909181728	0.013237941280432335	5.038708210806063e-05	-0.010808526842235183	-0.0007710872950001824	-0.008908115035209883	0.0127512757775109	0.004298535275169669	-0.011534131213707522	-0.008656435580785918	-5.919037584059192e-06	0.012277564737506028	0.01479917053978671	-0.012273606224024307	0.010006800000762544	-0.005321933260841818	-0.018210246612051523	-0.0014339141646474846	0.006234133422836451	0.007015096807934109	0.011775593578258166	0.0008251625453189661	0.006051694465778102	0.0010259664997122244	-0.024055488689978814	-0.017756163859893443	0.006782890116560898	0.00861262682418129	0.001891133320213059	0.006037373681497942	-0.003942846276768403	-0.02019172781409689	-0.008067227930130517	-0.01788783701074365	0.010614779697307558
microbe_14	0.01509444195066353	-0.045813933592185385	0.02191510984942208	0.010127494211404874	0.001191445420882363	-0.009456766565638038	-0.004619087021805565	0.0065921109377758795	-0.0011277139058649393	0.019060919570396972	-0.011084959842651041	0.004753005225810486	-0.005645548747350813	-0.004582192513605742	-0.005014779005918546	0.005331101272675873	0.01082533847187141	-0.007745311076081278	0.007052906199393642	0.01608896103827138	0.010436877701866087	0.014427776766908842	0.011058750616404545	-0.003192987795060765	-0.017959593116737213	0.005793291078794789	-0.004701888892996317	0.013109636514474974	-0.011770845509562906	-0.009046246194110628	0.0005128987893983049	-0.006203628240183832	0.009179093367566674	-0.006106852822890816	0.0027960868033832867	0.002335706233840263	0.011227003058347104	0.0029830427134511436	0.022121235218778113	0.0037214620070591363	-0.026228226489072283	0.00846670166850948	-0.0006179510350058544	-0.00985613680712091	-0.011871273075335668	-0.005899098061187049	-0.005556825657914849	0.011826154379583408	0.014802587410789231	-0.006502362755838494	0.0026113943234087333	-0.014447990036928544	-0.003717575421446375	-0.01892913947372017	-0.0068481472023061984	-0.010419571900470385	9.196973086871701e-05	0.016436954351227297	0.011898871792342499	-0.002005695168536544	-0.017789755794159444	0.016434601466722713	0.007643430652570664	0.005943897527752821	0.004501138780300569	0.001915521396934624	0.013238489363295716	4.787934091224355e-05	-0.010806334745384751	-0.0007727763921526725	-0.008911024120702538	0.012752390367367649	0.004302046684749629	-0.01153095429090728	-0.008659531058421283	-8.05476117052284e-06	0.012275026107498112	0.014797613372889068	-0.012274446672300644	0.01000702560648151	-0.005319653436905479	-0.018203697621274585	-0.0014338438249967885	0.006231937036448924	0.007013636147050251	0.011772911176125816	0.0008237293267461428	0.0060461589180624935	0.0010278122580643125	-0.024056419913675197	-0.017756125766452167	0.006783645799101817	0.008609782464385929	0.0018925327703991253	0.006034708754223787	-0.003938575956152256	-0.020188037731589333	-0.008071211648909567	-0.017886330959385396	0.010612858628411992
microbe_15	0.015093876328088507	-0.0458142034942091	0.02191095638976449	0.010129791294735804	0.0011928385174373541	-0.009459149989135801	-0.004619849608780985	0.006594096659648685	-0.001130111670650729	0.01906324438523379	-0.011087212233545512	0.004755368726356235	-0.0056432864385457275	-0.004584984521736202	-0.00501773727471641	0.00533329764649591	0.010822998385081368	-0.007746869108391732	0.007055734353930943	0.016091073103280826	0.010437664002476546	0.014429323330271568	0.011057381431774753	-0.003188773330041152	-0.017961778689798483	0.005795109615071169	-0.00470439260742397	0.01310976760021174	-0.011774560719912248	-0.009043938609689856	0.0005145100138433788	-0.006203732088969076	0.009180156071058742	-0.00610740072208728	0.002796965275976206	0.002339246010744779	0.011228918586990856	0.002982660116094584	0.022117286485528673	0.003718386847805729	-0.026226741752709067	0.008468323786161596	-0.0006189587030936763	-0.009852695664375292	-0.011873786284312758	-0.005901109048688387	-0.005554853237847569	0.011823366067981091	0.014798429356240678	-0.006503583113501532	0.002609267422238104	-0.014450604275698706	-0.0037200459735980814	-0.018932736970911707	-0.006846240766530847	-0.010416843496085158	8.36570413725625e-05	0.016432743839261237	0.011899936849812933	-0.0020056021258190596	-0.017786339407717188	0.016436813305687546	0.0076464390458502295	0.005947285776970096	0.0045029894264060856	0.0019156877069099682	0.013237963065293745	5.0287405949482784e-05	-0.010808439712114402	-0.0007711544321975568	-0.008908230663755349	0.012751320079544735	0.004298674844523436	-0.01153400493932907	-0.008656558617931926	-6.003927014929314e-06	0.012277463833597898	0.014799108646472166	-0.012273639629646789	0.010006808968000254	-0.005321842643798646	-0.018209986306783863	-0.0014339113688302011	0.00623404612221778	0.007015038750481397	0.011775486959783834	0.000825105578626399	0.006051474442223503	0.0010260398637828494	-0.024055525703687002	-0.01775616234577871	0.0067829201529669295	0.008612513768313127	0.0018911889447005064	0.006037267757603556	-0.003942676542684352	-0.020191581142961212	-0.008067386272540576	-0.01788777714913821	0.010614703339839653
microbe_16	0.015093783804863231	-0.045814247644154385	0.021910276976493975	0.010130167046284434	0.0011930663969317024	-0.009459539864008108	-0.004619974350984771	0.006594421479414171	-0.001130503891437578	0.019063624673037655	-0.011087580674409334	0.00475575534227839	-0.005642916375333155	-0.004585441231932424	-0.00501822118144591	0.005333656924216982	0.010822615599126915	-0.007747123967693347	0.007056196976872327	0.01609141858996275	0.010437792623701597	0.014429576313509388	0.011057157463737512	-0.003188083937655406	-0.017962136200756554	0.005795407087005638	-0.004704802159206812	0.013109789042911676	-0.011775168445380218	-0.009043561140397373	0.0005147735741906564	-0.006203749076311833	0.009180329905624299	-0.006107490346163515	0.0027971089744797707	0.0023398250392178722	0.011229231924711192	0.002982597531708856	0.022116640560927846	0.0037178838204073774	-0.02622649888298803	0.008468589128394346	-0.0006191235350958106	-0.009852132770248503	-0.011874197389191911	-0.005901438001346626	-0.005554530593960494	0.011822909962454345	0.014797749191348583	-0.0065037827367697	0.002608919508691439	-0.014451031906796433	-0.003720450100772956	-0.0189333254411351	-0.006845928916200776	-0.010416397190041646	8.229727095874703e-05	0.016432055093506797	0.011900111069436795	-0.002005586906107734	-0.017785780563168922	0.016437175113161034	0.007646931151825867	0.00594784001889654	0.004503292150791722	0.0019157149115089228	0.013237876974690664	5.068131162750539e-05	-0.010808784037676229	-0.000770889115760516	-0.008907773716565058	0.012751145004351977	0.004298123286741588	-0.011534503957302593	-0.008656072393030092	-5.668456333665639e-06	0.012277862591163546	0.014799353239847126	-0.012273507615486522	0.010006773530781355	-0.005322200749170492	-0.018211014995333008	-0.0014339224174933773	0.006234391121562459	0.007015268185088436	0.011775908300483758	0.0008253307027080332	0.006052343943302714	0.0010257499396485875	-0.024055379430896924	-0.01775616832933987	0.006782801453459919	0.008612960548656968	0.0018909691248182453	0.00603768635342459	-0.003943347307091973	-0.020192160765952025	-0.008066760526371342	-0.017888013713494376	0.010615005093444489
microbe_17	0.015093661751242306	-0.04581430588532217	0.02190938071666816	0.010130662725471369	0.0011933670081278255	-0.009460054174222979	-0.004620138906831252	0.006594849971054043	-0.001131021296306392	0.01906412633630453	-0.011088066709579326	0.004756265353392509	-0.005642428200013615	-0.00458604370912661	-0.005018859535419723	0.005334130871667932	0.010822110640381258	-0.007747460169771202	0.007056807253967064	0.016091874344724685	0.010437962296626399	0.014429910040745075	0.011056862012408023	-0.00318717451370628	-0.017962607817551393	0.005795799502278844	-0.004705342426560254	0.013109817329422024	-0.011775970136995176	-0.009043063195218776	0.0005151212544041439	-0.006203771485460315	0.009180559222513155	-0.0061076085753215825	0.00279729853685861	0.0023405888746932044	0.011229645269611614	0.002982514972428539	0.022115788478262767	0.0037172202430708866	-0.026226178497173798	0.008468939159213026	-0.000619340976096644	-0.009851390218676558	-0.011874739705339352	-0.0059018719449638185	-0.00555410497266845	0.011822308282920406	0.014796851940008106	-0.006504046073273886	0.0026084605524886936	-0.014451596023792368	-0.0037209832121604947	-0.018934101731859478	-0.006845517533417077	-0.010415808437666367	8.050350618094004e-05	0.01643114652257259	0.011900340894282012	-0.0020055668287609837	-0.01778504335366888	0.01643765239777886	0.007647580321977734	0.005948571156768001	0.004503691494927187	0.0019157507989285213	0.013237763406775127	5.12009391497939e-05	-0.010809238260726405	-0.0007705391189706881	-0.008907170926736027	0.01275091405086818	0.004297395689706121	-0.011535162245536627	-0.008655430980998954	-5.22591435310471e-06	0.012278388619137732	0.014799675899449385	-0.01227333346671225	0.01000672678315805	-0.005322673150096588	-0.01821237200771396	-0.0014339369925294582	0.006234846233444991	0.007015570847738489	0.01177646411939208	0.0008256276790535727	0.006053490960765594	0.0010253674811872213	-0.024055186472603275	-0.017756176222658585	0.006782644868941933	0.008613549926713773	0.001890679145599504	0.006038238551378215	-0.003944232157619958	-0.020192925385695747	-0.008065935062435067	-0.01788832578147692	0.010615403156957588
microbe_18	0.015093703075300313	-0.0458142861664365	0.02190968416602712	0.010130494901892547	0.00119326522929971	-0.009459880042681524	-0.004620083192668134	0.0065947048953631645	-0.0011308461169987332	0.019063956486677937	-0.01108790215120404	0.004756092677410411	-0.005642593482985696	-0.004585839726628346	-0.0050186434060133095	0.005333970405867697	0.010822281605767923	-0.007747346340832241	0.00705660063063324	0.01609172003847736	0.010437904849958839	0.014429797049720802	0.011056962044244728	-0.003187482420081678	-0.017962448140848332	0.0057956666410708905	-0.004705159506633073	0.013109807752373961	-0.011775698705877058	-0.009043231786001143	0.0005150035392786165	-0.006203763898328158	0.009180481582011022	-0.006107568546123357	0.0027972343561593494	0.0023403302606410503	0.011229505322197431	0.0029825429247700022	0.022116076970428826	0.0037174449124263353	-0.02622628697115327	0.008468820648236095	-0.0006192673564492882	-0.009851641626574143	-0.011874556091745885	-0.005901725023380733	-0.005554249076537112	0.011822511995352468	0.014797155725067141	-0.006503956914649249	0.002608615942657374	-0.014451405029020687	-0.0037208027150500093	-0.01893383890079655	-0.006845656816511557	-0.01041600777331181	8.111082646493871e-05	0.016431454140140193	0.011900263081799579	-0.0020055736264080783	-0.017785292952885272	0.016437490802104094	0.007647360530505704	0.0059483236132409885	0.004503556287793701	0.001915738648417974	0.013237801857802583	5.102500731173597e-05	-0.010809084473075286	-0.0007706576184263701	-0.008907375015084	0.012750992245477145	0.004297642034401751	-0.011534939366928352	-0.00865564814578094	-5.375747109683318e-06	0.01227821052027961	0.014799566655626728	-0.0122733924287815	0.010006742610640124	-0.005322513207907871	-0.01821191255998994	-0.0014339320578160737	0.006234692144859262	0.007015468374343509	0.011776275934128649	0.0008255271308876475	0.0060531026116465115	0.0010254969712877385	-0.02405525180306753	-0.017756173550194147	0.006782697884228616	0.008613350379229475	0.0018907773247273732	0.0060380515920722	-0.0039439325711409495	-0.020192666506111498	-0.008066214542218819	-0.0178882201236905	0.01061526838340823
microbe_19	0.015093723280558441	-0.04581427652495418	0.021909832536562906	0.010130412845122373	0.001193215464886592	-0.009459794901654404	-0.004620055951416874	0.006594633961095716	-0.0011307604636698748	0.019063873439278574	-0.011087821690944077	0.004756008248074095	-0.0056426742975348165	-0.00458573999007704	-0.005018537730272429	0.005333891946658429	0.010822365198714393	-0.007747290684558261	0.007056499602854337	0.016091644590960616	0.010437876761605399	0.014429741803142368	0.01105701095447231	-0.0031876329698605488	-0.017962370067465462	0.00579560167903348	-0.004705070068554529	0.01310980306970876	-0.011775565990551635	-0.009043314217892895	0.0005149459828668809	-0.006203760188625604	0.009180443619950594	-0.006107548973982531	0.002797202975223928	0.002340203812176596	0.011229436895383495	0.0029825565919726384	0.022116218027695825	0.003717554763746359	-0.026226340009137955	0.008468762702695514	-0.0006192313603721813	-0.00985176455161374	-0.011874466314501564	-0.0059016531865705504	-0.005554319535635385	0.011822611599855815	0.014797304259742336	-0.00650391332084186	0.0026086919201537898	-0.014451311642774287	-0.003720714461599474	-0.018933710390438972	-0.006845724918508628	-0.01041610523780017	8.140777365981539e-05	0.016431604548707467	0.01190022503564997	-0.0020055769500945883	-0.017785414993576325	0.016437411790446506	0.007647253064210248	0.005948202577672288	0.004503490178723948	0.001915732707467012	0.01323782065830216	5.093898603568403e-05	-0.010809009279124406	-0.0007707155583336761	-0.008907474803390159	0.012751030478466222	0.004297762483805905	-0.011534830391188092	-0.008655754327765199	-5.449007328281463e-06	0.01227812343944644	0.014799513241229828	-0.012273421258085455	0.010006750349433848	-0.005322435004716686	-0.018211687914582178	-0.001433929645004689	0.006234616803767416	0.007015418270324276	0.011776183921581782	0.0008254779682026411	0.006052912729660707	0.0010255602850335888	-0.024055283746176645	-0.017756172243501726	0.00678272380587339	0.008613252811163218	0.0018908253290792487	0.006037960178953059	-0.003943786089347229	-0.020192539927816035	-0.008066351192912033	-0.01788816846267386	0.010615202486337967
