8.147366642951965332e-01
6.903945468366146088e-03
5.758492350578308105e-01
1.136417627334594727e+00
-6.710262894630432129e-01
1.067129731178283691e+00
6.050937771797180176e-01
-2.281199842691421509e-01
1.333226919174194336e+00
2.698508501052856445e+00
2.680236816406250000e+00
2.699618577957153320e+00
2.358814239501953125e+00
2.333934307098388672e-01
-1.745624840259552002e-02
6.796287298202514648e-01
-4.467631578445434570e-01
3.649375677108764648e+00
5.967250466346740723e-01
5.684378147125244141e-01
4.468266963958740234e-01
-1.072095274925231934e+00
2.309644460678100586e+00
2.292062520980834961e+00
2.187852621078491211e+00
2.112483263015747070e+00
2.200008630752563477e+00
-8.667346239089965820e-01
6.876466274261474609e-01
-8.941313028335571289e-01
2.025963783264160156e+00
1.566282361745834351e-01
5.297647118568420410e-01
1.541730403900146484e+00
1.440680027008056641e+00
5.988053083419799805e-01
1.213036179542541504e+00
1.553668975830078125e+00
1.553595781326293945e+00
7.551667094230651855e-01
6.798853278160095215e-01
1.907517552375793457e+00
2.259816884994506836e+00
4.167678356170654297e-01
-2.209132462739944458e-01
-1.683234095573425293e+00
1.682204306125640869e-01
4.487331956624984741e-02
-3.764817416667938232e-01
5.245528817176818848e-01
-4.257162511348724365e-01
4.985988438129425049e-01
8.771339654922485352e-01
9.000249505043029785e-01
1.189889669418334961e+00
-5.717296004295349121e-01
-4.480559527873992920e-01
3.365849554538726807e-01
2.942937850952148438e+00
2.946441173553466797e+00
2.948357582092285156e+00
2.940049886703491211e+00
2.941822052001953125e+00
3.365082979202270508e+00
3.334193706512451172e+00
3.322634696960449219e+00
3.318814277648925781e+00
1.653595715761184692e-01
4.025536179542541504e-01
1.511327028274536133e+00
2.922317743301391602e+00
3.492683172225952148e+00
3.559414148330688477e+00
2.810444355010986328e+00
2.793515205383300781e+00
2.952073097229003906e+00
3.010602712631225586e+00
2.765352725982666016e+00
2.772572278976440430e+00
3.194720745086669922e+00
1.889342784881591797e+00
1.904435753822326660e+00
2.746474027633666992e+00
2.013308286666870117e+00
3.050610303878784180e+00
3.045006275177001953e+00
1.611523628234863281e+00
1.011171460151672363e+00
-1.379056870937347412e-01
4.374384284019470215e-01
3.212657690048217773e+00
3.234473705291748047e+00
1.880292892456054688e+00
1.715166211128234863e+00
-5.403476357460021973e-01
4.431282281875610352e-01
2.372802972793579102e+00
1.687979221343994141e+00
3.126135349273681641e+00
3.087650299072265625e+00
3.698270082473754883e+00
3.755968093872070312e+00
2.693548679351806641e+00
2.704346656799316406e+00
3.278450727462768555e+00
3.410193920135498047e+00
3.249133586883544922e+00
3.238773345947265625e+00
3.538026094436645508e+00
3.092932701110839844e+00
3.081503629684448242e+00
2.344656705856323242e+00
2.365715265274047852e+00
2.111723184585571289e+00
-5.918117165565490723e-01
1.389461994171142578e+00
1.597927451133728027e+00
3.008142471313476562e+00
3.325927734375000000e+00
3.282085418701171875e+00
2.968390703201293945e+00
-3.769053518772125244e-01
-1.571459889411926270e+00
1.007996320724487305e+00
3.012597560882568359e+00
2.883227109909057617e+00
3.306207418441772461e+00
3.045536994934082031e+00
4.331769645214080811e-01
2.840367317199707031e+00
2.292838573455810547e+00
2.274178028106689453e+00
1.101065635681152344e+00
1.410382866859436035e+00
1.212191104888916016e+00
1.474826335906982422e+00
3.388574123382568359e+00
3.356503725051879883e+00
2.595067501068115234e+00
-3.474369645118713379e-01
-2.359517067670822144e-01
1.097537994384765625e+00
-7.399613857269287109e-01
5.598570704460144043e-01
7.601757049560546875e-01
-4.681456387042999268e-01
2.675338506698608398e+00
2.592492341995239258e+00
1.562911391258239746e+00
1.054709672927856445e+00
1.644254088401794434e+00
-1.929332688450813293e-02
-7.414240241050720215e-01
2.622251987457275391e+00
3.185291588306427002e-01
9.899267554283142090e-01
-9.439314156770706177e-02
5.309370905160903931e-02
2.655744075775146484e+00
2.644677639007568359e+00
-8.184967190027236938e-02
-1.241232752799987793e+00
1.583559751510620117e+00
2.115170240402221680e+00
1.417269945144653320e+00
4.889678657054901123e-01
3.494539022445678711e+00
3.497185945510864258e+00
3.204250335693359375e+00
3.172780513763427734e+00
-1.302947640419006348e+00
1.652971625328063965e+00
3.820515871047973633e+00
3.833330631256103516e+00
3.438052892684936523e+00
3.435533523559570312e+00
-6.625993847846984863e-01
2.860037088394165039e-01
3.432599067687988281e+00
3.221369028091430664e+00
-9.491113573312759399e-02
1.624318510293960571e-01
1.302427172660827637e+00
2.216771602630615234e+00
1.203256845474243164e+00
2.498650550842285156e+00
7.386111617088317871e-01
7.132438421249389648e-01
-1.833787187933921814e-02
9.533939361572265625e-01
-7.214765548706054688e-01
5.375679135322570801e-01
3.105238080024719238e-01
4.601204395294189453e-01
1.728926301002502441e-01
3.668760061264038086e-01
3.596749603748321533e-01
3.095491230487823486e-01
2.445944845676422119e-01
-3.951722383499145508e-01
-6.256852298974990845e-02
2.459355443716049194e-01
7.835142612457275391e-01
1.293081879615783691e+00
9.887509942054748535e-01
-3.271908760070800781e-01
-4.989239275455474854e-01
-5.396518707275390625e-01
1.246373772621154785e+00
-8.063974976539611816e-01
-9.617329835891723633e-01
4.208193719387054443e-01
-3.746250271797180176e-01
9.634068012237548828e-01
4.981668293476104736e-01
1.697952032089233398e+00
-1.979148760437965393e-02
1.167802214622497559e+00
-3.968679606914520264e-01
9.872806072235107422e-02
-7.410631328821182251e-02
1.749524325132369995e-01
-1.657268762588500977e+00
2.556922197341918945e+00
2.556312322616577148e+00
2.799858808517456055e+00
-1.072777748107910156e+00
9.877406954765319824e-01
-4.977485537528991699e-01
-1.593461871147155762e+00
-2.154308557510375977e-01
-4.476214051246643066e-01
2.805523157119750977e+00
-5.367916822433471680e-01
-5.614595413208007812e-01
2.908081769943237305e+00
1.630593538284301758e+00
-1.809045225381851196e-01
-4.140987396240234375e-01
1.647732853889465332e+00
1.149270176887512207e+00
1.628859788179397583e-01
-3.248048722743988037e-01
2.215405464172363281e+00
1.590746879577636719e+00
-2.890956029295921326e-02
1.646430969238281250e+00
2.576805114746093750e+00
1.311258316040039062e+00
1.629247307777404785e+00
-2.901420556008815765e-02
-6.279464364051818848e-01
7.147278189659118652e-01
6.800714880228042603e-02
1.890848875045776367e+00
1.538532614707946777e+00
1.689357757568359375e+00
1.245668172836303711e+00
1.048414945602416992e+00
1.998010873794555664e+00
3.142544627189636230e-01
6.822545528411865234e-01
7.423329353332519531e-01
1.439595460891723633e+00
8.271382451057434082e-01
-1.422230720520019531e+00
-1.726343482732772827e-01
2.713130474090576172e+00
2.714635848999023438e+00
3.098311901092529297e+00
2.961358308792114258e+00
9.022915363311767578e-01
2.384086102247238159e-01
2.162539027631282806e-02
-6.918966770172119141e-01
2.542372703552246094e+00
2.487171411514282227e+00
3.702515602111816406e+00
3.712853193283081055e+00
-1.445568203926086426e+00
8.880157470703125000e-01
1.891690254211425781e+00
1.246027946472167969e+00
2.413243055343627930e+00
2.249650955200195312e-01
4.160214960575103760e-01
-2.154813334345817566e-02
1.214837431907653809e+00
2.204743385314941406e+00
-7.795649766921997070e-01
-7.868375778198242188e-01
-9.955396056175231934e-01
-1.285329908132553101e-01
1.315495491027832031e+00
1.292291522026062012e+00
1.314551591873168945e+00
1.233459830284118652e+00
2.753579139709472656e+00
2.683959484100341797e+00
-1.692920923233032227e-01
1.130239367485046387e+00
1.695238232612609863e+00
2.377004146575927734e+00
9.719679355621337891e-01
4.490906298160552979e-01
1.346550345420837402e+00
1.393069386482238770e+00
-3.335114195942878723e-02
6.406313776969909668e-01
1.375924706459045410e+00
1.009098529815673828e+00
2.280685186386108398e+00
8.502461314201354980e-01
1.598834037780761719e+00
6.889302134513854980e-01
1.157256960868835449e+00
3.623661100864410400e-01
2.830007314682006836e+00
2.495851516723632812e+00
1.479074835777282715e+00
6.643880009651184082e-01
-1.923140138387680054e-01
1.716589212417602539e+00
-6.122784018516540527e-01
2.191476583480834961e+00
6.625682115554809570e-01
-4.459342360496520996e-01
-7.535409927368164062e-01
1.036590576171875000e+00
-1.913227699697017670e-02
1.816563121974468231e-02
1.645291924476623535e+00
-1.518454402685165405e-01
2.429030239582061768e-01
6.072362661361694336e-01
1.462242603302001953e+00
5.360428094863891602e-01
1.029199719429016113e+00
1.401230573654174805e+00
1.037792265415191650e-01
2.323830604553222656e+00
1.605844497680664062e+00
2.236405611038208008e+00
2.240278959274291992e+00
2.208228111267089844e+00
2.464834451675415039e+00
2.467938184738159180e+00
1.264276742935180664e+00
3.364544391632080078e+00
3.458586692810058594e+00
-6.290746927261352539e-01
7.414255738258361816e-01
9.726748466491699219e-01
1.915979504585266113e+00
3.292072296142578125e+00
1.670326709747314453e+00
1.672544479370117188e+00
-2.618826031684875488e-01
9.840080142021179199e-01
1.678931951522827148e+00
-4.229663014411926270e-01
2.574492692947387695e-01
-5.264851450920104980e-02
2.664803504943847656e+00
8.055307269096374512e-01
4.858548343181610107e-01
1.821127235889434814e-01
9.999244809150695801e-01
2.651227235794067383e+00
2.652456998825073242e+00
2.637353658676147461e+00
3.003508090972900391e+00
2.680182933807373047e+00
2.710113286972045898e+00
8.391367793083190918e-01
3.906664252281188965e-01
-3.872209042310714722e-02
3.342322587966918945e+00
-1.594548344612121582e+00
7.583016157150268555e-01
3.431829214096069336e+00
2.840836048126220703e+00
9.616715312004089355e-01
1.209663271903991699e+00
2.314303874969482422e+00
1.342455387115478516e+00
2.057121694087982178e-01
1.663167715072631836e+00
2.984854698181152344e+00
-1.162151813507080078e+00
1.389568001031875610e-01
3.015601396560668945e+00
1.818847179412841797e+00
9.920715689659118652e-01
1.798202872276306152e+00
-6.900405287742614746e-01
5.017629265785217285e-02
6.907394528388977051e-02
5.809155702590942383e-01
6.119688153266906738e-01
1.208482742309570312e+00
8.712012767791748047e-01
1.273476839065551758e+00
1.235732436180114746e+00
-8.738540858030319214e-02
-1.479640696197748184e-02
5.850172042846679688e-02
-4.367590248584747314e-01
5.187053680419921875e-01
5.477128624916076660e-01
-1.038149837404489517e-02
2.676225900650024414e-01
5.939775705337524414e-01
2.329405546188354492e-01
1.585594058036804199e+00
-8.172646909952163696e-02
6.802110075950622559e-01
-6.691516041755676270e-01
-2.587159350514411926e-02
-1.240785717964172363e+00
-7.190505862236022949e-01
4.374757111072540283e-01
2.384808540344238281e+00
2.383675575256347656e+00
3.365170478820800781e+00
5.253505706787109375e-01
3.213539361953735352e+00
6.411384940147399902e-01
8.143284320831298828e-01
3.415562629699707031e+00
2.558052062988281250e+00
1.423606872558593750e+00
2.116231918334960938e+00
2.108413696289062500e+00
3.093591928482055664e+00
3.060508489608764648e+00
3.054792165756225586e+00
5.523240193724632263e-02
5.297595262527465820e-01
8.000954389572143555e-01
1.274030327796936035e+00
7.160787582397460938e-01
1.466742277145385742e+00
-1.588977873325347900e-01
4.771496355533599854e-01
1.487663030624389648e+00
5.547874569892883301e-01
-2.479770481586456299e-01
3.225325942039489746e-01
5.865939259529113770e-01
1.127192616462707520e+00
1.127555847167968750e+00
1.400973081588745117e+00
-5.397238582372665405e-02
3.990612626075744629e-01
4.415977299213409424e-01
1.558536410331726074e+00
4.096759259700775146e-01
6.901571750640869141e-01
6.723073124885559082e-01
1.852335929870605469e+00
2.170138835906982422e+00
2.263880968093872070e+00
4.298992827534675598e-02
1.356080532073974609e+00
9.039170742034912109e-01
1.474515676498413086e+00
-2.656180784106254578e-02
1.282052159309387207e+00
1.012839913368225098e+00
9.861230254173278809e-01
2.102451086044311523e+00
1.349979639053344727e+00
-5.748254433274269104e-02
1.234026312828063965e+00
1.699119329452514648e+00
1.224566340446472168e+00
1.640501618385314941e+00
6.413872838020324707e-01
2.367726325988769531e+00
-3.351841494441032410e-02
5.545145869255065918e-01
2.649199485778808594e+00
2.080104351043701172e+00
2.752662420272827148e+00
2.148445367813110352e+00
1.315288066864013672e+00
9.307979941368103027e-01
1.471914529800415039e+00
1.288216233253479004e+00
5.184108018875122070e-01
-4.870173335075378418e-01
4.856206774711608887e-01
7.870844006538391113e-01
-9.165769815444946289e-01
-8.259731531143188477e-01
-3.487159609794616699e-01
3.753759711980819702e-02
1.585407495498657227e+00
1.589980483055114746e+00
1.593946456909179688e+00
1.279993772506713867e+00
7.359439730644226074e-01
1.169921517372131348e+00
8.850805461406707764e-02
8.413158655166625977e-01
-8.901869654655456543e-01
8.610106706619262695e-01
1.957213878631591797e+00
1.906271219253540039e+00
1.951856255531311035e+00
4.477755129337310791e-01
1.035587072372436523e+00
3.696666061878204346e-01
-3.861178159713745117e-01
1.134277820587158203e+00
1.115330219268798828e+00
-1.438734531402587891e+00
2.568423449993133545e-01
5.614433884620666504e-01
-3.424140810966491699e-01
1.615059137344360352e+00
-3.724271198734641075e-03
4.934277534484863281e-01
2.772188484668731689e-01
4.561655521392822266e-01
1.410386323928833008e+00
1.397623181343078613e+00
-8.258377909660339355e-01
-4.393698573112487793e-01
1.389895677566528320e+00
1.334587693214416504e+00
1.341394066810607910e+00
6.078013181686401367e-01
1.201435446739196777e+00
-1.301044344902038574e+00
-5.128855705261230469e-01
3.896563053131103516e+00
3.750251531600952148e+00
3.684921741485595703e+00
3.907563686370849609e+00
3.890666484832763672e+00
3.788989067077636719e+00
3.866935253143310547e+00
4.442809820175170898e-01
-1.582500815391540527e+00
5.022549033164978027e-01
6.700260639190673828e-01
-4.936656951904296875e-01
1.579070687294006348e+00
1.513695001602172852e+00
1.589045166969299316e+00
1.445465564727783203e+00
1.352424979209899902e+00
1.129928946495056152e+00
1.054053783416748047e+00
1.025349020957946777e+00
2.921189963817596436e-01
-4.029987156391143799e-01
-9.178387522697448730e-01
-1.311916112899780273e+00
3.351553380489349365e-01
