7.945780754089355469e-01
2.238760590553283691e-01
2.200623303651809692e-01
-4.871512949466705322e-01
7.412827014923095703e-01
-3.184050321578979492e-01
1.593924283981323242e+00
1.456312060356140137e+00
1.251203894615173340e+00
2.851805448532104492e+00
2.811252355575561523e+00
2.833906412124633789e+00
2.871984243392944336e+00
-6.611854583024978638e-02
5.220322012901306152e-01
6.788321584463119507e-02
-3.986771404743194580e-01
3.878189086914062500e+00
2.873728036880493164e+00
1.082399711012840271e-01
-6.046472787857055664e-01
8.151414394378662109e-01
2.276715278625488281e+00
2.384222507476806641e+00
2.308458805084228516e+00
2.497367382049560547e+00
2.502575397491455078e+00
-2.412950247526168823e-01
1.333131045103073120e-01
1.930228114128112793e+00
2.034433372318744659e-02
1.749193668365478516e+00
-1.880991756916046143e-01
-1.356390714645385742e+00
-2.452165931463241577e-01
7.079108953475952148e-01
1.105841547250747681e-01
1.793123960494995117e+00
1.806509137153625488e+00
1.079266905784606934e+00
-2.243629693984985352e-01
2.405045747756958008e+00
6.879643797874450684e-01
-3.711082041263580322e-01
-2.488287091255187988e-01
-1.958419382572174072e-01
2.265061140060424805e+00
7.667539119720458984e-01
7.907282114028930664e-01
-2.910050749778747559e-01
1.270724982023239136e-01
-2.065842002630233765e-01
-4.367253556847572327e-02
-1.869862437248229980e+00
-8.381614089012145996e-01
-3.646589517593383789e-01
1.409795045852661133e+00
9.308511614799499512e-01
3.073950052261352539e+00
3.068844795227050781e+00
3.076836109161376953e+00
3.086513519287109375e+00
3.081165313720703125e+00
3.501120090484619141e+00
3.521215200424194336e+00
3.578061103820800781e+00
3.523246049880981445e+00
1.103351116180419922e+00
8.103005290031433105e-01
1.492619872093200684e+00
1.742863774299621582e+00
3.775419712066650391e+00
3.807261228561401367e+00
3.013331890106201172e+00
2.885767698287963867e+00
3.003705501556396484e+00
3.096029758453369141e+00
3.667824029922485352e+00
3.005227088928222656e+00
2.131499528884887695e+00
1.999283552169799805e+00
1.949441313743591309e+00
3.062031269073486328e+00
1.930770158767700195e+00
3.231615781784057617e+00
3.268980264663696289e+00
2.523502111434936523e-01
-7.961049079895019531e-01
-8.978971242904663086e-01
-7.927688360214233398e-01
3.383151054382324219e+00
3.450744390487670898e+00
1.082732319831848145e+00
2.360114336013793945e+00
2.207712888717651367e+00
2.244514226913452148e+00
2.623081207275390625e+00
1.974171042442321777e+00
3.148960590362548828e+00
3.077482938766479492e+00
3.733829259872436523e+00
3.599852323532104492e+00
2.757794618606567383e+00
2.800709962844848633e+00
3.591315984725952148e+00
3.538716077804565430e+00
3.488614082336425781e+00
3.467132568359375000e+00
3.677240610122680664e+00
3.340335369110107422e+00
3.310355424880981445e+00
2.447523832321166992e+00
2.410274505615234375e+00
-4.035524725914001465e-01
1.598623514175415039e+00
1.263909816741943359e+00
1.675423145294189453e+00
3.170624256134033203e+00
3.453086376190185547e+00
3.050038814544677734e+00
3.460449457168579102e+00
-8.424117565155029297e-01
7.643883228302001953e-01
8.411992192268371582e-01
1.430899262428283691e+00
2.795611381530761719e+00
3.390603065490722656e+00
3.161885976791381836e+00
-5.586294531822204590e-01
2.979138612747192383e+00
2.301069259643554688e+00
2.401672124862670898e+00
2.096493721008300781e+00
2.274445772171020508e+00
-3.297383189201354980e-01
4.313366021960973740e-03
3.541804313659667969e+00
3.658937454223632812e+00
2.585996150970458984e+00
1.215490579605102539e+00
7.036697864532470703e-01
1.221837282180786133e+00
8.969238400459289551e-01
9.143478423357009888e-02
8.856378793716430664e-01
-8.950983881950378418e-01
2.734589576721191406e+00
3.098965406417846680e+00
-2.840322554111480713e-01
-5.074300765991210938e-01
2.728466272354125977e+00
-1.139669299125671387e+00
1.110856294631958008e+00
2.700632333755493164e+00
1.976539939641952515e-02
3.950945436954498291e-01
3.547620475292205811e-01
1.527867078781127930e+00
2.823621034622192383e+00
2.763717174530029297e+00
2.884497940540313721e-01
-6.665872335433959961e-01
2.242161035537719727e+00
2.501089334487915039e+00
-2.017265558242797852e-01
7.528719305992126465e-01
3.704120159149169922e+00
3.727685928344726562e+00
3.245802640914916992e+00
3.434667110443115234e+00
-4.421549141407012939e-01
6.226793527603149414e-01
4.068586826324462891e+00
4.047202110290527344e+00
3.527649164199829102e+00
3.602800130844116211e+00
-1.016338020563125610e-01
6.096550226211547852e-01
3.102029561996459961e+00
3.373954057693481445e+00
-3.883891403675079346e-01
4.939320087432861328e-01
6.047791838645935059e-01
2.556077241897583008e+00
2.596724271774291992e+00
2.719536781311035156e+00
6.615353822708129883e-01
6.241565942764282227e-01
-9.862668514251708984e-01
-7.246632874011993408e-02
-8.244659751653671265e-02
1.681863814592361450e-01
2.278356552124023438e-01
-5.557914376258850098e-01
-1.897263079881668091e-01
3.265179991722106934e-01
2.383913993835449219e-01
9.295099973678588867e-02
3.326980173587799072e-01
4.880504906177520752e-01
-3.636066317558288574e-01
1.469999849796295166e-01
-1.724953055381774902e+00
4.634554684162139893e-01
1.322419643402099609e+00
-1.277231216430664062e+00
-1.480951309204101562e+00
-7.987321615219116211e-01
7.116286158561706543e-01
-9.955334067344665527e-01
6.721549034118652344e-01
3.998178541660308838e-01
-9.712164998054504395e-01
-5.293917059898376465e-01
-3.825046122074127197e-01
-3.096104860305786133e-01
1.636806130409240723e+00
1.718722343444824219e+00
-3.542923629283905029e-01
1.279632598161697388e-01
9.923956394195556641e-01
8.203617930412292480e-01
7.326819896697998047e-01
2.825427293777465820e+00
2.814875125885009766e+00
2.889065265655517578e+00
-1.617928147315979004e-01
2.283804118633270264e-01
-5.840185284614562988e-01
1.195743978023529053e-01
7.092421054840087891e-01
-4.321040213108062744e-01
2.830126047134399414e+00
7.989192008972167969e-01
-2.964755594730377197e-01
1.830909967422485352e+00
1.557977199554443359e+00
1.648212075233459473e+00
-6.135089397430419922e-01
4.262638092041015625e-01
1.466664552688598633e+00
2.260742664337158203e+00
8.337950706481933594e-01
7.119348049163818359e-01
9.689164757728576660e-01
6.012839674949645996e-01
1.808995604515075684e+00
1.196767807006835938e+00
5.713277459144592285e-01
6.802936196327209473e-01
8.358869552612304688e-01
4.401890039443969727e-01
4.584655463695526123e-01
9.056431651115417480e-01
1.973176360130310059e+00
6.254624724388122559e-01
-3.394590020179748535e-01
1.247345566749572754e+00
6.487910151481628418e-01
2.381844222545623779e-01
5.073531866073608398e-01
9.326835274696350098e-01
5.826656222343444824e-01
1.873372793197631836e+00
-3.934703171253204346e-01
2.500079572200775146e-01
9.364908337593078613e-01
2.962785482406616211e+00
2.960201501846313477e+00
3.133133649826049805e+00
3.231052160263061523e+00
1.767689824104309082e+00
1.578657150268554688e+00
9.750968813896179199e-01
1.343679785728454590e+00
2.758025169372558594e+00
2.784951925277709961e+00
3.704280614852905273e+00
3.597410202026367188e+00
-6.523559093475341797e-01
1.468595027923583984e+00
1.599729776382446289e+00
2.052438497543334961e+00
2.594887733459472656e+00
-2.146569788455963135e-01
4.487302601337432861e-01
8.152149319648742676e-01
-3.005790151655673981e-02
2.225362777709960938e+00
6.459626555442810059e-02
-1.260543055832386017e-02
-3.232789039611816406e-01
6.343218684196472168e-01
1.327784180641174316e+00
1.210361599922180176e+00
2.080700546503067017e-01
2.576153278350830078e+00
2.813200473785400391e+00
2.525046348571777344e+00
6.686980724334716797e-01
7.992936372756958008e-01
7.943093180656433105e-01
1.230883479118347168e+00
4.403431415557861328e-01
-5.535784959793090820e-01
9.041195511817932129e-01
1.511563777923583984e+00
1.738232672214508057e-01
6.718318462371826172e-01
1.875607848167419434e+00
2.025382280349731445e+00
2.444526195526123047e+00
1.324742555618286133e+00
8.861986994743347168e-01
1.365591406822204590e+00
1.477560281753540039e+00
-4.989095926284790039e-01
2.906656980514526367e+00
5.862940549850463867e-01
8.585928082466125488e-01
8.617747575044631958e-02
3.678499758243560791e-01
-3.170265257358551025e-01
-9.568844437599182129e-01
1.566988587379455566e+00
1.227012753486633301e+00
5.294173359870910645e-01
2.807388305664062500e-01
-1.057164549827575684e+00
-1.140382409095764160e+00
1.112281531095504761e-02
8.950478434562683105e-01
1.754043996334075928e-02
8.956449031829833984e-01
1.309966802597045898e+00
1.363593697547912598e+00
-4.218733608722686768e-01
1.831509232521057129e+00
9.437685608863830566e-01
2.133980840444564819e-01
2.554243564605712891e+00
2.448665142059326172e+00
1.838863253593444824e+00
2.387342214584350586e+00
2.339150667190551758e+00
2.660241842269897461e+00
2.796914577484130859e+00
1.479038000106811523e+00
3.604627132415771484e+00
3.321539163589477539e+00
1.051480293273925781e+00
1.713765382766723633e+00
1.917918175458908081e-01
9.092104434967041016e-01
2.737469196319580078e+00
1.718401789665222168e+00
1.716880679130554199e+00
-7.313568592071533203e-01
-8.812389373779296875e-01
1.844730615615844727e+00
4.680372774600982666e-01
1.542412638664245605e-01
-1.640757203102111816e+00
2.908920049667358398e+00
2.785023152828216553e-01
9.456100463867187500e-01
-1.459090113639831543e-01
1.980430245399475098e+00
2.917073488235473633e+00
2.885328292846679688e+00
2.876526117324829102e+00
3.191303014755249023e+00
2.911397457122802734e+00
1.860392451286315918e+00
-2.504947781562805176e-01
-5.415260791778564453e-01
2.917389571666717529e-01
3.347222328186035156e+00
6.745798587799072266e-01
3.158700764179229736e-01
3.372206449508666992e+00
2.268200397491455078e+00
-1.137466788291931152e+00
4.297542572021484375e-01
7.365777492523193359e-01
2.546271085739135742e-01
1.371595025062561035e+00
1.074787855148315430e+00
3.201522350311279297e+00
-9.961100816726684570e-01
4.377647042274475098e-01
3.224210500717163086e+00
1.394387960433959961e+00
1.956197977066040039e+00
1.546156406402587891e+00
-1.215731739997863770e+00
-6.131019592285156250e-01
-2.879449129104614258e-01
1.141044378280639648e+00
1.741206347942352295e-01
6.141866445541381836e-01
-4.336455166339874268e-01
1.464754462242126465e+00
8.678624629974365234e-01
-5.549951791763305664e-01
-9.396272301673889160e-01
-6.010883450508117676e-01
5.957667231559753418e-01
4.378692805767059326e-01
-8.765025734901428223e-01
-4.602686762809753418e-01
-7.378302216529846191e-01
-5.005227923393249512e-01
-9.951133728027343750e-01
-8.177585899829864502e-02
-9.600464105606079102e-01
-2.056027054786682129e-01
1.153542518615722656e+00
-2.859813570976257324e-01
-4.300919175148010254e-01
4.829326868057250977e-01
-3.155665695667266846e-01
2.494422674179077148e+00
2.430461168289184570e+00
3.448040962219238281e+00
-1.481489241123199463e-01
3.201727867126464844e+00
1.273922801017761230e+00
-2.064463943243026733e-01
3.462899923324584961e+00
1.986154437065124512e+00
1.968317508697509766e+00
2.258412599563598633e+00
2.184150457382202148e+00
3.160891294479370117e+00
3.165460586547851562e+00
3.094838380813598633e+00
1.001043558120727539e+00
1.563271522521972656e+00
-9.486942738294601440e-02
-5.218243598937988281e-01
2.551951110363006592e-01
3.483775258064270020e-01
-1.289537996053695679e-01
-3.333086073398590088e-01
1.508433103561401367e+00
6.029111146926879883e-02
1.275290846824645996e+00
7.648873329162597656e-02
-3.429790213704109192e-02
1.023812294006347656e+00
1.024977326393127441e+00
1.625343322753906250e+00
1.157797425985336304e-01
3.024448156356811523e-01
7.015902400016784668e-01
1.004392743110656738e+00
5.869346261024475098e-01
6.674544811248779297e-01
-2.290863692760467529e-01
1.812471985816955566e+00
2.226490974426269531e+00
2.237248897552490234e+00
9.076042771339416504e-01
9.231380820274353027e-01
1.057873964309692383e+00
1.735734939575195312e+00
-9.912157058715820312e-01
4.351280927658081055e-01
6.953646540641784668e-01
4.727632701396942139e-01
2.147341012954711914e+00
1.905166983604431152e+00
-2.567001283168792725e-01
1.636852025985717773e+00
1.923990964889526367e+00
1.065814733505249023e+00
1.981179833412170410e+00
1.077497363090515137e+00
2.883747816085815430e+00
2.749829888343811035e-01
-1.000634193420410156e+00
2.715766668319702148e+00
2.914939880371093750e+00
1.359601497650146484e+00
2.144994974136352539e+00
2.235084295272827148e+00
1.474813580513000488e+00
7.187997698783874512e-01
1.790802478790283203e+00
6.369284987449645996e-01
1.420220255851745605e+00
9.939030408859252930e-01
1.560540556907653809e+00
7.915553450584411621e-02
7.435490489006042480e-01
5.277679562568664551e-01
-5.228843092918395996e-01
1.492682218551635742e+00
1.569764018058776855e+00
1.469362020492553711e+00
4.655466079711914062e-01
1.338324308395385742e+00
6.583144068717956543e-01
9.407636523246765137e-01
-4.260711073875427246e-01
3.004058003425598145e-01
1.361127376556396484e+00
1.864332795143127441e+00
1.916404366493225098e+00
1.915257930755615234e+00
7.476681470870971680e-01
1.043921232223510742e+00
2.622098624706268311e-01
1.884618848562240601e-01
1.020304679870605469e+00
1.005100965499877930e+00
4.251666367053985596e-01
1.619491457939147949e+00
8.438162803649902344e-01
3.947825133800506592e-01
2.926471531391143799e-01
4.651737213134765625e-01
4.405758380889892578e-01
2.181211113929748535e-01
4.155681133270263672e-01
1.324775457382202148e+00
1.068943262100219727e+00
2.248581312596797943e-02
-1.593583822250366211e+00
1.224637508392333984e+00
1.219351053237915039e+00
1.099531173706054688e+00
2.540361583232879639e-01
1.979234814643859863e-01
1.258183363825082779e-02
-1.930111050605773926e+00
3.923563241958618164e+00
3.921311616897583008e+00
3.907205581665039062e+00
3.912231683731079102e+00
3.945016145706176758e+00
3.965059995651245117e+00
3.939003467559814453e+00
1.588763833045959473e+00
-1.638781726360321045e-01
-4.635177552700042725e-01
2.408238202333450317e-01
6.350852251052856445e-01
1.432551980018615723e+00
1.493684887886047363e+00
1.514537692070007324e+00
1.418725013732910156e+00
1.232770204544067383e+00
1.228837370872497559e+00
1.390982985496520996e+00
1.480475664138793945e+00
1.268731832504272461e+00
3.792651593685150146e-01
2.098344266414642334e-02
1.028700590133666992e+00
-4.066545665264129639e-01
