7.290217280387878418e-01
1.434842944145202637e+00
5.341832041740417480e-01
6.273648142814636230e-01
8.885957598686218262e-01
6.257940530776977539e-01
1.231435015797615051e-01
1.060106396675109863e+00
-2.080299519002437592e-02
2.775202512741088867e+00
2.493111610412597656e+00
2.475022554397583008e+00
2.638008117675781250e+00
1.053140044212341309e+00
-1.177724123001098633e+00
-8.990050852298736572e-02
-8.607499003410339355e-01
1.590683579444885254e+00
2.517695665359497070e+00
-3.459202349185943604e-01
8.116200566291809082e-02
-2.189167588949203491e-02
2.204603433609008789e+00
2.137661695480346680e+00
2.241176366806030273e+00
2.209094524383544922e+00
8.992100358009338379e-01
3.396795988082885742e-01
8.281549215316772461e-01
2.072569370269775391e+00
-7.192246317863464355e-01
6.207744479179382324e-01
2.638928592205047607e-01
2.594783008098602295e-01
2.714440226554870605e-01
4.292806386947631836e-01
6.916281580924987793e-01
2.049824714660644531e+00
1.422746300697326660e+00
-1.713120788335800171e-01
1.237245559692382812e+00
2.601624250411987305e+00
1.378812432289123535e+00
-1.254865050315856934e+00
8.799263089895248413e-02
-2.907762229442596436e-01
1.691456556320190430e+00
1.477048993110656738e-01
3.246190786361694336e+00
-7.168767452239990234e-01
1.628064513206481934e+00
-4.416533112525939941e-01
5.555912852287292480e-01
-1.925001621246337891e+00
2.619335651397705078e-01
-1.299783587455749512e-01
3.930685818195343018e-01
-6.758555769920349121e-01
2.961829185485839844e+00
2.954019546508789062e+00
2.955964803695678711e+00
2.969036579132080078e+00
2.966963291168212891e+00
3.399121761322021484e+00
3.314520597457885742e+00
3.434978961944580078e+00
3.301593780517578125e+00
1.000369906425476074e+00
-3.987663090229034424e-01
1.684165000915527344e+00
1.953660726547241211e+00
3.225165128707885742e+00
3.196602106094360352e+00
2.789221048355102539e+00
2.708795070648193359e+00
2.798455476760864258e+00
2.421044349670410156e+00
3.304576396942138672e+00
2.091938734054565430e+00
3.158894300460815430e+00
1.863901972770690918e+00
1.945564270019531250e+00
2.706137895584106445e+00
2.458626747131347656e+00
2.934998512268066406e+00
2.928033590316772461e+00
-4.556659162044525146e-01
-3.049312904477119446e-02
3.891552090644836426e-01
-1.272784948348999023e+00
3.280015945434570312e+00
3.305345058441162109e+00
1.465263485908508301e+00
2.314835786819458008e+00
5.059836804866790771e-02
9.882202744483947754e-01
2.246895790100097656e+00
2.075919628143310547e+00
3.089794635772705078e+00
3.326977014541625977e+00
3.946501255035400391e+00
4.048096656799316406e+00
2.745537042617797852e+00
2.737854957580566406e+00
3.368848323822021484e+00
3.333898782730102539e+00
3.228328227996826172e+00
3.146417379379272461e+00
3.833029270172119141e+00
3.198723316192626953e+00
3.178221225738525391e+00
2.327058315277099609e+00
2.293374300003051758e+00
2.844649076461791992e+00
2.544873237609863281e+00
1.378550648689270020e+00
1.704669713973999023e+00
3.030638456344604492e+00
3.328465461730957031e+00
3.250738382339477539e+00
3.006487131118774414e+00
-5.057720541954040527e-01
7.736107707023620605e-01
1.024918317794799805e+00
3.334735631942749023e+00
3.437631845474243164e+00
3.104189634323120117e+00
3.281859159469604492e+00
8.466434478759765625e-01
2.889513254165649414e+00
2.308045387268066406e+00
2.274216175079345703e+00
8.025671839714050293e-01
2.138450384140014648e+00
1.513812988996505737e-01
-7.432718873023986816e-01
3.583248615264892578e+00
3.599334478378295898e+00
2.678385019302368164e+00
1.420322418212890625e+00
-3.459883034229278564e-01
-3.749101758003234863e-01
-2.314047366380691528e-01
2.472707331180572510e-01
-1.263959646224975586e+00
-1.279596567153930664e+00
2.180716514587402344e+00
2.242904424667358398e+00
3.600423634052276611e-01
1.041528105735778809e+00
1.194638371467590332e+00
1.218137621879577637e+00
-2.118760645389556885e-01
2.127068519592285156e+00
9.907616972923278809e-01
-3.791516721248626709e-01
1.244117096066474915e-01
-1.188928842544555664e+00
2.131817102432250977e+00
2.134155273437500000e+00
-6.843590140342712402e-01
1.951444000005722046e-01
1.916170835494995117e+00
2.090221405029296875e+00
-7.996799051761627197e-02
1.828722119331359863e+00
3.619575738906860352e+00
3.592126846313476562e+00
3.237456321716308594e+00
3.222911119461059570e+00
1.486603170633316040e-01
-1.225866317749023438e+00
3.811201572418212891e+00
3.750795364379882812e+00
3.550422430038452148e+00
3.542884826660156250e+00
-1.351797282695770264e-01
-4.703961610794067383e-01
2.994740486145019531e+00
3.108166217803955078e+00
2.027632296085357666e-01
7.226523756980895996e-01
2.253927946090698242e+00
1.906835317611694336e+00
8.109787702560424805e-01
2.595029830932617188e+00
1.087577223777770996e+00
9.250736236572265625e-01
-4.384006261825561523e-01
-6.310648322105407715e-01
1.249778345227241516e-01
-6.141706705093383789e-01
-4.736059606075286865e-01
3.102721869945526123e-01
-4.791859537363052368e-02
6.463411450386047363e-01
3.836606144905090332e-01
5.316251516342163086e-01
4.442811384797096252e-02
1.246346458792686462e-01
4.122106134891510010e-01
3.112663924694061279e-01
9.614378213882446289e-01
2.493803352117538452e-01
1.521801948547363281e+00
-4.666750133037567139e-01
8.165863156318664551e-01
-4.954965412616729736e-01
1.586681008338928223e+00
8.633577823638916016e-01
-8.363782167434692383e-01
-4.228947758674621582e-01
2.229081392288208008e-01
-7.807902097702026367e-01
4.092653095722198486e-01
1.718831300735473633e+00
-8.097850680351257324e-01
2.019308954477310181e-01
8.511480689048767090e-01
6.222732663154602051e-01
-1.377035677433013916e-01
2.554122805595397949e-01
1.480763703584671021e-01
2.618866682052612305e+00
2.612499713897705078e+00
2.973151445388793945e+00
-1.079355105757713318e-01
-5.854119360446929932e-02
9.515591263771057129e-01
-1.004495143890380859e+00
3.559533357620239258e-01
-1.380990743637084961e-01
3.125619649887084961e+00
2.289653941988945007e-02
-2.261911034584045410e-01
2.372167348861694336e+00
1.474426507949829102e+00
1.297796249389648438e+00
-1.154466122388839722e-01
1.629302144050598145e+00
1.793110519647598267e-01
1.341024518013000488e+00
9.984294772148132324e-01
1.676934957504272461e+00
1.317466259002685547e+00
7.727519869804382324e-01
2.094622373580932617e+00
2.888825893402099609e+00
5.726932883262634277e-01
2.357414960861206055e-01
4.553444087505340576e-01
-5.774258375167846680e-01
8.008011579513549805e-01
-4.593115448951721191e-01
1.590764641761779785e+00
5.970595479011535645e-01
5.771774649620056152e-01
1.666570186614990234e+00
1.560992836952209473e+00
2.492472678422927856e-01
1.544616103172302246e+00
1.474199652671813965e+00
1.778420448303222656e+00
1.429133057594299316e+00
3.307539504021406174e-03
-4.759398102760314941e-01
9.091745615005493164e-01
2.741194725036621094e+00
2.752674102783203125e+00
3.129676342010498047e+00
3.089213132858276367e+00
5.636264681816101074e-01
1.502859950065612793e+00
1.500021338462829590e+00
1.291378855705261230e+00
2.555971145629882812e+00
2.560143947601318359e+00
3.661224603652954102e+00
3.449917316436767578e+00
3.513073325157165527e-01
-9.096098691225051880e-02
1.969187140464782715e+00
1.908492207527160645e+00
2.458773136138916016e+00
1.737452745437622070e+00
1.209635019302368164e+00
3.768150508403778076e-02
-2.767822742462158203e-01
2.472083091735839844e+00
-1.669801831245422363e+00
-9.186568260192871094e-01
4.847431182861328125e-01
-1.272759735584259033e-01
1.621633768081665039e+00
1.669235706329345703e+00
5.474961996078491211e-01
1.311008691787719727e+00
2.884676218032836914e+00
2.935775041580200195e+00
6.118980646133422852e-01
1.145129203796386719e+00
1.423396706581115723e+00
1.615062475204467773e+00
1.847757101058959961e-01
1.613405823707580566e+00
1.520753979682922363e+00
2.118480205535888672e+00
4.510037228465080261e-02
8.461334109306335449e-01
8.745598196983337402e-01
-3.920071125030517578e-01
2.293047428131103516e+00
4.400928616523742676e-01
6.236888095736503601e-02
2.900268554687500000e+00
1.911858558654785156e+00
-2.592146396636962891e-01
2.713535547256469727e+00
1.447190761566162109e+00
1.240324139595031738e+00
-7.937949150800704956e-02
-7.985926866531372070e-01
-5.268527194857597351e-02
7.302353382110595703e-01
1.766350030899047852e+00
2.144854784011840820e+00
9.337215870618820190e-02
6.602019667625427246e-01
3.357215970754623413e-02
-1.732913106679916382e-01
5.080575346946716309e-01
2.753114104270935059e-01
-3.723826408386230469e-01
-2.043571621179580688e-01
1.872466564178466797e+00
1.001858472824096680e+00
1.745934635400772095e-01
-3.997323811054229736e-01
1.241942271590232849e-01
-9.563349485397338867e-01
2.268110036849975586e+00
1.275061607360839844e+00
1.848350882530212402e+00
2.098728179931640625e+00
2.114288806915283203e+00
2.681072711944580078e+00
2.716330051422119141e+00
1.603608012199401855e+00
3.522127151489257812e+00
3.602352380752563477e+00
3.727370202541351318e-01
7.352676987648010254e-01
2.187530755996704102e+00
1.237891435623168945e+00
3.242814540863037109e+00
1.255340933799743652e+00
1.079177975654602051e+00
4.321684837341308594e-01
-2.914064228534698486e-01
1.142201542854309082e+00
-1.693227589130401611e-01
-2.008857250213623047e+00
-9.200291633605957031e-01
2.699143171310424805e+00
-5.153579711914062500e-01
5.281987190246582031e-01
1.243964117020368576e-02
-1.184060275554656982e-01
2.614242792129516602e+00
2.618353605270385742e+00
2.592371702194213867e+00
3.020862102508544922e+00
2.850935935974121094e+00
2.371664285659790039e+00
-2.115605592727661133e+00
5.198107957839965820e-01
7.343023419380187988e-01
3.316322326660156250e+00
-1.593914508819580078e+00
4.138036072254180908e-01
3.006126403808593750e+00
3.593530178070068359e+00
1.532070159912109375e+00
1.805341094732284546e-01
1.085542559623718262e+00
1.703116178512573242e+00
2.206916570663452148e+00
1.552935719490051270e+00
3.119465827941894531e+00
1.998181700706481934e+00
2.137669563293457031e+00
3.111141204833984375e+00
9.177579283714294434e-01
2.038759469985961914e+00
1.287327885627746582e+00
-2.595155537128448486e-01
-1.801575422286987305e-01
5.192860364913940430e-01
-5.237302780151367188e-01
4.528496563434600830e-01
5.130716562271118164e-01
-1.562053203582763672e+00
-2.818242013454437256e-01
1.632419109344482422e+00
1.354695558547973633e+00
2.238525450229644775e-01
-2.453844249248504639e-01
-1.551680445671081543e+00
1.253123730421066284e-01
8.226237297058105469e-01
-2.453077398240566254e-02
-1.195865869522094727e+00
-3.857140839099884033e-01
1.503548026084899902e-01
8.034083247184753418e-01
1.253195703029632568e-01
-7.444070279598236084e-02
1.543963909149169922e+00
-2.164270162582397461e+00
6.915567517280578613e-01
-1.356134414672851562e+00
-9.486417770385742188e-01
2.701564311981201172e+00
2.732167482376098633e+00
3.785687208175659180e+00
1.974352896213531494e-01
3.608157873153686523e+00
1.152451157569885254e+00
1.362513065338134766e+00
3.893487930297851562e+00
9.689179062843322754e-01
2.357166528701782227e+00
2.400637626647949219e+00
2.303472757339477539e+00
3.294524431228637695e+00
3.268713951110839844e+00
3.297478199005126953e+00
1.009134888648986816e+00
1.449934244155883789e+00
1.056518793106079102e+00
-2.232774198055267334e-01
-9.902589917182922363e-01
-7.042644619941711426e-01
6.056898236274719238e-01
1.042029142379760742e+00
1.644423365592956543e+00
9.838284254074096680e-01
-5.683750510215759277e-01
1.207987308502197266e+00
-1.295508909970521927e-02
1.482433319091796875e+00
1.527272105216979980e+00
1.566097736358642578e+00
3.209387063980102539e-01
4.381536543369293213e-01
1.086831212043762207e+00
5.199412703514099121e-01
-1.735577702522277832e+00
7.318711280822753906e-01
-1.233193397521972656e+00
2.232116699218750000e+00
2.316660642623901367e+00
2.384617567062377930e+00
8.087265491485595703e-01
1.574042677879333496e+00
1.472071051597595215e+00
1.656419992446899414e+00
-4.146593809127807617e-01
-5.603747963905334473e-01
1.652158021926879883e+00
7.600685954093933105e-01
2.067015886306762695e+00
1.371789097785949707e+00
1.093311667442321777e+00
8.894996643066406250e-01
1.472774505615234375e+00
9.016028642654418945e-01
1.450891494750976562e+00
1.056041836738586426e+00
2.631648063659667969e+00
1.198510766029357910e+00
-5.885913968086242676e-01
2.798509836196899414e+00
2.690314054489135742e+00
2.726244211196899414e+00
2.734135389328002930e+00
1.498314499855041504e+00
-2.545242607593536377e-01
1.808506727218627930e+00
1.470084667205810547e+00
1.521696925163269043e+00
-4.302342534065246582e-01
7.601209878921508789e-01
1.265181779861450195e+00
2.546736598014831543e-01
-8.745948672294616699e-01
-1.577900499105453491e-01
-1.535685300827026367e+00
2.052375555038452148e+00
2.127301692962646484e+00
2.205389976501464844e+00
9.115423560142517090e-01
7.869571447372436523e-01
1.749655604362487793e-01
3.710436820983886719e-01
-1.977984905242919922e-01
5.375919938087463379e-01
-2.651811838150024414e-01
2.518362760543823242e+00
2.542171001434326172e+00
2.504622936248779297e+00
1.762924313545227051e+00
1.240758657455444336e+00
5.853098034858703613e-01
-1.243850663304328918e-01
1.058727860450744629e+00
1.160792350769042969e+00
-7.399232983589172363e-01
-5.051387548446655273e-01
-5.003756284713745117e-01
6.458099931478500366e-03
-7.142364382743835449e-01
-1.102478981018066406e+00
3.738089799880981445e-01
1.013510107994079590e+00
4.446469247341156006e-01
1.551389455795288086e+00
1.614008545875549316e+00
-1.548715680837631226e-01
8.815153241157531738e-01
1.398862361907958984e+00
1.449172258377075195e+00
1.612380862236022949e+00
2.501417398452758789e-01
-4.510566890239715576e-01
-2.969444729387760162e-02
-9.675953984260559082e-01
3.963804960250854492e+00
3.880959033966064453e+00
3.946132421493530273e+00
4.024542808532714844e+00
4.026358604431152344e+00
4.061004161834716797e+00
3.914444208145141602e+00
3.880971809849143028e-03
-6.623015403747558594e-01
1.195969879627227783e-01
7.892996072769165039e-02
5.302399396896362305e-01
1.420509099960327148e+00
1.457631945610046387e+00
1.286499738693237305e+00
1.142181396484375000e+00
7.932513356208801270e-01
7.753145694732666016e-01
9.559400677680969238e-01
1.451050758361816406e+00
1.681244820356369019e-01
4.759014248847961426e-01
1.470773015171289444e-02
-3.608107864856719971e-01
-9.190304875373840332e-01
