	metabolite_0	metabolite_1	metabolite_2	metabolite_3	metabolite_4	metabolite_5	metabolite_6	metabolite_7	metabolite_8	metabolite_9	metabolite_10	metabolite_11	metabolite_12	metabolite_13	metabolite_14	metabolite_15	metabolite_16	metabolite_17	metabolite_18	metabolite_19	metabolite_20	metabolite_21	metabolite_22	metabolite_23	metabolite_24	metabolite_25	metabolite_26	metabolite_27	metabolite_28	metabolite_29	metabolite_30	metabolite_31	metabolite_32	metabolite_33	metabolite_34	metabolite_35	metabolite_36	metabolite_37	metabolite_38	metabolite_39	metabolite_40	metabolite_41	metabolite_42	metabolite_43	metabolite_44	metabolite_45	metabolite_46	metabolite_47	metabolite_48	metabolite_49	metabolite_50	metabolite_51	metabolite_52	metabolite_53	metabolite_54	metabolite_55	metabolite_56	metabolite_57	metabolite_58	metabolite_59	metabolite_60	metabolite_61	metabolite_62	metabolite_63	metabolite_64	metabolite_65	metabolite_66	metabolite_67	metabolite_68	metabolite_69	metabolite_70	metabolite_71	metabolite_72	metabolite_73	metabolite_74	metabolite_75	metabolite_76	metabolite_77	metabolite_78	metabolite_79	metabolite_80	metabolite_81	metabolite_82	metabolite_83	metabolite_84	metabolite_85	metabolite_86	metabolite_87	metabolite_88	metabolite_89	metabolite_90	metabolite_91	metabolite_92	metabolite_93	metabolite_94	metabolite_95	metabolite_96	metabolite_97	metabolite_98	metabolite_99
microbe_0	0.21477445166496612	-2.00313595891891	0.44199053396631793	0.35280385823028837	0.15314100503931716	-0.35628714407956874	0.08873929351543541	0.1430855018475663	0.21196790913775576	0.34687945871895387	-0.5993862056574875	-0.13505450336175873	0.04770584778682707	-0.3258947089900781	-0.18724195042753689	0.21334396512194953	0.1390672760201923	-0.05005005877012447	0.32409827586508033	0.13614940950641863	-0.3239742927936211	0.34697923878548576	-0.0185737352330948	-0.053030834662406434	-0.1892470143774032	0.21949758264393093	0.07459400965622098	0.1755290911633125	-0.06645354833751238	0.19623724690802202	-0.2558860487562624	-0.07872766363804384	0.1841788309114607	-0.14120970948566036	0.13591872839867758	0.023166637169976134	0.21097322872894164	0.058728366331883386	0.28708580131718175	-0.003391489332011055	-0.35721556214516337	-0.10399237052353971	0.046104806185068625	-0.1748751225054157	-0.30787049879117756	0.1559046280660592	0.13959475957183898	0.08939397302509722	0.44827157787352956	-0.15015139176134173	-0.11551286914258707	-0.2893606951502248	0.014886383851391294	-0.32271272740101065	-0.14368886487413857	-0.1648624769426812	-0.18128107726577092	0.46420030824516356	0.17887106421451815	0.29547153280497973	-0.2200202644069451	0.35040041941664324	0.11387912105949916	0.1393676913174433	0.14564118073815013	-0.08740812895845185	-0.18263924454974667	0.20950573684466267	-0.6219998506736344	0.26498423925025616	0.26270068614540953	-0.1334979871773232	0.14793672218579879	-0.14291687868857306	-0.1407113372211075	0.2529525254154956	0.3214445720578114	0.5860992055518581	-0.15670456578585235	0.013839111441672713	0.012832296486206651	-0.1745127528253514	0.10297564762123823	0.18108219439934725	-0.09592957128833834	0.39144298841054326	-0.05700148443157449	-0.007430776578615017	-0.08200824421465835	-0.3976158365845466	-0.2887224537399051	-0.5494426228786891	0.29212307490294886	0.27620541348157435	0.38316588129779827	-0.13959859504120686	-0.2795822407047046	-0.0442978449638618	-0.18655402589423442	0.07974993963354837
microbe_1	0.17926010591662578	-0.8427062606490502	0.21051457388284245	0.18358928514601386	0.10285069678860292	-0.1650050730481215	-0.002524757990379878	0.0846947215394368	0.1029595440179073	0.16276210314050693	-0.26075807662532713	-0.0688337382804276	-0.0034879350540503173	-0.12422509945022409	-0.08886401151887557	0.11875660030929369	0.0709284412597932	-0.029364684671269736	0.15691306712403563	0.06865202365240664	-0.10274859208891851	0.13069640630284196	0.017596696129903888	-0.03861892408522938	-0.10503019490277399	0.0847354997190144	0.04217514060440719	0.07754676844653469	-0.03539239766792879	0.06257290861452014	-0.1027540172542375	-0.03170812146795343	0.055059779797883235	-0.06957032203362645	0.049863417943793564	-0.02772449648182329	0.07559170186225583	0.04274740505154084	0.15050555281448252	0.0012427921747764081	-0.19134373136386584	-0.04981448954124823	0.025825354687305346	-0.07774354153309015	-0.1372417021702076	0.058781895642912974	0.012617440504779587	0.04138195278151213	0.22592429394647318	-0.08135839322713956	-0.0705551701998276	-0.1347252362949377	0.005894795579934331	-0.17660464619771343	-0.0370080664094371	-0.05692422864506641	-0.09777010987090284	0.207874407144373	0.07988750994846505	0.13568126887570303	-0.0884326438683567	0.15607979568672903	0.047771939194868385	0.058559834896198315	0.055724101988892216	-0.028513991660580107	-0.039701725391849796	0.08735123779181364	-0.2805869221771288	0.09344331063275546	0.10324178470360562	-0.061842871868672655	0.056688946340472335	-0.06444578840567738	-0.04339487923300911	0.1259688047395543	0.13726610692017893	0.2893920823883597	-0.05848980904871892	-0.02769572675402132	0.014790963536715496	-0.09747078777056206	0.04289276453540958	0.06413657674387552	-0.024380494510969797	0.18332196277791024	-0.02651925832646551	-0.006006369967812009	-0.040568949193973025	-0.18412753507566237	-0.13730458657150746	-0.20951566444842384	0.14005723491414712	0.11378466779682761	0.15301653015422367	-0.0901946210728709	-0.1621222918728359	-0.02417166996279385	-0.11425430388415003	0.07057411269628544
microbe_2	0.18266666354624095	-0.9540153826102195	0.23271788866393195	0.1998204498439934	0.1076745737221988	-0.183352965561704	0.006229345299872957	0.09029560067620468	0.11341569265491958	0.18042275179316103	-0.29323949257850435	-0.07518567431566481	0.001422603711361159	-0.14356937097102473	-0.09830048321259299	0.12782947783183118	0.07746435970443943	-0.031348838327294404	0.17294957396077548	0.07512641392808295	-0.12396869576034175	0.1514423870501559	0.014127206369365375	-0.04000132330727635	-0.11310832341332444	0.0976619606208643	0.04528477822787691	0.0869452923946733	-0.03837180211896074	0.07539407318412128	-0.11744253478876254	-0.03621826453114119	0.06744495765858416	-0.07644201562007191	0.05811789562659542	-0.022842988010576715	0.08857758020349504	0.044280308570696314	0.1636064132636249	0.0007982690759532618	-0.20725425818844234	-0.055011264814103344	0.027770572000715865	-0.08706046181602434	-0.15360852004938452	0.06809796716763195	0.02479718212584492	0.04598729494473264	0.24725198056227715	-0.08795705945856624	-0.0748675400074722	-0.14955796349496298	0.006757274191973028	-0.19061942215046412	-0.04724095343820467	-0.06727773102607848	-0.10578053262094944	0.23246134337150803	0.08938207263535347	0.15100844811148917	-0.10105460840868818	0.1747191480219651	0.054112980258924526	0.06631097359871829	0.06434900283365308	-0.034163153105741695	-0.053412379106154595	0.09906837158583104	-0.3133354577875126	0.10989762076742882	0.11853717944819298	-0.06871607408068414	0.06544148845947884	-0.07197278307993249	-0.05272953303166361	0.13814916040683445	0.15493261723889218	0.317852409979246	-0.06791062820936211	-0.02371167982963207	0.014603087002763138	-0.10486069988432234	0.04865595119906563	0.07535407146832551	-0.031243525442610998	0.20328505805146746	-0.02944313198140569	-0.0061429999156671355	-0.0445438315589447	-0.2046054627134718	-0.15182868042129083	-0.24212166490688902	0.15464348271069828	0.12936416444139154	0.17509259579949188	-0.09493348028339155	-0.17338912155633357	-0.02610218490148053	-0.1211893371627516	0.07145426359312756
microbe_3	0.17767856406512839	-0.7910294496347294	0.20020637558231047	0.17605374074622593	0.1006111446992356	-0.1564868082623635	-0.006588972435338403	0.08209443534936356	0.09810513130193033	0.1545629008942444	-0.24567812662558275	-0.06588476345891636	-0.0057677211065104705	-0.11524425182536491	-0.0844829980334908	0.1145443904847313	0.06789405004083426	-0.028443513686365884	0.1494678953489751	0.06564619774331537	-0.09289686324754842	0.12106479563611083	0.019207455100170634	-0.03797712598202474	-0.10127981116931195	0.07873421010914816	0.04073144800347983	0.07318337273085418	-0.03400916763216477	0.05662050429425314	-0.09593466829758157	-0.02961422469994901	0.04930978838289868	-0.06638004252590612	0.046031161649606966	-0.02999080481566696	0.06956282687814364	0.042035733231056804	0.1444232957844478	0.0014491682180390875	-0.1839570475650416	-0.04740181420136991	0.02492226044205592	-0.07341803145616532	-0.12964317889065924	0.05445677961381745	0.006962825726894439	0.039243858504674156	0.2160226182239564	-0.0782948704737485	-0.06855309242177043	-0.12783893599144525	0.00549437786525897	-0.1700980911592953	-0.032257306006341024	-0.05211747088386032	-0.09405115948026577	0.19645957937065228	0.07547952690997595	0.12856541232419183	-0.08257272093762236	0.14742621661714161	0.0448280225155544	0.05496126073786789	0.05171987157974878	-0.025891289735998857	-0.03333636334071355	0.08191139514428847	-0.26538295815409074	0.08580416785434797	0.09614068454506497	-0.058651891960510016	0.05262545669102048	-0.06095127623601915	-0.03906113612428663	0.12031390488215687	0.12906418331376346	0.27617897869652597	-0.05411606246993905	-0.029545376058196737	0.01487818783574879	-0.09403991808992207	0.04021712481414841	0.058928698497097365	-0.021194236761460372	0.17405381760224004	-0.025161809236634358	-0.005942937610519117	-0.03872355466421962	-0.1746203718004622	-0.13056157360181264	-0.1943778743559571	0.13328536610852137	0.10655166937213212	0.142767409038272	-0.0879945396462023	-0.15689150918381456	-0.023275401499894377	-0.11103461804167847	0.07016549037711861
microbe_4	0.17852930158862756	-0.8188272611077774	0.20575132596451517	0.18010723473048196	0.10181583681437115	-0.16106892379821547	-0.004402764255896252	0.08349317230446696	0.10071640020266992	0.158973387412227	-0.2537898811802459	-0.0674710657968145	-0.004541386477084353	-0.12007519832233093	-0.0868396176572106	0.11681020782697515	0.06952629927186199	-0.02893902679698923	0.15347277640346269	0.06726308122164315	-0.09819627115683494	0.126245798338104	0.018341001205181118	-0.0383223597982465	-0.10329720461770941	0.08196240306254055	0.04150803413482007	0.07553051546482004	-0.034753229949542885	0.05982240104171854	-0.0996029089058017	-0.03074056640831957	0.052402803880335025	-0.0680961466461345	0.04809259570273916	-0.028771720074030616	0.07280585846065524	0.042418553275641424	0.1476950424524972	0.0013381551305329253	-0.18793046696961424	-0.04869963217672879	0.025408049775396957	-0.07574479487834718	-0.13373055025612368	0.05678333107115363	0.01000453655353195	0.04039397478415341	0.22134889338682395	-0.07994279003903593	-0.06963004317659527	-0.1315431908366258	0.0057097691776201165	-0.173598074744715	-0.034812818613384255	-0.054703105396129104	-0.09605164441359304	0.2025998040521495	0.07785065390243595	0.1323931492724595	-0.08572487041584775	0.1520811199446097	0.0464116039950937	0.05689699330459552	0.053873813354080924	-0.027302084485491207	-0.03676039688268551	0.0848375764892837	-0.2735614219033011	0.08991338912016911	0.09996048378545619	-0.06036837283772223	0.05481127499097016	-0.0628310321376655	-0.041392328230461795	0.12335576905777978	0.13347613369638855	0.28328652574113056	-0.05646877310438825	-0.028550419100917157	0.014831268442450196	-0.09588543964396301	0.04165639568016222	0.061730102353817706	-0.022908177511419936	0.17903930620421127	-0.02589200355673149	-0.005977058924793555	-0.039716222907955956	-0.17973443219196472	-0.1341887518199103	-0.20252074205327597	0.1369280663580943	0.11044241887172523	0.14828058082564688	-0.08917799983895569	-0.15970523371889866	-0.023757519131998528	-0.1127665403158038	0.07038529508195479
microbe_5	0.17865000347291482	-0.8227711899121173	0.206538038600228	0.18068234085702806	0.10198675746176988	-0.16171903028102919	-0.004092586980985802	0.08369162386142759	0.1010868847152182	0.15959914332241032	-0.25494076971234825	-0.06769612896370791	-0.004367395208978886	-0.12076060872091876	-0.08717397275649152	0.11713167997920232	0.06975788134314664	-0.029009329757055502	0.15404098537070676	0.0674924832135812	-0.09894814644455852	0.12698087440017325	0.018218069496064526	-0.03837134126548725	-0.10358343060850506	0.08242041621178409	0.04161821548544231	0.075863525991399	-0.03485879685032489	0.06027668330861902	-0.10012335562550256	-0.03090037076959029	0.052841638172179684	-0.06833962597462695	0.04838507013542159	-0.02859875741356621	0.0732659769014199	0.042472867443581475	0.1481592349640959	0.0013224046922690746	-0.1884942121859099	-0.048883765438470395	0.025476973134577974	-0.07607491400626942	-0.13431046287542903	0.05711342012569165	0.010436091784247759	0.04055715226045842	0.2221045805766244	-0.08017659540342859	-0.06978283999324142	-0.13206874722428208	0.00574032870572716	-0.17409464930745133	-0.03517539247250068	-0.05506995292440742	-0.09633547143928711	0.20347097367677813	0.07818706729430946	0.13293622519123616	-0.08617209458436959	0.15274155349465435	0.04663628112901941	0.05717163332202335	0.05417941270009036	-0.027502246791611284	-0.03724619572070931	0.08525274049974674	-0.27472177507668083	0.09049640178393181	0.10050243350928889	-0.060611905620160944	0.05512139695012441	-0.06309773023556509	-0.04172307569613587	0.12378734604551345	0.1341020972983873	0.28429493820355023	-0.056802573599743056	-0.02840925549144757	0.014824611560598333	-0.09614728060302813	0.04186059815240428	0.062127563045060175	-0.02315134990285994	0.179746642899407	-0.025995602878375657	-0.005981900026559517	-0.039857061796780835	-0.18046001053847371	-0.13470337264416843	-0.20367604489042646	0.1374448894343927	0.11099443495532202	0.14906278474254808	-0.08934590812006327	-0.16010444245704547	-0.023825921553469076	-0.11301226390992292	0.07041648077826657
microbe_6	0.17809452599649445	-0.8046209875987783	0.20291753878670774	0.1780356671805236	0.1012001701566436	-0.15872720036379112	-0.005520041829164241	0.08277833762150599	0.09938189225964644	0.15671937623429794	-0.24964431008184684	-0.0666603744622829	-0.005168113698976545	-0.11760630801743122	-0.08563525007727729	0.11565224541268365	0.06869212644378458	-0.028685791221820522	0.1514260528444435	0.06643676117311781	-0.09548797024371913	0.12359800926640876	0.018783808763146337	-0.03814592554828561	-0.10226620103920886	0.08031261160035355	0.04111115415037189	0.07433099111824654	-0.03437297149651103	0.05818604844661687	-0.09772822789259611	-0.030164941295198033	0.05082209583910097	-0.06721911916771156	0.047039084853226526	-0.02939474218809618	0.07114848360925183	0.04222291031060543	0.1460229925480098	0.0013948891754313186	-0.18589982211535827	-0.048036372871559374	0.025159783607253128	-0.07455568552712011	-0.1316416694243741	0.055594330046100815	0.008450048137046529	0.03980619950374051	0.21862686176857046	-0.07910060877278768	-0.06907965966911672	-0.1296501044859722	0.0055996918825843844	-0.17180938270542667	-0.03350680532933309	-0.05338169809357185	-0.09502928205456224	0.19946179761892244	0.07663887222630941	0.13043695649590525	-0.08411394152411333	0.14970219778046448	0.04560230317499375	0.05590772311295206	0.0527730257615652	-0.026581087579106044	-0.03501051966489077	0.08334213025373238	-0.2693817585863754	0.08781334173809904	0.09800834763218097	-0.05949115281490547	0.05369419666844938	-0.06187036922739164	-0.04020095556810477	0.1218012022711813	0.1312213743997987	0.2796541621864805	-0.055266403241821194	-0.029058899082461842	0.014855246939272565	-0.09494227244575115	0.04092084584754491	0.06029842456017839	-0.022032255639090143	0.17649143603377454	-0.025518832444463402	-0.005959620979236663	-0.03920891259009557	-0.17712085447439274	-0.1323350560395018	-0.19835927035728057	0.13506643793073023	0.10845402307301949	0.14546303432960397	-0.0885731839094151	-0.15826725935306984	-0.02351112941344738	-0.11188142885491031	0.07027296229063068
microbe_7	0.17964586184056497	-0.8553108186379372	0.21302885989797615	0.1854272895526452	0.10339694884296735	-0.16708277405848415	-0.0015334501746446794	0.08532896071610363	0.10414359011865404	0.16476198119310181	-0.26443624678541333	-0.06955302655336681	-0.0029318694815725355	-0.12641562964074837	-0.08993259019938504	0.11978400586998816	0.07166856355700202	-0.029589368680770223	0.15872902862657456	0.06938517854784232	-0.10515154004631899	0.13304566495081782	0.017203813820637404	-0.038775465892864514	-0.10594495586269259	0.08619928205021732	0.04252727353887731	0.07861104995398938	-0.035729783099721635	0.06402476727134254	-0.10441733350157323	-0.032218846543998314	0.05646226766048956	-0.07034846724550237	0.05079814854617104	-0.027171718277171353	0.07706221257786372	0.042920989848169944	0.15198908401413713	0.001192454726436365	-0.19314542698827353	-0.0504029683121503	0.02604562957579515	-0.07879858230526526	-0.1390950678370717	0.05983684030237146	0.013996664928146885	0.041903458129252114	0.2283394245124255	-0.0821056210346891	-0.07104349958696377	-0.13640488273210272	0.005992461983981956	-0.17819166847482126	-0.03816683054013259	-0.05809665116399576	-0.0986772038834105	0.210658612589387	0.08096266680764663	0.1374169066750106	-0.08986194526952818	0.15819050137953616	0.04848999372978513	0.059437567785780576	0.056700779020664394	-0.02915369828811909	-0.04125430910433092	0.08867807686634865	-0.28429534075845764	0.09530658385426194	0.10497382325196769	-0.06262118791612892	0.05768007737039538	-0.06529813940065488	-0.044451928134646934	0.127348098697035	0.1392666487432579	0.2926149076445612	-0.059556615248614664	-0.027244576393618214	0.014769688544826076	-0.09830761564351165	0.04354538328958668	0.06540683708061334	-0.025157658770585067	0.1855825680866201	-0.02685035549430337	-0.006021841836338027	-0.0410190617668289	-0.18644643959898644	-0.13894928360927117	-0.21320794246053287	0.14170897021627327	0.11554887782233303	0.15551640657665522	-0.09073124578671043	-0.16339813886178334	-0.02439027996585863	-0.1150396216332692	0.0706737802960542
microbe_8	0.18194195364334353	-0.9303355181432873	0.22799436308517262	0.19636743742761043	0.10664834379620447	-0.17944964119510765	0.0043670003654208145	0.08910407156774047	0.11119125517658857	0.17666563145006065	-0.2863294072780955	-0.07383436561996315	0.0003779373769603467	-0.13945407727583325	-0.09629297145779514	0.12589931697642798	0.07607391065400015	-0.030926730158364446	0.16953797299109485	0.0737490543592283	-0.11945433817616413	0.14702889421439935	0.01486530443223244	-0.03970723217044492	-0.11138978512188924	0.0949119897577424	0.044623234985349924	0.08494585363026752	-0.0377379646369147	0.07266650302664313	-0.11431770460135837	-0.03525877824123924	0.06481013916417044	-0.07498013388101654	0.056361840872680036	-0.02388147845014399	0.08581496889467632	0.043954199201267086	0.16081934070056847	0.0008928367676850346	-0.2038694581633833	-0.053905704623185224	0.02735674713597247	-0.08507838338739326	-0.1501266488217139	0.06611606930353287	0.022206068066660367	0.04500755603090889	0.24271473581937442	-0.08655326146546716	-0.07395012793218925	-0.14640245419273246	0.006573790787568701	-0.18763792351631503	-0.045064012557912925	-0.06507513047707802	-0.10407639802980506	0.2272307269830438	0.08736220262257288	0.1477477492525906	-0.09836941599718263	0.17075381859277639	0.05276398935565896	0.06466199900700342	0.0625141443831847	-0.03296135243553322	-0.05049557933280768	0.09657567255726418	-0.30636854554275583	0.10639713646730242	0.11528324241106136	-0.06725387139714278	0.06357947564806266	-0.07037149281198962	-0.05074368198097445	0.13555791571566855	0.15117424988696282	0.31179776963924066	-0.06590644636908727	-0.024559244607228137	0.014643055792221915	-0.10328857251332901	0.04742989284294441	0.07296766548422151	-0.029783486593770503	0.19903811600314913	-0.0288211081018932	-0.006113933307375419	-0.0436982164465789	-0.20024899540438512	-0.14873882967224028	-0.23518507554151302	0.15154040935230895	0.1260497876634039	0.17039614115828638	-0.09392533699867356	-0.17099222006994585	-0.025691487814898162	-0.11971398055928972	0.07126702059290935
microbe_9	0.17900738007311046	-0.83444845473553	0.20886735341367912	0.18238512680333052	0.10249282279978245	-0.1636438788114789	-0.003174207780694771	0.08427920327784588	0.10218382281441518	0.16145189418089112	-0.2583483439456351	-0.0683625005774442	-0.0038522383145659367	-0.1227899858050645	-0.08816393815218126	0.11808350128256351	0.07044355426193039	-0.02921748419474668	0.1557233500671098	0.06817170130898209	-0.10117431412772393	0.1291573025934738	0.01785409078504696	-0.03851636659246038	-0.10443089435840469	0.08377651088327975	0.04194444267504116	0.07684951034881671	-0.03517136148274458	0.06162173150759798	-0.10166430488547262	-0.03137352278096528	0.054140947691618146	-0.06906052453514433	0.04925103439947054	-0.02808664604163047	0.07462830496297967	0.04263368193952344	0.14953362561765426	0.0012757704734951414	-0.19016336051748506	-0.04942895095444322	0.02568104282183792	-0.0770523374515859	-0.13602747998350018	0.058090754529119604	0.011713849311070668	0.04104029145960808	0.22434203461718716	-0.08086885109378028	-0.07023524392360314	-0.1336248252933243	0.005830809979677221	-0.17556491739831048	-0.03624890854771201	-0.056156122566416444	-0.09717583228439741	0.2060503504651494	0.0791831269246781	0.1345441754452561	-0.08749624502174869	0.15469697861633835	0.04730150976847414	0.05798479308573001	0.05508423747514424	-0.02809489142902355	-0.03868455882611488	0.08648196656741658	-0.27815737241285254	0.09222259756684514	0.10210704930235481	-0.0613329624482124	0.056039612370396785	-0.06388737540199041	-0.04270235953668022	0.12506516799095846	0.13595546309503015	0.28728066638453265	-0.05779089691281958	-0.027991295398102856	0.014804901729073339	-0.09692254465375183	0.04246520499605333	0.06330437276419842	-0.023871339677893788	0.181840939809643	-0.026302341862363243	-0.005996233659381289	-0.040274060450618654	-0.18260831770187758	-0.13622707247411747	-0.20709668908811074	0.13897510973708882	0.1126288554316377	0.1513787500494057	-0.08984305438253593	-0.1612864278291013	-0.02402844883773292	-0.11373980733786992	0.07050881602380543
microbe_10	0.17794417559738368	-0.7997082948657865	0.2019375825957727	0.17731929530142843	0.10098726554703943	-0.157917405473408	-0.005906409261232259	0.08253113956847341	0.09892040406785158	0.15593991325078715	-0.24821072392737048	-0.06638002807691096	-0.005384843178850851	-0.11675253736098484	-0.08521876591948313	0.11525180869476717	0.068403659887938	-0.028598219448049023	0.15071827230308849	0.06615101019873706	-0.09455140864604256	0.12268237335930249	0.018936936708398966	-0.038084912555885864	-0.1019096681465696	0.0797420947422835	0.04097390848814858	0.07391618180623905	-0.03424147375097736	0.057620178903314334	-0.09707994164184791	-0.029965883512144076	0.0502754688223655	-0.06691583298100306	0.04667476868746706	-0.029610190399080194	0.07057534432799167	0.042155254723657554	0.14544477846464926	0.001414508460524544	-0.1851976017749945	-0.04780701017721661	0.025073930311572512	-0.07414447784026224	-0.13091931041335542	0.055183159819679584	0.007912488168040577	0.03960294005312609	0.21768555193517208	-0.07880937280693506	-0.06888933072353959	-0.12899545345789715	0.005561625888216015	-0.1711908324306199	-0.03305517091826221	-0.052924740253890434	-0.09467573739497837	0.19837663891133944	0.07621982418879919	0.1297604825401123	-0.08355686378977462	0.14887953914160706	0.04532243764550137	0.05556562210536736	0.05239236075445447	-0.026331758558355844	-0.034405392001676194	0.08282498774980135	-0.2679363829507166	0.08708712120557877	0.09733327650336376	-0.0591878000441316	0.05330789813958081	-0.06153816094665093	-0.03978896520223307	0.12126361520088907	0.13044165270825264	0.27839804910184857	-0.054850609917663384	-0.029234737306935266	0.014863538979195068	-0.09461611438341927	0.04066648425756397	0.059803333916714274	-0.021729351783681683	0.17561035323166024	-0.025389785582861035	-0.005953590737149517	-0.039033478848773784	-0.17621704924692821	-0.13169402672355762	-0.1969201855933193	0.13442266541425368	0.10776641294187389	0.14448869435316974	-0.08836403160638717	-0.15776999128254027	-0.023425925015612636	-0.11157534713410827	0.0702341163197105
microbe_11	0.17843467982015737	-0.8157354989502082	0.20513459871697903	0.1796563920690512	0.10168184707576489	-0.16055928614457893	-0.004645921373654355	0.08333760027354009	0.10042596646192836	0.15848283889095255	-0.2528876657023148	-0.06729463213967102	-0.00467778336586297	-0.11953788488745709	-0.08657750682954835	0.1165581963216267	0.06934475525322198	-0.028883914232264912	0.15302734062871337	0.06708324623152742	-0.09760685393428348	0.12566955052421336	0.01843737099912704	-0.03828396178085075	-0.10307282361826531	0.08160335304091171	0.041421659723104215	0.07526945868737095	-0.034670472941208924	0.05946627576884023	-0.09919491536615388	-0.03061529105440164	0.05205878873090419	-0.06790527601653429	0.04786331636533592	-0.028907310606929887	0.07244515803888518	0.04237597479682287	0.1473311482463926	0.0013505023638133995	-0.18748853046093916	-0.048555284679893784	0.025354018720512184	-0.07548600475361772	-0.13327593964320095	0.05652456452183713	0.009666227674892836	0.04026605514583412	0.22075648790176183	-0.07975950311532931	-0.0695102612436701	-0.1311311916775041	0.005685812661860773	-0.17320879529327315	-0.034528586267276506	-0.054415522794668325	-0.09582914403367487	0.2019168684790511	0.07758692951847901	0.13196741603596857	-0.08537427819454191	0.15156338659826463	0.046235472960583446	0.05668169489152486	0.05363424500986266	-0.027145171347821906	-0.03637956483978966	0.08451211717183293	-0.2726517868138131	0.08945634829092741	0.09953563340641086	-0.060177460303996344	0.05456816123686542	-0.06262195962964412	-0.04113304553322922	0.12301744312317242	0.13298542235937194	0.2824960014580603	-0.05620709704710758	-0.028661081419492584	0.014836486968548751	-0.0956801747903866	0.04149631533706219	0.06141852119065039	-0.02271754749883148	0.17848480409847844	-0.025810788991738304	-0.005973263842279919	-0.0396058151474753	-0.17916562991753748	-0.13378532537159638	-0.20161506607137103	0.13652291349942702	0.11000967717624721	0.14766738809581947	-0.08904637158316692	-0.1593922822101862	-0.023703896455555817	-0.11257391034016051	0.07036084769446427
microbe_12	0.18059493981830843	-0.8863219001640281	0.2192147752362178	0.18994934455446266	0.10474089656462615	-0.17219455627853586	0.0009054713264748937	0.08688938376560595	0.10705670696045622	0.16968229504987775	-0.27348567436564575	-0.07132269648487521	-0.0015637774931700488	-0.1318050062760585	-0.09256162174555627	0.12231173890363634	0.07348949158305818	-0.03014216030919359	0.163196851318423	0.07118896462694502	-0.11106352958816612	0.1388255623119531	0.016237202747597435	-0.039160606788966934	-0.10819554860302816	0.08980063588185494	0.043393628642205195	0.08122950913545957	-0.03655985481983093	0.06759678520412282	-0.10850960201232018	-0.033475386994255896	0.05991281828550754	-0.07226294331248573	0.053097872736484364	-0.025811714222652382	0.0806801203003642	0.04334806172841277	0.1556390261239312	0.0010686091528213648	-0.19757815124111722	-0.05185080671766307	0.02658757341318485	-0.0813943064415763	-0.14365491625408566	0.06243232797189724	0.017389980352100265	0.04318652135680123	0.23428138701066825	-0.08394403079716706	-0.07224493976831914	-0.14053732852225753	0.006232751315899954	-0.18209623040095235	-0.04101774597550101	-0.06098117042675821	-0.10090893357980324	0.217508612574855	0.08360788269247199	0.14168710840215915	-0.09337846542962969	0.16338348524893698	0.05025662828707089	0.06159706010760235	0.059103704302427174	-0.030727572944960757	-0.045074141590824235	0.09194250825288974	-0.29341918873947037	0.09989080789674365	0.10923516971702751	-0.06453608429107605	0.0601185639241546	-0.06739518447097015	-0.0470525928858152	0.1307415851962508	0.14418859567916353	0.3005440469965732	-0.06218128594842676	-0.026134608029847683	0.014717345534580373	-0.10036646906893387	0.04515102574123642	0.06853206740575923	-0.027069721393911506	0.19114435102169125	-0.027664956154948017	-0.006059907381885443	-0.04212647685469362	-0.19215165649651111	-0.14299574314944574	-0.22229207968703957	0.1457727460471202	0.11988937599595584	0.16166686989393442	-0.09205150729564071	-0.16653711406614646	-0.024928127674080036	-0.11697174434342683	0.07091899318369821
microbe_13	0.18014817563132324	-0.8717238998411561	0.216302848606734	0.18782065515931712	0.10410825338324603	-0.1697882616629811	-0.00024261429675165314	0.08615483807872648	0.10568540101095492	0.16736613128727496	-0.269225792406131	-0.0704896509746824	-0.0022077862250687863	-0.12926803826363553	-0.09132404467725719	0.12112184658690783	0.0726323170956113	-0.029881941962296765	0.1610936909677183	0.07033985945326748	-0.10828054940838472	0.1361047625400058	0.016692220375552513	-0.03897930750338996	-0.10713611591209071	0.0881053527182285	0.0429858050044688	0.07999690884886923	-0.03616911103916143	0.06591531147376717	-0.10658322814525922	-0.03288388947156795	0.05828852346380886	-0.07136173249143019	0.052015312154246374	-0.02645191568129157	0.07897704464153055	0.043147024062556605	0.15392087075897187	0.0011269075943669549	-0.1954915129528083	-0.0511692585590362	0.02633246150080143	-0.0801724083356341	-0.14150843617702646	0.061210541179138156	0.01579262814067195	0.042582538635519085	0.23148429751235877	-0.08307862704516822	-0.07167937986868855	-0.13859204180505058	0.006119638726067245	-0.18025821658610441	-0.03967572040277245	-0.059623326357575834	-0.09985838038316319	0.2142840780833568	0.08236268709011085	0.13967697514901212	-0.09172311644125752	0.16093896617795878	0.049425011633650984	0.06058051156882671	0.05797256335819723	-0.029986695116194895	-0.04327601288563132	0.09040582626407767	-0.2891242744953284	0.09773285336052506	0.10722920494535448	-0.0636346756163666	0.05897068304585784	-0.06640803203683854	-0.045828369059719654	0.12914415245371513	0.1418716631691166	0.2968115238750113	-0.06094576168297827	-0.02665710894678841	0.014741985219585252	-0.09939729477735781	0.0443951937007484	0.06706091222346888	-0.02616964666516708	0.18852622533608399	-0.027281495142887136	-0.00604198859870092	-0.04160517785399298	-0.1894660114298583	-0.14109093316646426	-0.21801585868346107	0.14385978468068483	0.11784615174766033	0.1587716317702359	-0.09143001404273954	-0.16505948868864317	-0.02467494395291059	-0.11606222663044496	0.07080356290404177
microbe_14	0.1789322593327769	-0.8319938878217321	0.20837773027338236	0.18202720034467101	0.1023864476122972	-0.16323927468642374	-0.003367251548515693	0.08415569379025789	0.1019532458766228	0.16106244502258993	-0.25763207013530187	-0.06822242893052122	-0.003960524551759548	-0.12236340972567505	-0.0879558469302375	0.11788342796792961	0.07029942547102053	-0.029173730027701295	0.15536971616540596	0.06802892932517979	-0.10070637256586878	0.12869981629729754	0.01793059929238161	-0.038485882196102716	-0.10425275705377013	0.08349145910420586	0.041875869556414536	0.07664225594311147	-0.03510566024047912	0.06133900170257911	-0.10134039657932714	-0.031274065991222066	0.0538678321799444	-0.06890899129670114	0.04906900827749683	-0.02819429210847424	0.07434194292219265	0.04259987865194137	0.14924472801398825	0.00128557300963561	-0.18981250470228672	-0.04931435268595952	0.025638147271378697	-0.0768468825538915	-0.13566656212750994	0.057885318348074755	0.011445264039037895	0.040938735357993083	0.22387172065735494	-0.08072333860099012	-0.07014014839087945	-0.13329773690393543	0.005811790770580361	-0.1752558663093089	-0.03602325493109104	-0.05592780916371776	-0.09699918801390672	0.20550816417249462	0.07897375469155288	0.1342061834966075	-0.0872179079366836	0.15428594727649314	0.047161678375317484	0.057813866496172484	0.05489404285429611	-0.027970317229445985	-0.03838221418103349	0.08622358263240204	-0.2774352081322591	0.09185975034880645	0.10176975825906864	-0.061181395941854344	0.055846603029217734	-0.06372139159255741	-0.04249651358297735	0.124796569178099	0.1355658846764194	0.2866530648256522	-0.05758315085746346	-0.028079150819036336	0.014809044745530464	-0.0967595837620413	0.042338116334734166	0.06305700677189507	-0.02371999746661435	0.18140071755029785	-0.0262378651743157	-0.005993220722583903	-0.04018640712475108	-0.18215674246026858	-0.13590679000680095	-0.2063776679647158	0.13865345666313533	0.11228529942900645	0.15089193298208026	-0.08973855398919572	-0.16103797391196273	-0.023985877501155994	-0.11358687734496531	0.07048940710895213
microbe_15	0.18044867296270728	-0.8815426370370891	0.21826143482925575	0.18925242946267562	0.10453377448198453	-0.1714067555610186	0.0005295977023966891	0.08664889965554257	0.10660775286981061	0.16892400241926242	-0.27209102466541757	-0.07104996435705813	-0.0017746205619268984	-0.13097442418208471	-0.09215644937136447	0.1219221781180091	0.07320885983003755	-0.030056967000331003	0.1625082942221192	0.07091097469971586	-0.11015240516961167	0.13793479523850172	0.016386171710695008	-0.039101250920263064	-0.10784869920699536	0.08924561436284995	0.04326011059651291	0.08082596611794624	-0.036431928576391215	0.0670462847779918	-0.10787892333113658	-0.03328173565589876	0.05938103775550885	-0.07196789443240559	0.05274345146241055	-0.02602131082200909	0.08012254758364801	0.04328224367920752	0.15507651643763998	0.0010876955746517147	-0.19689500332975896	-0.05162767355478337	0.02650405190824401	-0.08099426722843428	-0.1429521766419397	0.062032325201760274	0.01686702060720635	0.04298878246892057	0.23336564331931697	-0.08366070485180677	-0.07205978019066461	-0.13990045793222827	0.006195719200690952	-0.18149448006132896	-0.04057837803514652	-0.06053662364305845	-0.10056499125588592	0.2164529269702582	0.08320021607399264	0.1410290075990004	-0.09283651802537118	0.1625831701646363	0.04998436395500305	0.061264250624066596	0.05873337822443325	-0.030485015744640354	-0.044485449302281266	0.09143941143109768	-0.2920130697624599	0.09918431164270558	0.10857843363981501	-0.06424097063536549	0.05974275733185297	-0.06707199902606198	-0.04665179225136007	0.1302185990861464	0.143430051367069	0.29932205016613245	-0.06177678564470712	-0.026305670456953534	0.014725412361228152	-0.10004916951742926	0.04490357265715894	0.06805042351199209	-0.026775044460945363	0.19028719858477117	-0.027539414228997083	-0.0060540409222429314	-0.04195580792490472	-0.19127239877934343	-0.14237212430342971	-0.22089208072053546	0.1451464585063853	0.11922044147794231	0.1607189931640911	-0.09184803560626276	-0.16605335188461878	-0.02484523744280409	-0.116673975856455	0.07088120227623906
microbe_16	0.17766885840303304	-0.7907123175490987	0.2001431158655831	0.1760074963502395	0.10059740093658787	-0.15643453307307742	-0.0066139138506090545	0.08207847782089961	0.09807534056989975	0.15451258373926102	-0.24558558345388226	-0.0658666660856988	-0.005781711778369059	-0.11518913784131479	-0.08445611247463891	0.11451854084616908	0.06787542848124117	-0.028437860611612686	0.1494222055549156	0.06562775148432853	-0.09283640480877842	0.1210056880263577	0.01921734006291642	-0.037973187372674855	-0.10125679568147572	0.07869738118234149	0.040722588299551776	0.07315659528935614	-0.0340006789770495	0.056583975368424744	-0.09589281907517744	-0.029601374800040214	0.04927450163176228	-0.06636046430553655	0.0460076437233381	-0.030004712776984244	0.06952582866443469	0.042031365818202215	0.14438596997390696	0.001450434713856863	-0.18391171670206763	-0.04738700800982132	0.024916718301279728	-0.07339148651259797	-0.12959654800365084	0.05443023708845707	0.006928124286485371	0.03923073737192673	0.2159618532693961	-0.07827607013872218	-0.06854080599989387	-0.1277966758996426	0.005491920567634034	-0.17005816150169628	-0.03222815137149804	-0.05208797260244524	-0.09402833689368195	0.19638952845094715	0.07545247584341475	0.12852174348346956	-0.08253675955486295	0.1473731110263623	0.044809956183323396	0.05493917688041383	0.051695298276635326	-0.025875194645860633	-0.03329730016124377	0.08187801172510212	-0.2652896539287364	0.08575728769215951	0.09609710626189816	-0.05863230944189812	0.05260051972370061	-0.0609298309898656	-0.039034540655957795	0.1202792016922618	0.12901384945824057	0.2760978920534226	-0.05408922150689732	-0.029556727051611387	0.014878723116919068	-0.09401886340725119	0.040200704853463165	0.05889673860526812	-0.021174683221959256	0.17399694052039638	-0.025153478794942008	-0.005942548336580256	-0.03871222978165523	-0.17456202790387243	-0.13052019284079908	-0.19428497622912544	0.13324380826399151	0.10650728165101009	0.14270451186850508	-0.08798103810851632	-0.15685940873119186	-0.0232699012478208	-0.11101485935947142	0.07016298272918597
microbe_17	0.18042704908634305	-0.880836077820083	0.2181204943885237	0.18914939856261942	0.10450315385854314	-0.17129028826400222	0.0004740290997754526	0.08661334683913607	0.106541380158718	0.16881189755432385	-0.27188484170917154	-0.07100964404123472	-0.0018057912904715367	-0.13085163214942425	-0.09209654928470751	0.12186458602559658	0.07316737164526582	-0.030044372147107146	0.16240649895579712	0.07086987707857573	-0.1100177058783885	0.1378031055471753	0.016408195062648567	-0.03909247583611303	-0.10779742150347299	0.08916356079947091	0.043240371485416484	0.08076630691297876	-0.03641301614909903	0.06696489960632007	-0.10778568472440525	-0.03325310652743979	0.05930242010569192	-0.07192427484081804	0.05269105434359739	-0.02605229727435482	0.08004011685495932	0.043272513235815435	0.1549933558346454	0.001090517283125203	-0.19679400774936778	-0.0515946858768373	0.02649170421204733	-0.08093512602074154	-0.14284828465337834	0.06197318938174706	0.016789707009259358	0.04295954904316357	0.23323026112161077	-0.08361881836161095	-0.07203240647159276	-0.13980630392281884	0.006190244427356162	-0.18140551817797929	-0.04051342252638551	-0.06047090250172987	-0.10051414332962078	0.21629685596634424	0.08313994724193557	0.14093171494617024	-0.09275639731984825	0.16246485276207773	0.04994411279741301	0.06121504856051513	0.05867862976284899	-0.030449156445626235	-0.044398417901958365	0.09136503433842796	-0.2918051912052378	0.09907986427774279	0.10848134274605742	-0.06419734146744432	0.059687198639110595	-0.06702421976619793	-0.046592538476262824	0.13014128159040544	0.14331790929391158	0.2991413919556993	-0.061716984915958284	-0.02633096007406527	0.014726604948990474	-0.10000226041937138	0.044866989557905024	0.06797921798858425	-0.026731479857470986	0.19016047843176825	-0.02752085429568868	-0.006053173633495612	-0.041930576481856996	-0.1911424106142881	-0.14227992941232476	-0.22068510693664695	0.1450538690793856	0.11912154718467488	0.16057886046533193	-0.09181795465158199	-0.16598183319667098	-0.024832983073176218	-0.11662995420219274	0.07087561532417624
microbe_18	0.17784198190144657	-0.796369120308505	0.201271502920558	0.17683237481153857	0.10084255353386101	-0.15736698503363072	-0.006169024565922471	0.08236311818098613	0.0986067289181361	0.1554101095149657	-0.24723631036786758	-0.06618947565115613	-0.0055321549698263695	-0.1161722264380945	-0.0849356801702203	0.11497963044692186	0.06820758815370544	-0.02853869660491451	0.1502371913757266	0.06595678425479337	-0.09391482442873816	0.12206001240759673	0.01904101831223351	-0.03804344181001229	-0.10166733148343171	0.07935431242400942	0.040880622128039806	0.07363423445555761	-0.034152094270091665	0.05723555538125952	-0.09663929919340081	-0.029830583235752106	0.049903924513406805	-0.06670968829146634	0.04642714170617007	-0.029756631307077203	0.07018577953943689	0.04210926898286878	0.1450517643152291	0.0014278437577181502	-0.18472030013583413	-0.047651111545862046	0.0250155755240503	-0.07386497852688301	-0.13042832044880542	0.054903685968291094	0.007547106763365452	0.03946478388849148	0.21704574032532026	-0.07861141869496518	-0.06875996346873098	-0.12855048484787884	0.005535752297743085	-0.17077040162977547	-0.03274819341801821	-0.052614144400466245	-0.0944354318443753	0.1976390527149467	0.07593499576146118	0.12930068080924528	-0.0831782160912447	0.1483203751666748	0.04513221205918183	0.05533309484534238	0.0521336214080966	-0.026162288744603857	-0.03399408459721681	0.08247348416806527	-0.2669539560393214	0.08659350655126058	0.09687442827893411	-0.05898161009717107	0.053045329668638064	-0.06131235780791239	-0.03950893389917087	0.12089821537537421	0.12991167312766821	0.2775442646131295	-0.0545679937304569	-0.029354255167561072	0.014869175107942029	-0.09439442359944722	0.0404935937887769	0.0594668190622229	-0.021523466966076488	0.17501147814714285	-0.025302071976417456	-0.005949491960359252	-0.03891423591677107	-0.17560272964985263	-0.13125831683926187	-0.19594203460957876	0.1339850909668922	0.10729904191338863	0.1438264320387363	-0.08822187004920745	-0.15743199642320177	-0.023368011286242274	-0.11136730231019992	0.0702077125764276
microbe_19	0.18696083845172118	-1.0943273603443784	0.26070652925599025	0.2202808288279985	0.11375536657163976	-0.20648160983160158	0.017264429615541088	0.09735585247662804	0.12659630956117218	0.2026850830097029	-0.33418431032296625	-0.08319267941858821	0.007612639117044351	-0.16795401211352678	-0.11019573476834421	0.1392663966260621	0.08570328592288012	-0.03384998575079501	0.19316457476722593	0.08328778011440385	-0.15071793842259162	0.17759396867619626	0.009753701651581403	-0.04174392234539681	-0.12329130004394995	0.11395655770585944	0.049204667247734646	0.09879270848879385	-0.042127524234351066	0.09155593778173654	-0.13595831237230205	-0.04190357658742205	0.08305723425915335	-0.08510420700662924	0.06852317120895468	-0.01668954707187642	0.1049470766164673	0.04621262750969035	0.18012085167847158	0.00023792043564907495	-0.22731045345990908	-0.06156211889979679	0.030222637775366046	-0.09880501148326593	-0.17423989819144947	0.0798414469230666	0.040150493741571314	0.051792611307657443	0.274136838126797	-0.0962750831122079	-0.0803035467405302	-0.16825552621001916	0.0078444814008376	-0.20828590713196982	-0.060140135388786264	-0.08032895602866108	-0.1158781619862932	0.2634546850462043	0.10135055145223792	0.17032929795530816	-0.11696536914725697	0.19821519527991716	0.0621062515822004	0.07608175951347707	0.07522121953941041	-0.04128426771831317	-0.07069549934632158	0.11383853765171614	-0.3546169962493242	0.13063928826573723	0.13781796299068105	-0.07738016718233087	0.07647460482300339	-0.08146102169444291	-0.06449643688353124	0.15350324606549015	0.17720233744515101	0.353728399124434	-0.07978614878679369	-0.018689544235554134	0.014366257104330371	-0.11417613752046729	0.055920801595700675	0.08949441183107809	-0.03989479702128018	0.22844976450297838	-0.033128854121165174	-0.00631523034802961	-0.049554414663574464	-0.23041914694826793	-0.17013719186180487	-0.28322352906429527	0.1730303430146416	0.14900307586020634	0.20292083104832703	-0.10090710307653383	-0.18759165166197023	-0.028535717430709928	-0.129931372117553	0.0725637478012906
