2.574906647205352783e-01
4.827379286289215088e-01
1.424028426408767700e-01
1.393041759729385376e-01
1.242686033248901367e+00
-4.157577455043792725e-01
3.683994412422180176e-01
-7.842398881912231445e-01
2.002051919698715210e-01
6.438141465187072754e-01
3.157137930393218994e-01
3.165462911128997803e-01
-3.323961198329925537e-01
-3.456697762012481689e-01
-3.221997916698455811e-01
3.555775284767150879e-01
-4.574767649173736572e-01
-2.328689396381378174e-01
-2.596285045146942139e-01
-2.728212475776672363e-01
2.090615034103393555e-01
-4.705515205860137939e-01
4.552781283855438232e-01
4.575434625148773193e-01
4.667126238346099854e-01
8.517814278602600098e-01
7.022722959518432617e-01
6.066894531250000000e-01
1.591031074523925781e+00
1.416562683880329132e-02
-9.864803403615951538e-02
1.324426054954528809e+00
-5.198283791542053223e-01
8.558577299118041992e-01
-2.787337899208068848e-01
8.685803413391113281e-01
-7.171780467033386230e-01
2.088082432746887207e-01
2.062952816486358643e-01
-2.757790498435497284e-02
3.149838745594024658e-01
8.819396495819091797e-01
8.851913213729858398e-01
1.826901912689208984e+00
-8.091278672218322754e-01
8.819818496704101562e-01
7.749028205871582031e-01
1.725286394357681274e-01
4.410662949085235596e-01
-1.338151097297668457e-01
6.782836914062500000e-01
8.029911518096923828e-01
-4.730878472328186035e-01
5.229925513267517090e-01
-4.346558153629302979e-01
-3.000923693180084229e-01
8.918584208004176617e-04
7.612847536802291870e-02
7.437852621078491211e-01
7.434185743331909180e-01
7.476829886436462402e-01
7.349664568901062012e-01
7.401275634765625000e-01
8.616919517517089844e-01
8.616435527801513672e-01
7.364665865898132324e-01
7.421222925186157227e-01
2.111421376466751099e-01
1.644583791494369507e-01
6.009163856506347656e-01
3.608495593070983887e-01
9.594801068305969238e-01
9.679616689682006836e-01
8.163275122642517090e-01
8.164797425270080566e-01
5.458686351776123047e-01
5.471447706222534180e-01
6.454373002052307129e-01
6.131102442741394043e-01
4.648121595382690430e-01
3.995055556297302246e-01
3.834623694419860840e-01
8.614652752876281738e-01
1.021168828010559082e+00
6.907691955566406250e-01
6.943216919898986816e-01
-1.482306718826293945e+00
-5.839335322380065918e-01
2.534146420657634735e-02
2.650122046470642090e-01
7.664152979850769043e-01
6.972192525863647461e-01
5.203635692596435547e-01
5.280503034591674805e-01
-4.196113049983978271e-01
1.084058508276939392e-01
5.165129303932189941e-01
5.119538307189941406e-01
1.277381181716918945e+00
1.293835878372192383e+00
1.260525345802307129e+00
1.244841694831848145e+00
7.699426412582397461e-01
7.664398550987243652e-01
7.473152279853820801e-01
7.509869933128356934e-01
9.537860155105590820e-01
9.100767374038696289e-01
1.139347672462463379e+00
5.936353802680969238e-01
6.113970279693603516e-01
4.864471852779388428e-01
5.150184035301208496e-01
6.165339946746826172e-01
1.808575689792633057e-01
5.517225265502929688e-01
-1.161516457796096802e-01
7.867406606674194336e-01
8.809714913368225098e-01
8.584022521972656250e-01
8.984769582748413086e-01
-9.992374777793884277e-01
6.800966858863830566e-01
-2.455500960350036621e-01
-6.226817891001701355e-02
8.334996104240417480e-01
7.851133346557617188e-01
8.145060539245605469e-01
7.207266688346862793e-01
7.375676631927490234e-01
7.546594738960266113e-01
7.342112660408020020e-01
3.630449473857879639e-01
6.130353212356567383e-01
1.795779466629028320e-01
-1.040943190455436707e-01
8.413338661193847656e-01
8.311396241188049316e-01
4.726829230785369873e-01
-1.891903430223464966e-01
-4.883624315261840820e-01
-6.352669596672058105e-01
1.044532060623168945e-01
-5.115606784820556641e-01
1.490489691495895386e-01
-3.212227225303649902e-01
4.258971512317657471e-01
6.869457960128784180e-01
-2.979990541934967041e-01
-4.170962572097778320e-01
3.683969974517822266e-01
-9.662320613861083984e-01
9.370752424001693726e-02
4.046909213066101074e-01
1.802841573953628540e-01
1.193619608879089355e+00
-1.507387608289718628e-01
1.183069050312042236e-01
3.949267864227294922e-01
4.008453786373138428e-01
4.842943251132965088e-01
-4.175491631031036377e-01
3.480882346630096436e-01
3.156017363071441650e-01
1.640751659870147705e-01
8.274444341659545898e-01
1.066407561302185059e+00
1.066713213920593262e+00
7.605233788490295410e-01
7.942960858345031738e-01
3.318547308444976807e-01
-3.930706083774566650e-01
1.069263815879821777e+00
1.073644161224365234e+00
1.106061339378356934e+00
1.099595665931701660e+00
-3.712100386619567871e-01
1.336176693439483643e-01
8.569219708442687988e-01
8.222938179969787598e-01
3.609653413295745850e-01
-1.175970360636711121e-01
1.121639490127563477e+00
1.145417928695678711e+00
1.060789585113525391e+00
5.645496845245361328e-01
-2.616848945617675781e-01
-1.802013665437698364e-01
1.195532321929931641e+00
-5.707131028175354004e-01
-2.236792594194412231e-01
-3.736961185932159424e-01
-3.780257999897003174e-01
-2.444326132535934448e-01
-1.015235111117362976e-02
-4.595451056957244873e-01
-4.264628887176513672e-01
-5.491570755839347839e-02
-4.643191993236541748e-01
-1.330512046813964844e+00
-6.894280314445495605e-01
-1.234158426523208618e-01
-2.908054925501346588e-02
2.705335021018981934e-01
5.450831651687622070e-01
-1.523687005043029785e+00
4.812887012958526611e-01
-1.087451696395874023e+00
3.219011425971984863e-01
-1.189589142799377441e+00
6.931145787239074707e-01
4.476500451564788818e-01
1.072450429201126099e-01
1.366373658180236816e+00
8.780504465103149414e-01
6.126518845558166504e-01
4.831098020076751709e-01
-4.472798109054565430e-01
1.107982993125915527e+00
-2.091535925865173340e-01
1.147851228713989258e+00
4.109313711524009705e-02
1.200259089469909668e+00
6.035073995590209961e-01
6.010335087776184082e-01
8.029997944831848145e-01
-6.171107888221740723e-01
2.837377488613128662e-01
7.003051638603210449e-01
-1.035468578338623047e+00
-7.984560132026672363e-01
1.834233105182647705e-01
7.743372321128845215e-01
-1.335466206073760986e-01
7.354802489280700684e-01
5.226063132286071777e-01
6.204537153244018555e-01
2.829996943473815918e-01
-5.316323637962341309e-01
-1.776729583740234375e+00
1.659851372241973877e-01
5.938468575477600098e-01
6.613429635763168335e-02
5.633878111839294434e-01
3.746049106121063232e-01
4.378285706043243408e-01
6.149125099182128906e-01
5.468004345893859863e-01
-6.380725502967834473e-01
1.935262531042098999e-01
1.167359590530395508e+00
-1.190171241760253906e+00
-8.496901988983154297e-01
7.937514185905456543e-01
6.190663576126098633e-01
7.626363635063171387e-01
-7.145321369171142578e-01
3.822382688522338867e-01
1.269040107727050781e+00
-2.490608990192413330e-01
-1.518734544515609741e-01
3.469468355178833008e-01
4.488052725791931152e-01
6.980578899383544922e-01
1.907115221023559570e+00
9.250334501266479492e-01
-2.951294183731079102e-01
7.273281812667846680e-01
7.294678092002868652e-01
9.806693792343139648e-01
9.690743684768676758e-01
4.290518164634704590e-01
-5.955693721771240234e-01
-6.223303675651550293e-01
7.876815199851989746e-01
6.204071640968322754e-01
6.197679042816162109e-01
9.829788208007812500e-01
9.043301939964294434e-01
1.622224003076553345e-01
3.281034827232360840e-01
1.118892803788185120e-02
1.306108981370925903e-01
3.775373697280883789e-01
3.385561406612396240e-01
8.681022524833679199e-01
-4.174025654792785645e-01
1.362468749284744263e-01
3.856697976589202881e-01
-1.098410338163375854e-01
6.030753254890441895e-01
5.834905505180358887e-01
5.756654143333435059e-01
-3.151349127292633057e-01
-2.875000834465026855e-01
7.704045176506042480e-01
8.271207213401794434e-01
7.450635433197021484e-01
7.936550974845886230e-01
6.281478404998779297e-01
2.997205257415771484e-01
4.347374737262725830e-01
7.034300565719604492e-01
-4.323664009571075439e-01
-6.730121970176696777e-01
4.025183022022247314e-01
5.090466737747192383e-01
6.556882858276367188e-01
-3.704367876052856445e-01
1.003907680511474609e+00
6.228584051132202148e-01
7.137149572372436523e-01
3.090877532958984375e-01
8.690861612558364868e-02
7.266881465911865234e-01
4.201486706733703613e-01
1.490833044052124023e+00
6.426320672035217285e-01
4.209345579147338867e-01
5.026670694351196289e-01
5.611428022384643555e-01
-9.451341032981872559e-01
5.117648243904113770e-01
4.769382774829864502e-01
3.421837687492370605e-01
2.860553562641143799e-01
3.128996193408966064e-01
-5.639081001281738281e-01
1.053117513656616211e+00
-2.455640397965908051e-02
-1.072756767272949219e+00
-3.345217108726501465e-01
1.048346757888793945e+00
1.767708957195281982e-01
3.839840292930603027e-01
-6.420429944992065430e-01
-3.359934687614440918e-02
4.201075732707977295e-01
-3.914485871791839600e-01
8.961449861526489258e-01
2.259434163570404053e-01
5.015313625335693359e-01
2.878520786762237549e-01
1.527085453271865845e-01
1.561157405376434326e-01
2.367908209562301636e-01
2.278472781181335449e-01
-2.862811684608459473e-01
1.022099137306213379e+00
1.026205420494079590e+00
1.032008528709411621e+00
-2.400572448968887329e-01
-1.091092944145202637e+00
2.511725425720214844e-01
1.004430532455444336e+00
-1.134336709976196289e+00
-1.082342624664306641e+00
-1.297276169061660767e-01
-5.258854031562805176e-01
-1.407348990440368652e+00
1.409555226564407349e-01
-5.237970948219299316e-01
-9.528030753135681152e-01
7.283167243003845215e-01
-1.121800169348716736e-01
3.974270522594451904e-01
2.746421396732330322e-01
-7.717759609222412109e-01
6.686555147171020508e-01
6.707565784454345703e-01
6.636921167373657227e-01
6.762784719467163086e-01
7.279869318008422852e-01
1.859411597251892090e-01
6.305223703384399414e-01
-6.680327057838439941e-01
-6.788241118192672729e-02
9.244379401206970215e-01
3.405050039291381836e-01
-5.795339941978454590e-01
6.943940520286560059e-01
9.517174363136291504e-01
-6.117957234382629395e-01
3.863131403923034668e-01
6.464498639106750488e-01
4.766264855861663818e-01
6.086239814758300781e-01
-4.299152195453643799e-01
8.733485341072082520e-01
-1.408283829689025879e+00
-8.707702755928039551e-01
8.744331002235412598e-01
4.639259278774261475e-01
6.549492478370666504e-01
3.722240924835205078e-01
9.157767891883850098e-01
7.115845680236816406e-01
1.242184266448020935e-01
4.330943822860717773e-01
2.761524021625518799e-01
-3.169072568416595459e-01
2.144642919301986694e-01
1.385295391082763672e-01
-1.770498901605606079e-01
1.672150939702987671e-02
-1.061009094119071960e-01
-9.410399198532104492e-01
-5.583256483078002930e-01
2.943502366542816162e-01
4.485144913196563721e-01
-4.665844738483428955e-01
1.134940266609191895e+00
1.273748397827148438e+00
-1.090274333953857422e+00
-5.214464664459228516e-01
8.044146746397018433e-02
9.333998709917068481e-02
-2.008539140224456787e-01
-3.355722874402999878e-02
9.341796040534973145e-01
-7.582812905311584473e-01
6.373538374900817871e-01
3.501229286193847656e-01
3.477874994277954102e-01
6.420117020606994629e-01
2.045180052518844604e-01
5.577689409255981445e-01
3.469887971878051758e-01
-6.864385604858398438e-01
5.376181006431579590e-01
1.788353323936462402e-01
5.317546725273132324e-01
6.453321576118469238e-01
1.073656529188156128e-01
6.142411231994628906e-01
5.844039320945739746e-01
6.062591075897216797e-01
4.612680971622467041e-01
-1.907090693712234497e-01
4.104069471359252930e-01
2.745648920536041260e-01
-3.042635321617126465e-01
4.519428685307502747e-02
6.581816673278808594e-01
6.677883267402648926e-01
-3.918617069721221924e-01
-1.633919954299926758e+00
-1.286186575889587402e+00
5.022795870900154114e-02
-6.513705849647521973e-01
-2.157868742942810059e-01
-1.216299235820770264e-01
-4.004743397235870361e-01
-6.492193043231964111e-02
1.836687624454498291e-01
-1.818026542663574219e+00
1.551052629947662354e-01
-4.909045398235321045e-01
-1.920331865549087524e-01
-1.576816797256469727e+00
1.690809875726699829e-01
3.575901091098785400e-01
3.686667382717132568e-01
2.786206305027008057e-01
-2.330005168914794922e-01
-9.813295304775238037e-02
2.066285610198974609e-01
6.865460276603698730e-01
-1.219013214111328125e+00
1.084710001945495605e+00
-3.909130990505218506e-01
2.724423706531524658e-01
-5.416658520698547363e-01
5.692483782768249512e-01
2.267727851867675781e-01
9.712238609790802002e-02
-2.906913757324218750e-01
8.976873755455017090e-02
-4.670480489730834961e-01
1.970512568950653076e-01
-6.816090941429138184e-01
9.432163089513778687e-02
6.257275938987731934e-01
6.642746329307556152e-01
6.490066647529602051e-01
5.601352453231811523e-01
2.530471086502075195e-01
4.073001444339752197e-02
-7.328215837478637695e-01
7.648490667343139648e-01
4.290593564510345459e-01
-6.901544928550720215e-01
1.162620306015014648e+00
-3.759968876838684082e-01
1.731934100389480591e-01
-4.646056294441223145e-01
-3.202052116394042969e-01
5.514022111892700195e-01
5.015028640627861023e-02
5.578422918915748596e-02
5.313743278384208679e-02
2.833327278494834900e-02
2.002164721488952637e-01
-3.497774899005889893e-02
-8.111314177513122559e-01
1.248841643333435059e+00
-6.541258096694946289e-01
-1.538121551275253296e-01
7.738125324249267578e-02
9.911382198333740234e-02
9.482078999280929565e-02
5.434195399284362793e-01
3.077953457832336426e-01
-4.863641262054443359e-01
-4.241999238729476929e-02
3.211702704429626465e-01
3.086110353469848633e-01
1.979958564043045044e-01
1.179585218429565430e+00
6.532362103462219238e-01
1.205837726593017578e+00
-1.475207358598709106e-01
-5.059618949890136719e-01
-1.082663759589195251e-01
1.011962965130805969e-01
-4.560292512178421021e-02
1.985723376274108887e-01
9.673735499382019043e-02
-1.151880860328674316e+00
-2.751690149307250977e-01
7.835341989994049072e-02
1.070318445563316345e-01
1.692724972963333130e-01
3.121127188205718994e-01
-6.646613478660583496e-01
3.012870848178863525e-01
1.011319756507873535e-01
1.035490155220031738e+00
1.042074561119079590e+00
1.060243248939514160e+00
1.021735429763793945e+00
1.069185614585876465e+00
1.064535021781921387e+00
1.045044779777526855e+00
-1.230104565620422363e+00
7.946863174438476562e-01
3.839293420314788818e-01
-1.452085375785827637e-01
1.201166868209838867e+00
-7.481837868690490723e-01
-7.223841547966003418e-01
-7.358492612838745117e-01
-8.172840476036071777e-01
-8.927800059318542480e-01
-6.620773673057556152e-01
-7.976438999176025391e-01
-1.345279455184936523e+00
7.712004184722900391e-01
-6.026170849800109863e-01
-7.786516547203063965e-01
-1.589263081550598145e-01
4.569037556648254395e-01
