1.208689689636230469e+00
5.582591295242309570e-01
-2.316199094057083130e-01
1.362922191619873047e-01
4.674092233180999756e-01
8.628613352775573730e-01
-1.248690336942672729e-01
4.185449182987213135e-01
8.887209892272949219e-01
4.885900318622589111e-01
2.251597195863723755e-01
2.828869521617889404e-01
-6.612863540649414062e-01
-3.054353296756744385e-01
8.820524215698242188e-01
-7.528290748596191406e-01
-1.142708659172058105e+00
-7.108257412910461426e-01
-9.183129668235778809e-01
2.903175055980682373e-01
-2.748275995254516602e-01
6.547648310661315918e-01
4.877960979938507080e-01
4.935719966888427734e-01
3.559449613094329834e-01
8.474266529083251953e-01
1.101422786712646484e+00
5.011640787124633789e-01
-3.021459877490997314e-01
1.618851274251937866e-01
2.285630106925964355e-01
-9.099345207214355469e-01
4.508965015411376953e-01
6.366277933120727539e-01
-2.685002684593200684e-01
1.659415364265441895e-01
1.934701651334762573e-01
2.792014479637145996e-01
3.645067811012268066e-01
2.354937344789505005e-01
-3.719317317008972168e-01
-2.279840037226676941e-02
6.915922760963439941e-01
3.456240892410278320e-01
2.843500375747680664e-01
1.894067525863647461e-01
5.917859673500061035e-01
7.411670088768005371e-01
4.443472325801849365e-01
1.323579996824264526e-01
8.830018639564514160e-01
-2.911693751811981201e-01
3.710267245769500732e-01
8.048660308122634888e-02
-1.667317986488342285e+00
-6.052860617637634277e-01
5.761497020721435547e-01
3.980794847011566162e-01
4.706478118896484375e-01
4.695372879505157471e-01
4.669015407562255859e-01
4.658701717853546143e-01
4.644503891468048096e-01
5.084519386291503906e-01
5.112738013267517090e-01
3.900460004806518555e-01
4.012727737426757812e-01
-7.249592803418636322e-03
4.050098359584808350e-01
1.791210919618606567e-01
3.672972023487091064e-01
5.574905872344970703e-01
5.423481464385986328e-01
3.734607994556427002e-01
3.625702261924743652e-01
5.412765741348266602e-01
5.055253505706787109e-01
1.761456727981567383e-01
5.680842995643615723e-01
3.973279297351837158e-01
4.169224500656127930e-01
3.973610401153564453e-01
9.137371182441711426e-01
7.270970940589904785e-01
3.678813278675079346e-01
3.746863603591918945e-01
4.706928730010986328e-01
1.132758855819702148e+00
-5.152674317359924316e-01
1.624978780746459961e-01
6.106856465339660645e-01
5.566090345382690430e-01
2.911298573017120361e-01
1.665562987327575684e-01
-1.622629463672637939e-01
6.363151669502258301e-01
7.448229789733886719e-01
6.816704273223876953e-01
1.055198550224304199e+00
1.073200821876525879e+00
5.935223698616027832e-01
5.848349332809448242e-01
4.641925096511840820e-01
4.688469171524047852e-01
5.662714242935180664e-01
6.040669083595275879e-01
5.483410954475402832e-01
5.241238474845886230e-01
6.772170066833496094e-01
4.280722439289093018e-01
4.360249340534210205e-01
4.428713619709014893e-01
4.825006127357482910e-01
8.102315664291381836e-01
-3.657085597515106201e-01
1.223756551742553711e+00
4.278790652751922607e-01
5.918707847595214844e-01
3.853302299976348877e-01
4.097738265991210938e-01
4.137778580188751221e-01
1.869951784610748291e-01
3.680767714977264404e-01
-5.031343698501586914e-01
4.531193673610687256e-01
4.705339968204498291e-01
5.648461580276489258e-01
4.153318703174591064e-01
-3.155611455440521240e-01
6.354792118072509766e-01
7.632010579109191895e-01
7.577334046363830566e-01
1.562248263508081436e-02
1.471657514572143555e+00
-8.166586607694625854e-02
3.898713588714599609e-01
5.536071062088012695e-01
5.649324655532836914e-01
6.075508594512939453e-01
2.098686546087265015e-01
-3.627243041992187500e-01
4.310480356216430664e-01
3.684358894824981689e-01
-4.829480648040771484e-01
-2.526118159294128418e-01
-1.267249941825866699e+00
3.013260960578918457e-01
5.100415349006652832e-01
-9.686680138111114502e-02
4.413866698741912842e-01
5.925503969192504883e-01
1.232170388102531433e-01
1.176663279533386230e+00
2.952039241790771484e-01
4.447913765907287598e-01
-4.643318653106689453e-01
-2.909718453884124756e-01
6.606176029890775681e-03
2.439282834529876709e-01
2.420150786638259888e-01
-5.022982954978942871e-01
9.222065210342407227e-01
2.797586619853973389e-01
1.112138703465461731e-01
2.530053853988647461e-01
-5.883791446685791016e-01
5.632815361022949219e-01
5.695238113403320312e-01
3.920959234237670898e-01
4.579368233680725098e-01
3.528124652802944183e-03
-5.566669702529907227e-01
5.526756048202514648e-01
5.527189373970031738e-01
6.325992941856384277e-01
6.226816177368164062e-01
1.514086723327636719e-01
-7.221521139144897461e-01
3.834541440010070801e-01
5.333341956138610840e-01
3.449722826480865479e-01
2.417959645390510559e-02
2.012553066015243530e-01
1.140952825546264648e+00
9.379455447196960449e-01
4.405156075954437256e-01
4.329234063625335693e-01
3.983971774578094482e-01
7.811774015426635742e-01
3.532587587833404541e-01
6.647131443023681641e-01
1.636622846126556396e-01
-2.830616533756256104e-01
8.434278517961502075e-02
5.118173360824584961e-01
1.400198489427566528e-01
5.312528610229492188e-01
1.646092087030410767e-01
2.384141236543655396e-01
-2.869024872779846191e-01
1.862270981073379517e-01
2.292717993259429932e-01
8.257167339324951172e-01
4.148164987564086914e-01
9.606044888496398926e-01
2.668574154376983643e-01
-6.453862786293029785e-01
-7.822390645742416382e-02
1.016618490219116211e+00
-1.583741068840026855e+00
-6.916826963424682617e-01
8.867977857589721680e-01
-6.106246709823608398e-01
-1.868188232183456421e-01
-4.466158151626586914e-01
3.979309499263763428e-01
-2.405839413404464722e-02
6.067184209823608398e-01
-3.885346949100494385e-01
-5.737826824188232422e-01
2.408955544233322144e-01
6.844213604927062988e-01
-2.172886878252029419e-01
4.049939513206481934e-01
4.022191762924194336e-01
8.709443807601928711e-01
5.696453452110290527e-01
1.331584751605987549e-01
4.125244617462158203e-01
-1.004541292786598206e-01
3.440277650952339172e-02
3.218234777450561523e-01
8.339706659317016602e-01
3.965789675712585449e-01
1.959058269858360291e-02
5.718829631805419922e-01
4.980735480785369873e-01
-1.191764771938323975e-01
2.919565439224243164e-01
5.911456346511840820e-01
-4.168654978275299072e-01
5.807625055313110352e-01
1.620707958936691284e-01
-3.983467519283294678e-01
7.746363878250122070e-01
9.722580313682556152e-01
5.119683146476745605e-01
3.432209789752960205e-01
-5.018216371536254883e-01
3.896707892417907715e-01
-5.114995837211608887e-01
-5.842413902282714844e-01
2.323481738567352295e-01
1.006041169166564941e+00
4.974965751171112061e-01
7.085950970649719238e-01
-9.541284292936325073e-02
6.393768191337585449e-01
1.984435021877288818e-01
3.640620112419128418e-01
-1.301433324813842773e+00
4.711982905864715576e-01
5.175389647483825684e-01
5.355178713798522949e-01
2.330055832862854004e-01
8.539088368415832520e-01
3.006613627076148987e-02
4.442469179630279541e-01
4.433899819850921631e-01
6.987888216972351074e-01
8.213272690773010254e-01
-7.375358343124389648e-01
9.444529414176940918e-01
1.430806756019592285e+00
5.989438891410827637e-01
4.190923571586608887e-01
4.265995323657989502e-01
5.278806090354919434e-01
4.951599538326263428e-01
-4.278468489646911621e-01
4.345796406269073486e-01
-1.455547288060188293e-02
3.801565766334533691e-01
2.819301187992095947e-01
2.889030873775482178e-01
1.076482295989990234e+00
-6.532586812973022461e-01
1.224993586540222168e+00
4.755249917507171631e-01
9.805654287338256836e-01
-1.810740590095520020e+00
1.681992560625076294e-01
1.028498649597167969e+00
8.376681059598922729e-02
2.023992389440536499e-01
1.019358515739440918e+00
5.373753905296325684e-01
6.235993504524230957e-01
6.447665691375732422e-01
5.523008108139038086e-01
-5.814657807350158691e-01
6.632763743400573730e-01
6.122210621833801270e-01
-5.313272476196289062e-01
7.168717384338378906e-01
9.258784651756286621e-01
9.805161952972412109e-01
-8.452515602111816406e-01
-3.185483217239379883e-01
3.378241062164306641e-01
5.227366685867309570e-01
6.866949796676635742e-01
1.444475412368774414e+00
8.890881538391113281e-01
5.196288228034973145e-01
8.594569563865661621e-01
-7.616343498229980469e-01
4.680286943912506104e-01
5.718774199485778809e-01
5.990310311317443848e-01
2.861861605197191238e-03
-4.676597118377685547e-01
7.331352829933166504e-01
6.370217800140380859e-01
3.074998967349529266e-02
1.749991625547409058e-01
-5.146371573209762573e-02
9.860119819641113281e-01
2.237579226493835449e-01
-7.144285440444946289e-01
1.893281489610671997e-01
1.190485432744026184e-01
6.415324807167053223e-01
-7.272396087646484375e-01
4.367611557245254517e-02
-6.539204120635986328e-01
4.569822922348976135e-02
2.345182001590728760e-01
-2.410136908292770386e-01
-1.003341913223266602e+00
1.177533939480781555e-01
2.339412122964859009e-01
3.324538469314575195e-01
1.113383024930953979e-01
1.163863241672515869e-01
6.607989221811294556e-02
1.163210272789001465e-01
1.918432712554931641e-01
8.104181885719299316e-01
7.370471358299255371e-01
8.249588608741760254e-01
1.967729777097702026e-01
1.615045219659805298e-01
3.054710328578948975e-01
8.653352260589599609e-01
-9.471185207366943359e-01
-9.332448840141296387e-01
-7.757158279418945312e-01
1.196630954742431641e+00
-9.768647551536560059e-01
2.407488077878952026e-01
4.412579536437988281e-01
-3.170574009418487549e-01
4.210418760776519775e-01
1.044575646519660950e-01
1.961009055376052856e-01
-2.330902516841888428e-01
3.556997478008270264e-01
3.829516470432281494e-01
3.756597042083740234e-01
3.972165882587432861e-01
2.902731597423553467e-01
4.059427678585052490e-01
2.563694715499877930e-01
-3.088111579418182373e-01
1.479758024215698242e+00
-1.676389217376708984e+00
6.386686563491821289e-01
5.950408577919006348e-01
-3.825334310531616211e-01
7.062661051750183105e-01
7.701221108436584473e-01
7.031757235527038574e-01
4.434646964073181152e-01
1.251231193542480469e+00
6.065031290054321289e-01
1.297710686922073364e-01
5.286512374877929688e-01
5.073688030242919922e-01
-5.899556279182434082e-01
-2.510728836059570312e-01
5.197167992591857910e-01
5.207892060279846191e-01
5.203683972358703613e-01
5.468194484710693359e-01
6.636528372764587402e-01
-4.352516531944274902e-01
1.972978115081787109e-01
5.199616551399230957e-01
4.493579566478729248e-01
6.024020910263061523e-01
-5.766655802726745605e-01
-7.187317609786987305e-01
-1.085184812545776367e-01
-1.884161084890365601e-01
-9.382364153861999512e-02
7.857709527015686035e-01
1.205736994743347168e-01
-2.573052346706390381e-01
-6.417257189750671387e-01
-1.086234807968139648e+00
1.335372328758239746e+00
-1.436203241348266602e+00
1.275171041488647461e+00
-2.886697947978973389e-01
-8.022119998931884766e-01
-1.194179058074951172e-01
-5.385596156120300293e-01
-4.739767313003540039e-01
3.261949121952056885e-01
-7.175055742263793945e-01
8.597388267517089844e-01
5.499885678291320801e-01
5.420763492584228516e-01
4.232358038425445557e-01
-3.581587970256805420e-01
3.830570876598358154e-01
-4.122713804244995117e-01
2.685382664203643799e-01
2.402251064777374268e-01
2.306638062000274658e-01
5.256257057189941406e-01
-1.726783514022827148e-01
4.950320422649383545e-01
5.262632966041564941e-01
4.995066523551940918e-01
5.051569342613220215e-01
1.083228886127471924e-01
1.457221150398254395e+00
-7.956457734107971191e-01
9.985789656639099121e-01
-3.059901893138885498e-01
2.002823799848556519e-01
4.503877460956573486e-01
-8.714301586151123047e-01
3.575130105018615723e-01
4.813721776008605957e-01
-1.071307063102722168e-01
-3.751070201396942139e-01
-1.843311429023742676e+00
4.659748971462249756e-01
6.010389328002929688e-01
3.166378661990165710e-02
-5.811487436294555664e-01
1.025225967168807983e-02
3.313595056533813477e-01
1.283160895109176636e-01
-4.403609037399291992e-01
9.632902145385742188e-01
6.348306685686111450e-02
6.661961674690246582e-01
2.210305333137512207e-01
2.956072688102722168e-01
1.205371692776679993e-01
1.626037508249282837e-01
2.756410837173461914e-01
2.476298511028289795e-01
-1.411743164062500000e-01
6.598477810621261597e-02
-1.031308054924011230e+00
-5.908125638961791992e-01
2.682141959667205811e-01
5.402950048446655273e-01
2.360109239816665649e-02
4.352975487709045410e-01
2.284288853406906128e-01
2.431435883045196533e-01
5.016775429248809814e-02
-5.911220610141754150e-02
4.473998546600341797e-01
-1.185051202774047852e-01
9.573850035667419434e-02
5.909107327461242676e-01
3.693459928035736084e-01
6.051778793334960938e-01
4.361186921596527100e-01
7.160544395446777344e-01
2.402592152357101440e-01
2.420398220419883728e-02
2.245748937129974365e-01
-2.148067355155944824e-01
6.124202013015747070e-01
7.141100168228149414e-01
5.335705280303955078e-01
-1.721457988023757935e-01
-2.663853466510772705e-01
-2.266896814107894897e-01
2.879841625690460205e-01
7.006283998489379883e-01
7.293076515197753906e-01
7.263549566268920898e-01
7.703810930252075195e-01
3.319282531738281250e-01
7.249777317047119141e-01
3.204602301120758057e-01
3.593888580799102783e-01
1.802864819765090942e-01
2.005603313446044922e-01
7.194082140922546387e-01
7.582454085350036621e-01
7.647900581359863281e-01
-2.429558932781219482e-01
9.124008417129516602e-01
-2.703606337308883667e-02
-1.157508134841918945e+00
9.638826251029968262e-01
1.060507535934448242e+00
-1.888668090105056763e-01
-6.843144893646240234e-01
4.671267271041870117e-01
2.086512595415115356e-01
-3.452920615673065186e-01
-6.724856048822402954e-02
1.679756939411163330e-01
2.986538112163543701e-01
2.197437882423400879e-01
7.462624907493591309e-01
7.453777194023132324e-01
2.268878221511840820e-01
-1.635773658752441406e+00
6.559282541275024414e-01
6.441157460212707520e-01
7.672942876815795898e-01
-3.473666012287139893e-01
-8.737336993217468262e-01
4.188052713871002197e-01
-6.660575270652770996e-01
5.694884657859802246e-01
5.786478519439697266e-01
5.660201311111450195e-01
5.629698038101196289e-01
5.939474701881408691e-01
5.709766149520874023e-01
5.589502453804016113e-01
-7.387040853500366211e-01
5.946327447891235352e-01
4.360519945621490479e-01
-5.293910503387451172e-01
6.429854035377502441e-02
-2.637765705585479736e-01
-2.879912257194519043e-01
-2.848060727119445801e-01
-3.103501796722412109e-01
-3.843049108982086182e-01
-3.260570466518402100e-01
-2.508116960525512695e-01
-8.119282126426696777e-01
-3.194786608219146729e-01
-8.547394871711730957e-01
-9.629127383232116699e-01
9.531795978546142578e-01
-5.995509028434753418e-01
