-1.773047447204589844e-02
3.097874522209167480e-01
6.605068445205688477e-01
4.330691099166870117e-01
-6.039674282073974609e-01
7.990888953208923340e-01
-3.041461706161499023e-01
-4.630110040307044983e-02
-2.363431453704833984e-02
4.600352644920349121e-01
1.721359342336654663e-01
1.818980276584625244e-01
-8.600343465805053711e-01
-1.599519699811935425e-01
6.904068589210510254e-01
-2.701377868652343750e-01
-8.642555773258209229e-02
-1.043826818466186523e+00
-8.456959724426269531e-01
1.018539786338806152e+00
4.950640201568603516e-01
-4.398766458034515381e-01
4.639598727226257324e-01
3.775701522827148438e-01
3.574283421039581299e-01
8.322122693061828613e-01
8.513375520706176758e-01
3.528890609741210938e-01
-6.917006969451904297e-01
-2.955683767795562744e-01
2.651021480560302734e-01
3.374612629413604736e-01
5.325381159782409668e-01
-6.488378643989562988e-01
6.441233754158020020e-01
2.344284355640411377e-01
2.097798287868499756e-01
3.082716763019561768e-01
3.404702544212341309e-01
8.242660164833068848e-01
3.091839849948883057e-01
3.395183086395263672e-01
7.509681582450866699e-01
9.087467193603515625e-02
1.960700154304504395e-01
1.419641673564910889e-01
-1.779391169548034668e+00
8.216232061386108398e-01
7.556310892105102539e-01
8.183791041374206543e-01
-7.592344284057617188e-01
2.873857915401458740e-01
-6.347128748893737793e-01
-1.967582702636718750e-01
-1.125334620475769043e+00
3.021277785301208496e-01
-1.092856470495462418e-02
-2.404992468655109406e-02
4.301317632198333740e-01
4.314058721065521240e-01
4.319858551025390625e-01
4.335939586162567139e-01
4.335860311985015869e-01
4.215463101863861084e-01
4.168785512447357178e-01
4.804803729057312012e-01
2.331492304801940918e-01
6.632725596427917480e-01
-4.593836069107055664e-01
1.784185171127319336e-01
2.331207543611526489e-01
4.895227551460266113e-01
4.973803162574768066e-01
3.437840342521667480e-01
3.704608976840972900e-01
4.248654544353485107e-01
3.230633139610290527e-01
3.755999207496643066e-01
-1.502083092927932739e-01
2.428796142339706421e-01
4.179486334323883057e-01
4.584558010101318359e-01
3.845885992050170898e-01
1.212662577629089355e+00
3.359912037849426270e-01
3.447719216346740723e-01
8.235565423965454102e-01
6.262268424034118652e-01
-6.418920159339904785e-01
-7.064502835273742676e-01
5.863105058670043945e-01
5.188215970993041992e-01
3.124472200870513916e-01
4.203900694847106934e-01
6.184087321162223816e-02
2.666877806186676025e-01
7.626519203186035156e-01
7.648125290870666504e-01
1.065355181694030762e+00
9.659556746482849121e-01
5.637456774711608887e-01
5.305523276329040527e-01
4.117581248283386230e-01
4.011600613594055176e-01
4.935275912284851074e-01
4.415173232555389404e-01
4.996420443058013916e-01
4.558044970035552979e-01
8.956528902053833008e-01
3.694961369037628174e-01
3.818899393081665039e-01
4.078561961650848389e-01
1.958192288875579834e-01
6.253015398979187012e-01
5.217291712760925293e-01
3.781590461730957031e-01
5.147300958633422852e-01
5.849193334579467773e-01
3.355280160903930664e-01
2.046174108982086182e-01
3.804478645324707031e-01
-5.832899212837219238e-01
3.196806311607360840e-01
6.755220890045166016e-01
8.395329862833023071e-02
1.400601416826248169e-01
4.029063284397125244e-01
2.844732999801635742e-01
4.234668314456939697e-01
6.092360615730285645e-01
8.012005090713500977e-01
7.288718223571777344e-01
2.983941733837127686e-01
8.439229726791381836e-01
1.453922837972640991e-01
4.860353767871856689e-01
5.266924500465393066e-01
5.147590637207031250e-01
5.962089896202087402e-01
-6.361599564552307129e-01
1.737048625946044922e-01
3.509010076522827148e-01
5.104335770010948181e-02
-5.689559578895568848e-01
2.768700718879699707e-01
-4.861725866794586182e-01
2.944272160530090332e-01
5.339778065681457520e-01
-6.307736635208129883e-01
3.926806449890136719e-01
9.383212327957153320e-01
-1.326285004615783691e+00
7.025701999664306641e-01
2.961310744285583496e-01
7.924491167068481445e-01
-6.726426482200622559e-01
5.070454478263854980e-01
5.719183087348937988e-01
2.447041869163513184e-01
2.365303337574005127e-01
-5.909991264343261719e-01
5.942607522010803223e-01
2.216004282236099243e-01
5.824614167213439941e-01
3.324854075908660889e-01
-1.304769158363342285e+00
4.500198960304260254e-01
4.527715146541595459e-01
2.784016430377960205e-01
3.580931425094604492e-01
4.903508424758911133e-01
-8.152015805244445801e-01
4.480131566524505615e-01
4.202871620655059814e-01
4.791839420795440674e-01
4.882865250110626221e-01
-6.654387116432189941e-01
2.841385006904602051e-01
4.074491560459136963e-01
3.332491517066955566e-01
6.035356521606445312e-01
5.636727213859558105e-01
9.292489290237426758e-01
2.365128993988037109e-01
8.440737128257751465e-01
4.435032904148101807e-01
3.268472552299499512e-01
2.598944008350372314e-01
1.186495721340179443e-01
5.380336046218872070e-01
1.088093042373657227e+00
-4.346616864204406738e-01
-3.135086596012115479e-02
-6.325892359018325806e-02
1.956594139337539673e-01
1.143067702651023865e-01
2.711445093154907227e-01
2.381349503993988037e-01
1.646571308374404907e-01
1.835488975048065186e-01
-1.899828612804412842e-01
-1.553710460662841797e+00
-7.669683098793029785e-01
2.655797004699707031e-01
4.031064808368682861e-01
-5.073969960212707520e-01
-3.012792207300662994e-02
5.816353559494018555e-01
1.075179576873779297e+00
2.954848110675811768e-01
5.780994296073913574e-01
-7.342927157878875732e-02
7.083702683448791504e-01
-1.425511091947555542e-01
2.135648578405380249e-01
3.412610590457916260e-01
1.278337001800537109e+00
8.207994103431701660e-01
1.412224769592285156e-01
-1.065007448196411133e+00
-7.206023931503295898e-01
6.341061592102050781e-01
1.659653782844543457e+00
3.949981629848480225e-01
3.901701867580413818e-01
9.294306635856628418e-01
-1.214521408081054688e+00
-2.188880294561386108e-01
-1.270979523658752441e+00
1.110324859619140625e-01
-4.096901714801788330e-01
-5.767655968666076660e-01
8.982148766517639160e-01
7.000067830085754395e-01
7.547254562377929688e-01
5.345786213874816895e-01
8.343719840049743652e-01
3.224515318870544434e-01
1.972781121730804443e-01
-5.490073561668395996e-01
1.060559630393981934e+00
3.922577202320098877e-01
-5.835456252098083496e-01
2.791258394718170166e-01
6.914476156234741211e-01
3.353989124298095703e-01
6.467172503471374512e-01
4.719337224960327148e-01
9.136933833360671997e-02
2.873887121677398682e-01
5.402274131774902344e-01
4.195464253425598145e-01
1.723883450031280518e-01
-6.353700757026672363e-01
6.528551578521728516e-01
6.973019838333129883e-01
-5.418471693992614746e-01
-1.918222159147262573e-01
-2.960813045501708984e-01
3.027665317058563232e-01
1.789066493511199951e-01
6.744136214256286621e-01
-2.323857098817825317e-01
5.197530388832092285e-01
-1.820936560630798340e+00
-1.428759247064590454e-01
-2.561497688293457031e-02
4.404105246067047119e-01
4.376870989799499512e-01
6.768506765365600586e-01
7.299653887748718262e-01
4.548652172088623047e-01
5.332668423652648926e-01
4.937848150730133057e-01
9.012050628662109375e-01
4.425470829010009766e-01
4.505393803119659424e-01
4.317526221275329590e-01
4.603676199913024902e-01
6.883836984634399414e-01
-1.171976804733276367e+00
2.102406769990921021e-01
2.485579848289489746e-01
3.227806687355041504e-01
-9.961518049240112305e-01
-1.338261514902114868e-01
-3.773209154605865479e-01
4.172240495681762695e-01
6.123652458190917969e-01
8.107212185859680176e-01
6.610257029533386230e-01
1.211874932050704956e-01
5.806579589843750000e-01
6.660101562738418579e-02
2.073206007480621338e-01
-1.698523610830307007e-01
4.109835624694824219e-01
6.055822968482971191e-01
6.762455701828002930e-01
-5.463495850563049316e-01
-1.745963841676712036e-01
-3.823023140430450439e-01
5.506690144538879395e-01
-1.442957043647766113e+00
1.243239760398864746e+00
-9.833437800407409668e-01
2.301650196313858032e-01
4.895025491714477539e-02
3.256375193595886230e-01
1.601434350013732910e-01
2.490908801555633545e-01
7.241854667663574219e-01
4.917452037334442139e-01
-3.278693184256553650e-02
6.096493601799011230e-01
5.181015133857727051e-01
1.215467095375061035e+00
4.206638336181640625e-01
3.384448587894439697e-01
4.981932342052459717e-01
-9.358903169631958008e-01
5.134473443031311035e-01
6.664001345634460449e-01
4.664917290210723877e-01
4.468328654766082764e-01
3.719185292720794678e-02
-5.670391321182250977e-01
2.501348257064819336e-01
1.896986812353134155e-01
8.003444410860538483e-03
5.691012740135192871e-01
9.383082389831542969e-01
-1.519795060157775879e+00
-1.751868724822998047e-01
3.456865251064300537e-01
2.146526128053665161e-01
-6.796377897262573242e-01
-2.464240789413452148e-01
5.912520885467529297e-01
4.646552205085754395e-01
1.770186722278594971e-01
6.062340140342712402e-01
3.759078979492187500e-01
1.863554716110229492e-01
1.744631975889205933e-01
-5.236105248332023621e-02
5.821677856147289276e-03
-3.667253851890563965e-01
9.047222137451171875e-01
7.310248613357543945e-01
1.921453624963760376e-01
3.118166327476501465e-01
1.621459364891052246e+00
1.058812618255615234e+00
9.809032678604125977e-01
-8.810799121856689453e-01
-9.378967881202697754e-01
2.091257460415363312e-02
3.811026215553283691e-01
-7.694750428199768066e-01
2.578818202018737793e-01
1.225575059652328491e-01
-1.882347613573074341e-01
3.520132899284362793e-01
1.490283966064453125e+00
-2.525295019149780273e-01
-1.763168871402740479e-01
3.447078466415405273e-01
3.462212085723876953e-01
3.464335501194000244e-01
3.703211545944213867e-01
4.019941389560699463e-01
4.201669394969940186e-01
-3.169492483139038086e-01
-3.582100197672843933e-02
1.603218764066696167e-01
-4.148224592208862305e-01
5.224359631538391113e-01
6.332925558090209961e-01
-6.442251801490783691e-01
5.937321782112121582e-01
3.043503761291503906e-01
9.464879631996154785e-01
-4.082155227661132812e-01
2.903898954391479492e-01
7.002729773521423340e-01
-2.488355785608291626e-01
4.550158381462097168e-01
3.961581289768218994e-01
-4.245504736900329590e-01
-6.142950654029846191e-01
3.864994347095489502e-01
4.783259630203247070e-01
5.226341485977172852e-01
3.017475605010986328e-01
5.091028213500976562e-01
7.753377556800842285e-01
1.387644529342651367e+00
6.755445003509521484e-01
1.261171605437994003e-02
4.932033270597457886e-02
1.540917158126831055e+00
-9.460657835006713867e-02
-9.719208627939224243e-02
3.464224934577941895e-02
-1.142472982406616211e+00
6.806452870368957520e-01
-1.078452542424201965e-01
-1.095311999320983887e+00
1.620206981897354126e-01
-5.113973021507263184e-01
-1.215828537940979004e+00
-2.651093900203704834e-01
3.188925087451934814e-01
3.178647756576538086e-01
5.001742392778396606e-02
-3.898835182189941406e-01
7.981768250465393066e-01
-5.929285883903503418e-01
5.369544029235839844e-02
1.933865100145339966e-01
-3.800967335700988770e-02
5.538031458854675293e-01
5.962195396423339844e-01
3.493290543556213379e-01
1.916707009077072144e-01
2.861607670783996582e-01
1.639845073223114014e-01
3.208844661712646484e-01
8.501341938972473145e-02
1.325264573097229004e-01
9.196831285953521729e-02
7.295585870742797852e-01
5.169319510459899902e-01
3.664408028125762939e-01
5.036356449127197266e-01
5.200063586235046387e-01
-2.675967849791049957e-02
4.659666493535041809e-02
1.796597093343734741e-01
2.067002803087234497e-01
4.607763886451721191e-01
-4.257566332817077637e-01
1.418866068124771118e-01
-5.498404428362846375e-02
3.325146138668060303e-01
-2.451222091913223267e-01
3.811261057853698730e-01
-4.377616047859191895e-01
-2.789065428078174591e-02
6.089168787002563477e-01
6.601815819740295410e-01
-4.475886374711990356e-02
7.079604268074035645e-01
5.726426839828491211e-01
9.721632003784179688e-01
7.837750315666198730e-01
-7.220339775085449219e-01
8.391731977462768555e-01
5.532069802284240723e-01
5.589209794998168945e-01
2.816293835639953613e-01
3.209821879863739014e-01
3.649953305721282959e-01
4.198804497718811035e-01
-8.206032961606979370e-02
3.023614287376403809e-01
1.465058326721191406e-01
-9.099768102169036865e-02
2.579576671123504639e-01
-4.704836606979370117e-01
2.088094502687454224e-01
7.553650736808776855e-01
4.957211017608642578e-01
7.232491672039031982e-02
1.454526633024215698e-01
-9.416762590408325195e-01
2.630124092102050781e-01
-4.402503669261932373e-01
4.327859580516815186e-01
1.505559921264648438e+00
1.098652005195617676e+00
4.674811065196990967e-01
4.077382087707519531e-01
2.985330820083618164e-01
3.629972040653228760e-01
2.521681785583496094e-01
4.367144107818603516e-01
4.562356173992156982e-01
-1.748075783252716064e-01
-4.259872436523437500e-01
1.399502515792846680e+00
4.055252671241760254e-01
7.131749987602233887e-01
2.380432486534118652e-01
-1.396123170852661133e-01
4.651747941970825195e-01
-1.302688568830490112e-01
5.719528794288635254e-01
6.960358619689941406e-01
7.055590748786926270e-01
5.493040680885314941e-01
3.480779230594635010e-01
1.821122132241725922e-02
-4.050065577030181885e-01
5.385072231292724609e-01
-1.792714446783065796e-01
3.884762823581695557e-01
7.015711665153503418e-01
7.313960790634155273e-01
6.997296214103698730e-01
-5.236964225769042969e-01
1.011030554771423340e+00
1.324972987174987793e+00
-1.791166365146636963e-01
9.780405759811401367e-01
1.017144083976745605e+00
8.087922334671020508e-01
2.557291686534881592e-01
9.348999261856079102e-01
-7.630401849746704102e-01
8.992422372102737427e-02
-9.094758033752441406e-01
2.933555245399475098e-01
5.597727298736572266e-01
3.563528954982757568e-01
2.444533407688140869e-01
3.124704360961914062e-01
5.451570153236389160e-01
-5.959264039993286133e-01
1.400694102048873901e-01
1.850767582654953003e-01
1.124982833862304688e-01
7.785764336585998535e-01
-2.131378054618835449e-01
-3.264670968055725098e-01
-8.396689891815185547e-01
4.920959472656250000e-01
4.859556257724761963e-01
5.705224871635437012e-01
6.045380830764770508e-01
5.160282254219055176e-01
5.629661679267883301e-01
5.320812463760375977e-01
-1.033085227012634277e+00
9.390444159507751465e-01
-1.643681645393371582e+00
5.488874912261962891e-01
5.689257383346557617e-01
-4.277244806289672852e-01
-4.005849957466125488e-01
-5.008630156517028809e-01
-5.030705928802490234e-01
-5.754981040954589844e-01
-2.615517973899841309e-01
-5.338326692581176758e-01
-7.405375838279724121e-01
8.969286680221557617e-01
3.880558013916015625e-01
1.414410471916198730e-01
-7.467069625854492188e-01
-6.983696222305297852e-01
