-6.124331355094909668e-01
2.181268036365509033e-01
1.377156376838684082e+00
1.297374010086059570e+00
1.210729241371154785e+00
3.651678562164306641e-02
1.267186522483825684e+00
8.102786540985107422e-01
-9.168107807636260986e-02
1.055769348144531250e+01
4.907670974731445312e+00
4.065387725830078125e+00
1.444520115852355957e+00
1.018021225929260254e+00
-1.436207413673400879e+00
1.756603270769119263e-01
1.654585361480712891e+00
2.516670227050781250e+00
3.223064661026000977e+00
-2.131326347589492798e-01
8.994793295860290527e-01
-9.669026136398315430e-01
3.929913759231567383e+00
4.458405971527099609e+00
3.818011045455932617e+00
3.027638673782348633e+00
2.450908422470092773e+00
1.094887495040893555e+00
-4.099777042865753174e-01
8.309348821640014648e-01
1.220113873481750488e+00
3.026662170886993408e-01
2.216457843780517578e+00
-1.203894019126892090e+00
-5.857775211334228516e-01
9.430831670761108398e-01
-8.556119799613952637e-01
2.983268499374389648e+00
2.324551343917846680e+00
-1.811728179454803467e-01
2.876716852188110352e-01
1.578476309776306152e+00
1.166261315345764160e+00
-1.502896189689636230e+00
-4.385038912296295166e-01
-7.765295505523681641e-01
2.608477115631103516e+00
1.011276245117187500e+00
2.062385797500610352e+00
1.056660890579223633e+00
6.950166225433349609e-01
1.820822507143020630e-01
-1.014116220176219940e-02
-1.200348436832427979e-01
1.188414335250854492e+00
2.270718663930892944e-01
-9.692838191986083984e-01
-2.118571996688842773e-01
1.009782218933105469e+01
1.016978168487548828e+01
1.017310237884521484e+01
1.060785865783691406e+01
1.017574501037597656e+01
6.969332218170166016e+00
7.491049766540527344e+00
4.159503936767578125e+00
4.772905349731445312e+00
9.469725191593170166e-02
4.607524871826171875e-01
2.725886344909667969e+00
2.337767362594604492e+00
6.136444568634033203e+00
6.139239311218261719e+00
4.058327198028564453e+00
5.240365505218505859e+00
3.825223207473754883e+00
2.340091228485107422e+00
2.986077308654785156e+00
2.637829780578613281e+00
3.709943056106567383e+00
7.593112468719482422e+00
7.123118877410888672e+00
1.583600878715515137e+00
1.811971187591552734e+00
6.419563293457031250e+00
5.909858703613281250e+00
1.175891328603029251e-02
8.387812227010726929e-02
8.543452024459838867e-01
4.883347079157829285e-02
8.513679504394531250e+00
5.899115085601806641e+00
1.971923351287841797e+00
1.184762120246887207e+00
7.835354208946228027e-01
2.797187089920043945e+00
2.340169191360473633e+00
2.556533575057983398e+00
4.971847057342529297e+00
2.953039407730102539e+00
5.159053325653076172e+00
6.920217037200927734e+00
8.380173683166503906e+00
8.565509796142578125e+00
5.072189807891845703e+00
5.542106151580810547e+00
9.438302993774414062e+00
7.487270355224609375e+00
6.282034873962402344e+00
9.454850196838378906e+00
9.122260093688964844e+00
2.019779682159423828e+00
2.955055713653564453e+00
7.528300881385803223e-01
2.542782723903656006e-01
3.796880722045898438e+00
1.139617562294006348e+00
8.277315139770507812e+00
4.663621425628662109e+00
4.280522346496582031e+00
4.687317848205566406e+00
8.210030198097229004e-01
9.504225254058837891e-01
-5.799550414085388184e-01
2.215057373046875000e+00
4.070997238159179688e+00
3.993227958679199219e+00
1.692757844924926758e+00
4.133298993110656738e-02
8.638869285583496094e+00
3.891683340072631836e+00
5.751283168792724609e+00
1.273964762687683105e+00
7.716289758682250977e-01
9.575507789850234985e-02
1.977659612894058228e-01
6.900983333587646484e+00
5.497106075286865234e+00
4.126009464263916016e+00
9.156550765037536621e-01
2.004919052124023438e-01
1.335048317909240723e+00
7.567888498306274414e-01
3.222508132457733154e-01
3.974411785602569580e-01
1.455609053373336792e-01
7.562026977539062500e+00
3.472468614578247070e+00
1.113507986068725586e+00
2.144952297210693359e+00
9.719188213348388672e-01
-2.862579226493835449e-01
8.300022482872009277e-01
7.350869178771972656e+00
-3.432138562202453613e-01
6.008865237236022949e-01
-1.534285664558410645e+00
-5.016256570816040039e-01
6.993947505950927734e+00
7.242980003356933594e+00
-1.064648032188415527e+00
1.574118375778198242e+00
3.870484113693237305e+00
4.508492052555084229e-01
9.006673693656921387e-01
5.371022224426269531e-01
8.422003746032714844e+00
7.062140464782714844e+00
2.830762386322021484e+00
1.461411237716674805e+00
9.324676990509033203e-01
1.392242014408111572e-01
4.504447460174560547e+00
4.600386142730712891e+00
6.370720863342285156e+00
7.192409992218017578e+00
2.028771638870239258e+00
-2.088769376277923584e-01
2.656394243240356445e+00
1.777541279792785645e+00
1.679093837738037109e+00
1.413829445838928223e+00
1.579824447631835938e+00
1.463629961013793945e+00
2.005800008773803711e+00
1.032642555236816406e+01
2.487388610839843750e+00
3.278074264526367188e+00
-3.581155538558959961e-01
1.456730365753173828e+00
-1.125562548637390137e+00
-2.847242653369903564e-01
1.124336481094360352e+00
8.429677486419677734e-01
1.031359791755676270e+00
3.894520401954650879e-01
2.710630178451538086e+00
3.054887533187866211e+00
2.840710163116455078e+00
9.348988533020019531e-01
-1.018903404474258423e-01
8.552184104919433594e-01
2.018193453550338745e-01
-4.531490504741668701e-01
3.069807291030883789e+00
-4.969069659709930420e-01
-6.170578002929687500e-01
-7.334403991699218750e-01
1.345371007919311523e+00
-4.736043214797973633e-01
1.503142565488815308e-01
2.406178236007690430e+00
1.064086318016052246e+00
-3.313358500599861145e-02
2.912704348564147949e-01
-6.497533917427062988e-01
-8.942224979400634766e-01
8.823004961013793945e-01
2.207265049219131470e-01
-8.531117439270019531e-02
-9.383770227432250977e-01
-9.118623286485671997e-02
9.299896657466888428e-02
1.022729206085205078e+01
1.019236660003662109e+01
3.642466545104980469e+00
-6.397767066955566406e-01
-9.387697577476501465e-01
1.926979064941406250e+00
-9.696176052093505859e-01
7.452509999275207520e-01
3.811611980199813843e-02
4.354580879211425781e+00
-9.153499454259872437e-02
5.929450988769531250e-01
1.790014982223510742e+00
4.853104650974273682e-01
2.034650892019271851e-01
3.132990896701812744e-01
5.101979151368141174e-02
2.036802530288696289e+00
1.540283679962158203e+00
4.254182875156402588e-01
1.608317971229553223e+00
1.866020798683166504e+00
1.193112134933471680e+00
1.612173914909362793e+00
1.302351593971252441e+00
8.288274407386779785e-01
5.915502309799194336e-01
-5.630211234092712402e-01
8.151320815086364746e-01
4.909204840660095215e-01
2.546509206295013428e-01
5.550883412361145020e-01
9.836580157279968262e-01
8.587874770164489746e-01
7.477616071701049805e-01
-2.235017567873001099e-01
1.369037032127380371e+00
1.652123451232910156e+00
2.305586785078048706e-01
9.126972556114196777e-01
7.692194581031799316e-01
2.256015092134475708e-01
7.960599660873413086e-01
-9.883651137351989746e-01
8.577927589416503906e+00
9.017607688903808594e+00
3.996040344238281250e+00
4.041918277740478516e+00
1.069978237152099609e+00
2.388056278228759766e+00
2.246369361877441406e+00
-6.505377888679504395e-01
8.134548187255859375e+00
8.823860168457031250e+00
4.992499828338623047e+00
4.103003501892089844e+00
1.116041660308837891e+00
1.510349512100219727e-01
2.203846693038940430e+00
1.435161352157592773e+00
8.455319404602050781e+00
8.848677277565002441e-01
8.045520782470703125e-01
4.861240461468696594e-02
1.635574996471405029e-01
4.930755615234375000e+00
-4.391951858997344971e-01
-7.991332411766052246e-01
5.891052484512329102e-01
-9.947030544281005859e-01
2.691949129104614258e+00
2.048651695251464844e+00
1.328598022460937500e+00
3.166096806526184082e-01
5.574300765991210938e+00
3.089886426925659180e+00
-8.877435922622680664e-01
1.919910430908203125e+00
-3.910398185253143311e-01
1.193575501441955566e+00
-5.682701468467712402e-01
-1.728426218032836914e+00
1.350095748901367188e+00
2.474982261657714844e+00
-8.223281502723693848e-01
-8.522838950157165527e-01
8.365963697433471680e-01
2.146592617034912109e+00
4.338270664215087891e+00
3.161432743072509766e+00
1.764537572860717773e+00
2.969598531723022461e+00
1.664747238159179688e+00
-2.665138542652130127e-01
3.281554698944091797e+00
-2.140086144208908081e-01
-9.628703445196151733e-02
3.346017003059387207e-01
1.246996045112609863e+00
1.019201993942260742e+00
9.493966698646545410e-01
2.078096866607666016e+00
2.463696479797363281e+00
-4.169049859046936035e-01
2.454064786434173584e-01
-7.899231910705566406e-01
8.315471410751342773e-01
-4.608405753970146179e-02
-3.400761187076568604e-01
5.040134787559509277e-01
2.945875525474548340e-01
2.310859918594360352e+00
-2.544107437133789062e-01
1.269216775894165039e+00
1.928160190582275391e+00
1.842441082000732422e+00
-3.816918432712554932e-01
8.185060501098632812e+00
2.674084663391113281e+00
2.456168651580810547e+00
7.751081943511962891e+00
5.671492099761962891e+00
3.883545160293579102e+00
4.210198402404785156e+00
-1.119345277547836304e-01
2.929197311401367188e+00
3.813769340515136719e+00
-8.700099587440490723e-01
8.859981894493103027e-01
1.659746289253234863e+00
8.233804702758789062e-01
3.695703506469726562e+00
3.020579576492309570e+00
2.767708539962768555e+00
-8.705509305000305176e-01
2.623369455337524414e+00
2.418573379516601562e+00
-1.221531510353088379e+00
-5.669824481010437012e-01
8.800926804542541504e-01
9.934795379638671875e+00
-4.337563365697860718e-02
-1.936609983444213867e+00
1.800000071525573730e-01
1.088177680969238281e+00
9.733828544616699219e+00
9.690651893615722656e+00
9.398962020874023438e+00
3.932550430297851562e+00
4.128904342651367188e+00
2.871850252151489258e+00
-1.553936839103698730e+00
1.507410764694213867e+00
7.349109649658203125e-01
3.192569732666015625e+00
-6.115160584449768066e-01
-1.197668075561523438e+00
2.759029626846313477e+00
2.663108110427856445e+00
5.814171433448791504e-01
2.275141030550003052e-01
1.806109428405761719e+00
1.514640688896179199e+00
8.468601703643798828e-01
2.399424791336059570e+00
7.252784252166748047e+00
3.609573841094970703e-02
2.685938179492950439e-01
6.880553245544433594e+00
1.080731391906738281e+00
2.965869903564453125e+00
5.981709361076354980e-01
2.224005162715911865e-01
9.374763965606689453e-01
3.431718647480010986e-01
1.497327446937561035e+00
-2.725825011730194092e-01
2.110795825719833374e-01
-1.419954538345336914e+00
2.132588475942611694e-01
6.238282471895217896e-02
1.866285204887390137e+00
1.535451173782348633e+00
7.085576187819242477e-03
-8.535888791084289551e-01
1.054917454719543457e+00
5.563147664070129395e-01
8.014356493949890137e-01
5.969222187995910645e-01
7.143446803092956543e-01
7.018012404441833496e-01
1.038380384445190430e+00
-1.667878150939941406e+00
-8.519563674926757812e-01
1.014444351196289062e+00
1.271063566207885742e+00
-6.388129591941833496e-01
-2.677378654479980469e-01
-6.385529041290283203e-02
7.872003555297851562e+00
8.373769760131835938e+00
4.536832332611083984e+00
1.306404709815979004e+00
3.085852146148681641e+00
9.921520352363586426e-01
8.282843232154846191e-01
3.070093154907226562e+00
2.498027801513671875e+00
3.278385162353515625e+00
2.198216676712036133e+00
7.488150119781494141e+00
3.621900558471679688e+00
6.691306114196777344e+00
5.042400360107421875e+00
1.394137501716613770e+00
1.040251731872558594e+00
-2.954162359237670898e-01
-1.040582299232482910e+00
-1.100014686584472656e+00
7.072623074054718018e-02
9.820909239351749420e-03
1.183327794075012207e+00
5.020748615264892578e+00
-4.046908915042877197e-01
-1.480600833892822266e-01
6.981594115495681763e-02
1.287826895713806152e-01
3.623764991760253906e+00
4.551632881164550781e+00
3.586812734603881836e+00
3.786383569240570068e-01
5.110462307929992676e-01
3.968773841857910156e+00
-8.881247788667678833e-02
8.326860666275024414e-01
1.276403665542602539e+00
1.892144799232482910e+00
9.354526519775390625e+00
3.389712333679199219e+00
4.458031654357910156e+00
5.307983160018920898e-01
-4.044825732707977295e-01
1.507531046867370605e+00
2.369977533817291260e-01
1.098632335662841797e+00
8.208640217781066895e-01
-3.354623019695281982e-01
-4.380892217159271240e-01
3.757367134094238281e+00
-6.886494755744934082e-01
3.466015160083770752e-01
6.545924544334411621e-01
2.205918312072753906e+00
2.363326549530029297e+00
4.008064270019531250e+00
1.235080718994140625e+00
3.128527641296386719e+00
7.013891637325286865e-02
-1.137442350387573242e+00
2.203559398651123047e+00
3.861223936080932617e+00
2.492759943008422852e+00
2.651739835739135742e+00
1.514199256896972656e+00
-1.406137585639953613e+00
7.703152298927307129e-01
1.194840192794799805e+00
-8.617951273918151855e-01
4.625258445739746094e-01
-2.062241286039352417e-01
1.958347082138061523e+00
-2.986223995685577393e-01
-5.559648871421813965e-01
-1.056279420852661133e+00
1.491196453571319580e-01
8.291099548339843750e+00
8.699967384338378906e+00
6.883733749389648438e+00
1.186074495315551758e+00
1.957297921180725098e+00
-6.047994494438171387e-01
-4.736726582050323486e-01
-1.658096313476562500e+00
1.620143294334411621e+00
1.534245371818542480e+00
5.509914398193359375e+00
7.325124263763427734e+00
6.949306964874267578e+00
6.905387341976165771e-02
2.226595878601074219e+00
5.646582245826721191e-01
-9.274112582206726074e-01
4.970046997070312500e+00
3.771264791488647461e+00
-1.029105663299560547e+00
1.852643132209777832e+00
8.848008513450622559e-02
-7.565273642539978027e-01
9.640041589736938477e-01
-1.652241945266723633e-01
2.331888437271118164e+00
1.404435157775878906e+00
6.899420022964477539e-01
4.404522895812988281e+00
4.059041023254394531e+00
-2.392057895660400391e+00
1.570745587348937988e+00
4.221050739288330078e+00
2.865167856216430664e+00
4.567809104919433594e+00
8.657638430595397949e-01
2.517297565937042236e-01
-6.996398568153381348e-01
-2.122651487588882446e-01
5.381609439849853516e+00
4.206520557403564453e+00
4.765038490295410156e+00
5.659011363983154297e+00
4.714326858520507812e+00
4.966790676116943359e+00
4.464631557464599609e+00
1.431703567504882812e-01
-1.265436172485351562e+00
-2.132212072610855103e-01
-1.046815395355224609e+00
-9.362605810165405273e-01
1.565239429473876953e+00
3.627140045166015625e+00
4.770427703857421875e+00
3.934339284896850586e+00
5.203805923461914062e+00
3.159132719039916992e+00
4.086955070495605469e+00
-7.715724110603332520e-01
6.408954262733459473e-01
-9.749841094017028809e-01
-4.371016100049018860e-02
-1.412022709846496582e+00
2.221453428268432617e+00
