6.543513536453247070e-01
-1.413901329040527344e+00
-7.640269994735717773e-01
6.085984706878662109e-01
3.176002800464630127e-01
-7.997060418128967285e-01
8.485487699508666992e-01
9.610990881919860840e-01
6.867839395999908447e-02
8.765765190124511719e+00
4.871887207031250000e+00
5.039579391479492188e+00
3.041384935379028320e+00
-1.123433828353881836e+00
4.542745649814605713e-01
1.237778216600418091e-01
2.300781965255737305e+00
1.785446047782897949e+00
3.490453958511352539e+00
2.295856326818466187e-01
-2.252888530492782593e-01
-1.039213180541992188e+00
5.428611755371093750e+00
4.004950523376464844e+00
4.050216197967529297e+00
2.590983629226684570e+00
4.220061302185058594e+00
7.603818774223327637e-01
1.374665856361389160e+00
1.736166596412658691e+00
3.355401992797851562e+00
-1.112214565277099609e+00
3.800473213195800781e-01
3.878097534179687500e-01
2.089282751083374023e+00
3.803349435329437256e-01
1.811693310737609863e+00
1.903952598571777344e+00
4.216278076171875000e+00
1.372570991516113281e+00
1.081892609596252441e+00
2.694518804550170898e+00
3.232426404953002930e+00
-2.011835098266601562e+00
-4.156142175197601318e-01
-9.150641560554504395e-01
1.340396046638488770e+00
1.611862778663635254e+00
6.466211080551147461e-01
9.860463142395019531e-01
3.425141572952270508e-01
1.065279006958007812e+00
-2.649574279785156250e-01
-8.641476631164550781e-01
-1.271932721138000488e+00
-7.231367826461791992e-01
-8.641308546066284180e-01
8.896694779396057129e-01
9.278913497924804688e+00
9.302329063415527344e+00
9.287606239318847656e+00
9.322780609130859375e+00
9.317828178405761719e+00
6.575822830200195312e+00
5.331518173217773438e+00
5.459915637969970703e+00
4.729225635528564453e+00
2.330970048904418945e+00
-5.817551016807556152e-01
5.888813138008117676e-01
1.017592191696166992e+00
7.238321304321289062e+00
6.214852809906005859e+00
4.102400779724121094e+00
5.060157299041748047e+00
1.550946116447448730e+00
4.695509910583496094e+00
3.416580200195312500e+00
2.378703832626342773e+00
1.790667295455932617e+00
8.138266563415527344e+00
5.703061580657958984e+00
1.290371656417846680e+00
2.338973283767700195e+00
7.537152767181396484e+00
7.443685531616210938e+00
1.891660213470458984e+00
7.289417386054992676e-01
-2.657762467861175537e-01
2.790100336074829102e+00
8.008157730102539062e+00
6.732656002044677734e+00
3.389133691787719727e+00
2.700446844100952148e+00
1.239198803901672363e+00
-3.399390578269958496e-01
1.175075054168701172e+00
3.537870883941650391e+00
3.681878328323364258e+00
6.418125152587890625e+00
5.741410255432128906e+00
7.017614364624023438e+00
7.461259365081787109e+00
6.993532657623291016e+00
6.466207981109619141e+00
5.138677597045898438e+00
7.739313125610351562e+00
7.784175872802734375e+00
5.304961681365966797e+00
8.228435516357421875e+00
9.491071701049804688e+00
4.051075458526611328e+00
5.197381496429443359e+00
1.415757060050964355e+00
1.983458042144775391e+00
1.619987249374389648e+00
2.949016571044921875e+00
7.618439674377441406e+00
4.005016803741455078e+00
3.672363996505737305e+00
5.611124038696289062e+00
-1.408555150032043457e+00
9.908950924873352051e-01
9.567755460739135742e-01
1.163058876991271973e+00
4.032507419586181641e+00
3.251278638839721680e+00
3.741774559020996094e+00
6.389165520668029785e-01
7.475301265716552734e+00
4.355100154876708984e+00
5.237216949462890625e+00
1.218703150749206543e+00
6.330778598785400391e-01
1.758455038070678711e+00
9.998022317886352539e-01
6.119828701019287109e+00
5.353062152862548828e+00
3.797293424606323242e+00
1.302009463310241699e+00
1.421030759811401367e+00
-4.396083652973175049e-01
2.753129482269287109e+00
-1.794590353965759277e+00
1.601937174797058105e+00
1.197172999382019043e+00
7.900272846221923828e+00
2.239844560623168945e+00
1.840745449066162109e+00
-5.320674777030944824e-01
1.106981277465820312e+00
1.791184425354003906e+00
9.518276453018188477e-01
8.214447975158691406e+00
4.933448433876037598e-01
8.605155348777770996e-01
5.537797808647155762e-01
1.537497282028198242e+00
7.965384006500244141e+00
8.031300544738769531e+00
-1.707862377166748047e+00
5.974301695823669434e-01
2.713224411010742188e+00
4.240600109100341797e+00
-7.130428552627563477e-01
-7.014271616935729980e-01
7.611617088317871094e+00
7.602991104125976562e+00
2.700864553451538086e+00
2.439622879028320312e+00
9.241060614585876465e-01
7.115942835807800293e-01
3.309252977371215820e+00
3.352252006530761719e+00
6.507897377014160156e+00
6.593743801116943359e+00
4.409154057502746582e-01
-1.951568387448787689e-02
2.809424161911010742e+00
4.048361778259277344e+00
-2.511868774890899658e-01
1.029074668884277344e+00
2.802140951156616211e+00
1.214854598045349121e+00
1.565157413482666016e+00
8.635438919067382812e+00
3.044168055057525635e-01
2.505713701248168945e+00
-5.637558922171592712e-02
4.735094904899597168e-01
-3.663696944713592529e-01
1.057959318161010742e+00
1.123592376708984375e+00
9.509443640708923340e-01
8.975423574447631836e-01
3.519121170043945312e+00
1.401612639427185059e+00
1.123728275299072266e+00
1.964662432670593262e+00
2.864866554737091064e-01
1.419150233268737793e+00
9.614406824111938477e-01
6.197486519813537598e-01
1.306477546691894531e+00
1.772402405738830566e+00
-1.353756904602050781e+00
-2.473446130752563477e-01
1.201593637466430664e+00
3.004103660583496094e+00
1.492236256599426270e+00
-5.096474885940551758e-01
1.050282001495361328e+00
2.284516692161560059e-01
-1.214398384094238281e+00
-1.054751276969909668e+00
1.160679697990417480e+00
-2.344396561384201050e-01
5.175912976264953613e-01
4.805451929569244385e-01
6.739587783813476562e-01
-7.452684044837951660e-01
8.271716833114624023e-01
1.928967237472534180e-01
8.541096687316894531e+00
8.531656265258789062e+00
5.750737190246582031e+00
1.137923121452331543e+00
-2.979364711791276932e-03
8.351460695266723633e-01
7.766784429550170898e-01
-4.370313882827758789e-01
4.069269001483917236e-01
5.888822078704833984e+00
1.183822154998779297e+00
1.338058233261108398e+00
2.462889909744262695e+00
2.256448984146118164e+00
2.055655717849731445e+00
-8.771361708641052246e-01
4.536778032779693604e-01
1.159479975700378418e+00
9.535387754440307617e-01
1.383255243301391602e+00
1.420419454574584961e+00
2.261943340301513672e+00
1.104945421218872070e+00
3.209592342376708984e+00
1.409108757972717285e+00
1.878687143325805664e+00
3.143243551254272461e+00
-5.694133043289184570e-01
5.230110287666320801e-01
-7.236952781677246094e-01
5.548269748687744141e-01
6.922469735145568848e-01
6.775912642478942871e-01
-1.703000068664550781e+00
2.892519712448120117e+00
1.358462333679199219e+00
7.698668241500854492e-01
2.587669193744659424e-01
1.730306386947631836e+00
2.006428718566894531e+00
2.220475435256958008e+00
-7.179406881332397461e-01
-6.987267136573791504e-01
-2.249293178319931030e-01
8.050323486328125000e+00
7.502724647521972656e+00
3.853285312652587891e+00
2.917665243148803711e+00
1.451884627342224121e+00
1.065674543380737305e+00
-1.073379397392272949e+00
-2.566390037536621094e-01
8.118312835693359375e+00
8.399772644042968750e+00
4.728659152984619141e+00
5.530309677124023438e+00
1.165512084960937500e+00
7.774029970169067383e-01
9.756783246994018555e-01
2.666656494140625000e+00
8.570721626281738281e+00
1.211137413978576660e+00
9.156205654144287109e-01
-7.468212842941284180e-01
9.946088194847106934e-01
5.776181221008300781e+00
1.415161252021789551e+00
-1.455746412277221680e+00
-5.957819223403930664e-01
-7.289713621139526367e-01
3.276992559432983398e+00
3.894484996795654297e+00
1.930030345916748047e+00
2.722946166992187500e+00
5.177151679992675781e+00
2.133759975433349609e+00
2.170227766036987305e+00
-5.483312606811523438e-01
2.907286405563354492e+00
1.365452885627746582e+00
-8.573098480701446533e-02
1.544906049966812134e-01
2.359706878662109375e+00
2.868079185485839844e+00
6.159669160842895508e-01
1.008837938308715820e+00
3.294408917427062988e-01
2.134105205535888672e+00
2.361625909805297852e+00
-1.870065927505493164e-01
2.476924180984497070e+00
2.491007804870605469e+00
3.325505018234252930e+00
5.494688153266906738e-01
1.680397152900695801e+00
1.996536374092102051e+00
8.998050093650817871e-01
4.146751165390014648e-01
-1.895413398742675781e+00
9.270894527435302734e-01
1.278807520866394043e+00
3.593990087509155273e+00
2.888187646865844727e+00
1.013122677803039551e+00
2.189535140991210938e+00
1.170848589390516281e-02
-1.156691074371337891e+00
9.342181682586669922e-01
8.274925351142883301e-01
-5.025252699851989746e-01
-2.224505692720413208e-01
7.674105763435363770e-01
2.040522813796997070e+00
1.883810997009277344e+00
-1.845975592732429504e-02
-9.799484610557556152e-01
3.068366646766662598e-01
7.198834419250488281e+00
2.525985240936279297e-01
1.460880517959594727e+00
7.233439922332763672e+00
6.956006050109863281e+00
3.084692001342773438e+00
4.115132331848144531e+00
-1.680976599454879761e-01
4.614298820495605469e+00
3.406028985977172852e+00
1.450532436370849609e+00
2.639113187789916992e+00
3.206680774688720703e+00
8.078103661537170410e-01
3.925343513488769531e+00
1.523552298545837402e+00
1.260028362274169922e+00
8.101102113723754883e-01
7.332636713981628418e-01
3.844979524612426758e+00
-5.119582414627075195e-01
4.456885159015655518e-01
-1.140931606292724609e+00
8.296159744262695312e+00
-2.315940141677856445e+00
5.250923633575439453e-01
-2.642842233180999756e-01
-8.342534899711608887e-01
8.273572921752929688e+00
8.269548416137695312e+00
8.328311920166015625e+00
4.781507492065429688e+00
3.493945837020874023e+00
2.748230457305908203e+00
-8.056644201278686523e-01
5.245680809020996094e-01
-4.840193688869476318e-01
5.124469757080078125e+00
-4.618420600891113281e-01
-7.200983911752700806e-02
2.566296100616455078e+00
3.160265207290649414e+00
8.263579010963439941e-01
1.868618428707122803e-01
2.601602792739868164e+00
1.914842486381530762e+00
1.427162051200866699e+00
1.563652038574218750e+00
6.757454395294189453e+00
-7.860552668571472168e-01
-4.466415047645568848e-01
7.740826606750488281e+00
6.497435271739959717e-02
2.043815374374389648e+00
1.457524180412292480e+00
4.017811417579650879e-01
-7.266421318054199219e-01
5.754224061965942383e-01
2.188031226396560669e-01
1.252044796943664551e+00
1.458551168441772461e+00
1.833034515380859375e+00
-1.089950442314147949e+00
2.016822099685668945e+00
1.131624102592468262e+00
1.274309396743774414e+00
-2.071172147989273071e-01
-9.502539634704589844e-01
1.828798353672027588e-01
9.561036527156829834e-02
-6.181039810180664062e-01
-9.761997461318969727e-01
-2.013443708419799805e+00
-3.280851244926452637e-01
3.411201238632202148e-01
-4.787248000502586365e-02
3.537041246891021729e-01
-5.449603796005249023e-01
2.497964859008789062e+00
-1.393275976181030273e+00
1.075522184371948242e+00
-4.817069470882415771e-01
7.631653785705566406e+00
7.917507171630859375e+00
4.840379714965820312e+00
-7.699216157197952271e-02
4.958065986633300781e+00
1.970372349023818970e-01
2.416267395019531250e-01
3.595624446868896484e+00
1.800223827362060547e+00
2.955001831054687500e+00
2.154964447021484375e+00
6.985948085784912109e+00
2.733381509780883789e+00
5.836877822875976562e+00
5.990609645843505859e+00
2.101078748703002930e+00
-5.905042588710784912e-02
8.208283185958862305e-01
-1.037847995758056641e+00
1.726687073707580566e+00
-9.372423887252807617e-01
9.279851913452148438e-01
-1.035495519638061523e+00
5.889870166778564453e+00
-1.891277283430099487e-01
1.300533413887023926e+00
2.627341032028198242e+00
1.359243750572204590e+00
4.042273044586181641e+00
3.960973978042602539e+00
2.869863271713256836e+00
1.679801821708679199e+00
-3.887174129486083984e-01
1.686119198799133301e+00
2.086218595504760742e+00
2.643526554107666016e+00
2.238944619894027710e-01
1.759441971778869629e+00
9.259184837341308594e+00
3.524822950363159180e+00
5.080677509307861328e+00
1.575164079666137695e+00
1.314847230911254883e+00
-8.702352643013000488e-02
2.940858602523803711e+00
1.726896166801452637e+00
-1.376972496509552002e-01
2.972727775573730469e+00
1.118307232856750488e+00
3.479459047317504883e+00
-7.295457720756530762e-01
1.025250434875488281e+00
1.817588090896606445e+00
3.078909397125244141e+00
4.022202193737030029e-01
6.137456297874450684e-01
2.211982965469360352e+00
6.625224947929382324e-01
2.149433851242065430e+00
-3.921516835689544678e-01
1.115175962448120117e+00
5.430367946624755859e+00
4.018270015716552734e+00
2.769255161285400391e+00
2.271723508834838867e+00
1.757260084152221680e+00
1.628573417663574219e+00
1.265057563781738281e+00
-1.374738216400146484e+00
7.538812160491943359e-01
9.845821261405944824e-01
1.717378139495849609e+00
1.802223622798919678e-01
1.012668833136558533e-01
-3.641780614852905273e-01
6.493294239044189453e-01
8.740913391113281250e+00
7.911791324615478516e+00
8.603164672851562500e+00
1.162682056427001953e+00
-9.505994319915771484e-01
2.150378942489624023e+00
1.367988348007202148e+00
8.331629633903503418e-02
9.357277750968933105e-01
1.890528500080108643e-01
7.821774959564208984e+00
5.549046993255615234e+00
5.879604816436767578e+00
1.112836241722106934e+00
2.437177181243896484e+00
6.165519952774047852e-01
1.478402733802795410e+00
3.415091514587402344e+00
4.162590980529785156e+00
-1.189326867461204529e-02
1.611923098564147949e+00
7.104583382606506348e-01
5.200254917144775391e-01
1.505433201789855957e+00
-1.419319272041320801e+00
2.743969202041625977e+00
2.011301517486572266e+00
1.792791604995727539e+00
4.197765827178955078e+00
2.949237585067749023e+00
-8.388710021972656250e-01
-4.284086227416992188e-01
5.975415229797363281e+00
4.252869606018066406e+00
4.017312049865722656e+00
8.181906938552856445e-01
5.349391698837280273e-01
2.350002974271774292e-01
2.830603420734405518e-01
5.160126209259033203e+00
6.137895584106445312e+00
5.444561958312988281e+00
6.862603664398193359e+00
5.917361259460449219e+00
6.858235836029052734e+00
5.222434997558593750e+00
-9.909024238586425781e-01
-2.390581607818603516e+00
4.646279513835906982e-01
1.138317823410034180e+00
1.521887898445129395e+00
5.644017696380615234e+00
5.503445148468017578e+00
4.874238491058349609e+00
3.744437932968139648e+00
3.854813575744628906e+00
5.183591365814208984e+00
5.995112419128417969e+00
1.177002668380737305e+00
-4.440993368625640869e-01
-1.252086639404296875e+00
6.670556664466857910e-01
1.704938173294067383e+00
-1.483961939811706543e+00
