-2.959361553192138672e+00 -1.726048588752746582e+00 -8.724676966667175293e-01 8.892654776573181152e-01 -1.108134984970092773e+00 -9.215958714485168457e-01 -2.328364372253417969e+00 -3.403545379638671875e+00 -8.551475405693054199e-01 -1.275311112403869629e-01 -6.005080699920654297e+00 2.632619619369506836e+00 -2.218069314956665039e+00 -5.714151382446289062e+00 -2.968348979949951172e+00 -5.564979076385498047e+00 -3.428612709045410156e+00 -2.691394090652465820e+00 2.301670551300048828e+00 -1.350575208663940430e+00 -1.376139640808105469e+00 3.095485210418701172e+00 2.899406433105468750e+00 -3.880499362945556641e+00 -4.232831478118896484e+00 3.428481519222259521e-01 -1.276331782341003418e+00 1.672137677669525146e-01 1.376440048217773438e+00 -6.742662429809570312e+00 3.129468262195587158e-01 -5.550415039062500000e+00 -2.540199279785156250e+00 -4.745389461517333984e+00 1.334066867828369141e+00 -3.110980033874511719e+00 -6.916573047637939453e-01 -1.582652568817138672e+00 -3.380253791809082031e+00 -1.914433360099792480e+00 5.234827399253845215e-01 1.193939685821533203e+00 -5.148125648498535156e+00 -1.102249979972839355e+00 -4.366195678710937500e+00 1.760156989097595215e+00 -1.005557060241699219e+00 -3.261149406433105469e+00 1.519992470741271973e+00 -9.014611244201660156e-01 -3.697851598262786865e-01 -3.874041318893432617e+00 -1.653493523597717285e+00 -2.546548366546630859e+00 -6.008494496345520020e-01 -4.453982114791870117e-01 -4.783843040466308594e+00 -3.972908496856689453e+00 6.377241015434265137e-01 -2.684372901916503906e+00 4.186508655548095703e-01 -2.587476730346679688e+00 -1.670836238190531731e-03 -1.913183569908142090e+00 -3.611325263977050781e+00 -2.292331457138061523e+00 -2.062790155410766602e+00 -7.795042395591735840e-01 -2.859460115432739258e+00 1.211830854415893555e+00 -9.653651714324951172e-01 -1.930137395858764648e+00 -4.786858081817626953e+00 -3.883625030517578125e+00 -2.258363723754882812e+00 -3.277259469032287598e-01 -2.625495910644531250e+00 -1.606372743844985962e-02 -4.868344306945800781e+00 -1.970235228538513184e+00 -2.790091037750244141e+00 -2.737636566162109375e+00 -9.208635687828063965e-01 -3.963654041290283203e+00
