3.303368687629699707e-01
1.152568101882934570e+00
-9.265089035034179688e-01
4.916502833366394043e-01
7.803876996040344238e-01
-6.655309200286865234e-01
9.850886464118957520e-01
-4.332035481929779053e-01
-1.477553248405456543e+00
8.142253160476684570e-01
5.704988837242126465e-01
5.567262768745422363e-01
-2.367719858884811401e-01
9.829115271568298340e-01
6.887055933475494385e-02
5.665444135665893555e-01
-3.051887266337871552e-02
-3.653148710727691650e-01
-1.376485377550125122e-01
-1.287438422441482544e-01
4.002035260200500488e-01
1.547768115997314453e-01
8.057757019996643066e-01
7.058655023574829102e-01
6.615388393402099609e-01
9.033687710762023926e-01
1.099425792694091797e+00
-2.292409390211105347e-01
-1.448358058929443359e+00
6.963550448417663574e-01
8.377811312675476074e-01
-1.360920429229736328e+00
-1.219374656677246094e+00
8.494333028793334961e-01
9.321323633193969727e-01
-2.985613346099853516e-01
5.167328119277954102e-01
5.156536102294921875e-01
6.733300685882568359e-01
-1.389756560325622559e+00
1.307024955749511719e+00
1.128107547760009766e+00
6.168603897094726562e-01
-3.580218255519866943e-01
-1.144962534308433533e-01
-4.732502698898315430e-01
1.667091012001037598e+00
3.300366103649139404e-01
2.209814071655273438e+00
5.698010921478271484e-01
5.806868672370910645e-01
2.355684340000152588e-01
6.902830004692077637e-01
1.446080505847930908e-01
7.060305476188659668e-01
1.820460408926010132e-01
-1.691873967647552490e-01
-3.555702865123748779e-01
8.461570143699645996e-01
8.483874797821044922e-01
9.259652495384216309e-01
7.998158931732177734e-01
8.091499805450439453e-01
8.978357315063476562e-01
9.909875988960266113e-01
6.644084453582763672e-01
6.192341446876525879e-01
2.348487973213195801e-01
-4.924748539924621582e-01
5.671096444129943848e-01
5.601743459701538086e-01
7.976078391075134277e-01
9.085026383399963379e-01
8.322759866714477539e-01
9.884872436523437500e-01
8.149459362030029297e-01
7.509902715682983398e-01
7.363154888153076172e-01
6.223496794700622559e-01
6.618176698684692383e-01
5.257714390754699707e-01
6.837337613105773926e-01
1.021493077278137207e+00
8.060373663902282715e-01
9.046015739440917969e-01
6.922735571861267090e-01
5.396880507469177246e-01
3.366949856281280518e-01
-2.923206984996795654e-01
-6.789468526840209961e-01
7.743300795555114746e-01
7.917733788490295410e-01
5.134789347648620605e-01
6.762144565582275391e-01
3.247697139158844948e-03
5.721056461334228516e-02
7.517526745796203613e-01
7.087209820747375488e-01
1.202387690544128418e+00
1.080757260322570801e+00
1.063249230384826660e+00
1.230484962463378906e+00
7.859839797019958496e-01
8.574120998382568359e-01
7.536827921867370605e-01
7.718616127967834473e-01
1.089124679565429688e+00
9.671261310577392578e-01
1.220100402832031250e+00
9.088830351829528809e-01
7.974047660827636719e-01
4.854348003864288330e-01
6.110022664070129395e-01
6.648727059364318848e-01
-1.592875123023986816e-01
5.836788415908813477e-01
4.264421164989471436e-01
9.197245240211486816e-01
8.260807394981384277e-01
8.240870833396911621e-01
8.197944164276123047e-01
3.391656875610351562e-01
-3.157222270965576172e-01
5.316971540451049805e-01
1.057941317558288574e+00
8.834846019744873047e-01
6.771313548088073730e-01
8.918082118034362793e-01
-1.317241191864013672e+00
8.712992668151855469e-01
9.587747454643249512e-01
8.477924466133117676e-01
-4.446574449539184570e-01
1.094419360160827637e+00
-3.408774435520172119e-01
2.649608850479125977e-01
9.436837434768676758e-01
1.009692668914794922e+00
5.704350471496582031e-01
6.852566003799438477e-01
3.459956124424934387e-02
-3.059131801128387451e-01
-8.621868491172790527e-01
1.813422292470932007e-01
-1.290525346994400024e-01
4.531717300415039062e-01
7.277975678443908691e-01
1.006622910499572754e+00
5.083962082862854004e-01
7.741194218397140503e-02
6.575136184692382812e-01
6.445083618164062500e-01
2.583342492580413818e-01
6.447254419326782227e-01
-3.334101736545562744e-01
-1.290929764509201050e-01
7.606112360954284668e-01
1.118705868721008301e-01
4.755439162254333496e-01
6.120927929878234863e-01
3.769356608390808105e-01
3.195518851280212402e-01
5.828033089637756348e-01
4.154518544673919678e-01
-1.235895395278930664e+00
1.189046382904052734e+00
8.943866491317749023e-01
9.990961551666259766e-01
8.166658878326416016e-01
6.749749779701232910e-01
-1.745123714208602905e-01
1.275767534971237183e-01
9.681314229965209961e-01
8.936055302619934082e-01
1.086155652999877930e+00
1.052144289016723633e+00
4.284885823726654053e-01
-7.110250592231750488e-01
9.673705697059631348e-01
8.106504678726196289e-01
4.695490896701812744e-01
2.841266691684722900e-01
4.211010336875915527e-01
9.556886553764343262e-01
1.032720446586608887e+00
7.675056457519531250e-01
4.106183946132659912e-01
3.376530408859252930e-01
5.126988887786865234e-01
1.682178527116775513e-01
5.587169528007507324e-01
-7.481342554092407227e-02
2.675684392452239990e-01
-1.793053507804870605e+00
-7.852258682250976562e-01
3.114302754402160645e-01
2.386311143636703491e-01
-7.364131510257720947e-02
4.613815248012542725e-01
-3.456214964389801025e-01
-5.562322735786437988e-01
1.005530133843421936e-01
-4.286257028579711914e-01
-1.471606016159057617e+00
9.088870882987976074e-01
-5.874741077423095703e-02
-4.867078661918640137e-01
-2.474798262119293213e-01
6.106703281402587891e-01
1.494725495576858521e-01
1.130843907594680786e-01
3.091753832995891571e-02
-6.740404367446899414e-01
-4.423084557056427002e-01
-2.076194621622562408e-02
4.153120517730712891e-02
2.134321630001068115e-01
2.896896004676818848e-01
-1.002522334456443787e-01
8.382874131202697754e-01
3.639236688613891602e-01
-1.076891660690307617e+00
2.983252704143524170e-01
8.661320805549621582e-01
8.417764902114868164e-01
8.200418949127197266e-01
-8.374033123254776001e-02
-8.526647686958312988e-01
-9.084984660148620605e-01
-7.366361469030380249e-02
4.490961134433746338e-01
-1.137362957000732422e+00
8.515915274620056152e-01
-8.022374510765075684e-01
1.406835079193115234e+00
6.310925483703613281e-01
3.644132018089294434e-01
4.629724919795989990e-01
8.042842745780944824e-01
7.340039014816284180e-01
1.207609891891479492e+00
5.533673167228698730e-01
-1.399760544300079346e-01
-5.188743472099304199e-01
6.862562894821166992e-01
4.307729303836822510e-01
3.800755441188812256e-01
1.449754685163497925e-01
1.261392474174499512e+00
3.017454445362091064e-01
6.938216090202331543e-01
1.781109869480133057e-01
1.324929893016815186e-01
-1.153067871928215027e-01
4.150150120258331299e-01
5.641130805015563965e-01
-1.504284977912902832e+00
3.987024724483489990e-01
1.438442587852478027e+00
6.869522333145141602e-01
2.167060971260070801e-01
5.124292969703674316e-01
3.112785816192626953e-01
1.419802546501159668e+00
1.497336983680725098e+00
-5.518359541893005371e-01
1.887277811765670776e-01
1.013187885284423828e+00
9.758955836296081543e-01
1.084526062011718750e+00
1.274061322212219238e+00
4.914128482341766357e-01
3.503774404525756836e-01
-3.690390586853027344e-01
6.147353053092956543e-01
8.304286599159240723e-01
8.387101888656616211e-01
9.936370849609375000e-01
9.088849425315856934e-01
-6.620147824287414551e-01
-5.897671580314636230e-01
-2.360884472727775574e-02
1.501051932573318481e-01
6.372777819633483887e-01
-9.080304205417633057e-02
8.677745610475540161e-02
-7.115011215209960938e-01
-6.423784494400024414e-01
5.504038333892822266e-01
-9.622023701667785645e-01
-1.550479531288146973e-01
-6.916102766990661621e-02
2.132361233234405518e-01
1.164974942803382874e-01
-7.671030610799789429e-02
5.071305036544799805e-01
8.077100515365600586e-01
7.297649383544921875e-01
7.865168452262878418e-01
-1.282818436622619629e+00
9.170683026313781738e-01
-7.050784230232238770e-01
6.164073348045349121e-01
5.611017942428588867e-01
5.489990115165710449e-01
8.256449699401855469e-01
8.885685205459594727e-01
-3.207762539386749268e-02
-1.584854722023010254e-01
8.206795454025268555e-01
6.108577251434326172e-01
8.850532770156860352e-01
-2.268709428608417511e-02
6.959919929504394531e-01
8.524684906005859375e-01
8.577741980552673340e-01
2.045031487941741943e-01
5.460107326507568359e-01
6.101593971252441406e-01
8.330909609794616699e-01
-1.697006821632385254e-01
1.198844462633132935e-01
3.521828949451446533e-01
-6.532164812088012695e-01
-2.118999958038330078e-01
2.938850522041320801e-01
1.812013506889343262e+00
5.376937389373779297e-01
1.991532564163208008e+00
9.856064617633819580e-02
1.263813823461532593e-01
-7.692391276359558105e-01
-9.413713812828063965e-01
3.783739507198333740e-01
9.340614676475524902e-01
6.430543661117553711e-01
1.159403398633003235e-01
2.456777989864349365e-01
1.055661559104919434e+00
4.617866277694702148e-01
5.532293915748596191e-01
5.014717578887939453e-01
5.362043380737304688e-01
4.940646290779113770e-01
4.856326580047607422e-01
2.765500545501708984e-01
2.785090506076812744e-01
3.577490150928497314e-01
1.263532757759094238e+00
1.087966680526733398e+00
4.787462353706359863e-01
5.172886848449707031e-01
6.397821307182312012e-01
1.245569109916687012e+00
1.335031032562255859e+00
-8.984953165054321289e-01
-8.679490089416503906e-01
-1.057537365704774857e-02
-1.135728359222412109e+00
-8.194190263748168945e-01
-8.932480216026306152e-01
-1.015806436538696289e+00
7.992812991142272949e-01
9.109355807304382324e-01
3.434028327465057373e-01
3.406774103641510010e-01
-6.399891376495361328e-01
7.305250167846679688e-01
9.850574731826782227e-01
8.622336387634277344e-01
9.219333529472351074e-01
9.120569825172424316e-01
1.020413041114807129e+00
3.656400442123413086e-01
-8.905682563781738281e-01
-5.136959552764892578e-01
1.448884308338165283e-01
1.044301390647888184e+00
-1.519130617380142212e-01
-1.360955834388732910e-01
9.916906952857971191e-01
7.871542572975158691e-01
4.920740723609924316e-01
-8.555722981691360474e-02
4.286762773990631104e-01
2.950914204120635986e-01
8.863866925239562988e-01
5.538366436958312988e-01
9.640052914619445801e-01
6.511536836624145508e-01
1.073830842971801758e+00
9.129281044006347656e-01
6.701132655143737793e-01
8.474572300910949707e-01
7.064784765243530273e-01
-7.211403846740722656e-01
-3.883772790431976318e-01
-1.443637847900390625e+00
-7.175897806882858276e-02
6.196961998939514160e-01
6.580406427383422852e-01
-9.647829532623291016e-01
5.382562279701232910e-01
1.487583518028259277e-01
-2.055047005414962769e-01
2.514359235763549805e+00
-1.113420009613037109e+00
-9.274994730949401855e-01
-3.569685667753219604e-02
5.600771903991699219e-01
-6.843346357345581055e-01
8.173398375511169434e-01
-1.930895149707794189e-01
8.155403137207031250e-01
-1.056058049201965332e+00
7.584766149520874023e-01
5.435178875923156738e-01
4.669581949710845947e-01
1.685570627450942993e-01
2.590606510639190674e-01
8.985759317874908447e-02
1.767555713653564453e+00
4.069079458713531494e-01
4.913303554058074951e-01
5.228740572929382324e-01
-3.244384527206420898e-01
3.616990745067596436e-01
-1.868900358676910400e-01
9.198668599128723145e-02
4.825457334518432617e-01
5.326290726661682129e-01
5.890756249427795410e-01
8.868898749351501465e-01
2.651538848876953125e-01
8.164536356925964355e-01
8.376637101173400879e-01
7.658689618110656738e-01
4.114025831222534180e-02
8.124141097068786621e-01
1.631358563899993896e-01
9.025248140096664429e-02
-8.465080261230468750e-01
1.941230893135070801e+00
5.791064500808715820e-01
-9.195229411125183105e-02
-1.120917499065399170e-01
5.014692544937133789e-01
1.690107397735118866e-02
-6.836960315704345703e-01
-3.010606765747070312e-01
7.961796224117279053e-02
-1.066868826746940613e-01
-1.667799204587936401e-01
3.806047141551971436e-01
-8.056399226188659668e-01
1.055566668510437012e+00
1.553434133529663086e-01
4.930791854858398438e-01
9.051345586776733398e-01
3.965035080909729004e-01
5.144167542457580566e-01
5.182123184204101562e-01
7.095131278038024902e-01
1.177360936999320984e-01
7.236862182617187500e-01
-4.067688584327697754e-01
-5.081673152744770050e-03
9.124956130981445312e-01
1.984201371669769287e-01
1.227273717522621155e-01
-1.634538359940052032e-02
2.795494198799133301e-01
5.015932768583297729e-02
1.658574938774108887e-01
3.799203634262084961e-01
2.985203564167022705e-01
3.650972545146942139e-01
3.741746246814727783e-01
-7.607538998126983643e-02
9.578056931495666504e-01
7.824254035949707031e-01
-2.591338753700256348e-01
7.071649432182312012e-01
5.736103653907775879e-01
7.516757249832153320e-01
8.018799424171447754e-01
7.263917326927185059e-01
4.015376865863800049e-01
6.049336791038513184e-01
1.164435505867004395e+00
5.957075953483581543e-01
1.225278615951538086e+00
9.723041653633117676e-01
3.955248296260833740e-01
-3.422665223479270935e-02
-1.141562938690185547e+00
2.584077715873718262e-01
1.071279525756835938e+00
4.931762814521789551e-01
6.532865166664123535e-01
6.693475842475891113e-01
4.144246280193328857e-01
4.793877899646759033e-01
5.434167385101318359e-01
-6.540406346321105957e-01
-4.601578116416931152e-01
4.010204672813415527e-01
2.063083350658416748e-01
4.751232862472534180e-01
6.074075698852539062e-01
4.927685260772705078e-01
-1.303599774837493896e-01
7.454233169555664062e-01
-3.937270119786262512e-02
1.977941542863845825e-01
8.399893641471862793e-01
9.657080769538879395e-01
-1.551184177398681641e+00
2.670269906520843506e-01
8.652575016021728516e-01
-6.024272739887237549e-02
4.320244789123535156e-01
-1.746398061513900757e-01
9.363711625337600708e-02
2.045341283082962036e-01
-2.407786808907985687e-02
5.203180909156799316e-01
4.908230900764465332e-01
-5.931746959686279297e-01
-2.420937716960906982e-01
4.774889349937438965e-01
5.485544204711914062e-01
5.280684232711791992e-01
-1.579431056976318359e+00
1.406455487012863159e-01
-1.966257095336914062e-01
1.576344966888427734e-01
8.605185747146606445e-01
1.058611512184143066e+00
8.165726065635681152e-01
9.407832622528076172e-01
7.852105498313903809e-01
8.597260117530822754e-01
9.714458584785461426e-01
4.160043299198150635e-01
7.679451704025268555e-01
1.381135702133178711e+00
7.099745273590087891e-01
6.391820907592773438e-01
-3.031819760799407959e-01
-4.402589201927185059e-01
-4.129618108272552490e-01
-5.162337422370910645e-01
-5.866615772247314453e-01
-5.025762319564819336e-01
-6.683883666992187500e-01
-2.953099012374877930e-01
-2.654855549335479736e-01
-9.428156018257141113e-01
-2.793294750154018402e-02
-3.901309669017791748e-01
8.605919033288955688e-02
