1.402547955513000488e+00
1.897351264953613281e+00
7.505559325218200684e-01
2.507532835006713867e-01
-3.419178128242492676e-01
1.513067841529846191e+00
5.742196440696716309e-01
5.346635580062866211e-01
9.074171781539916992e-01
3.131710767745971680e+00
3.234626531600952148e+00
3.303601503372192383e+00
2.444703340530395508e+00
-2.263692170381546021e-01
-9.189853668212890625e-01
-8.572269678115844727e-01
-5.711550116539001465e-01
2.930874347686767578e+00
3.235624551773071289e+00
-1.906165957450866699e+00
-5.244615077972412109e-01
3.134414851665496826e-01
2.722614288330078125e+00
2.781878948211669922e+00
2.850034236907958984e+00
1.247944235801696777e+00
1.834440588951110840e+00
3.322836458683013916e-01
-4.229677617549896240e-01
1.718159794807434082e+00
-4.053480625152587891e-01
4.690229594707489014e-01
1.523858904838562012e-01
6.402586698532104492e-01
-5.340581387281417847e-02
-1.205510139465332031e+00
8.697451353073120117e-01
1.763797163963317871e+00
1.876070141792297363e+00
-7.088053822517395020e-01
7.861120700836181641e-01
2.098671436309814453e+00
2.006153106689453125e+00
2.051542885601520538e-02
3.553299307823181152e-01
-6.354904919862747192e-02
8.563611507415771484e-01
2.272245407104492188e+00
6.224600076675415039e-01
4.656559526920318604e-01
6.871834397315979004e-01
-1.404609203338623047e+00
-6.734108179807662964e-02
5.028796792030334473e-01
-2.408028542995452881e-01
-4.997050464153289795e-01
-4.286262989044189453e-01
3.195909857749938965e-01
3.242866754531860352e+00
3.240173339843750000e+00
3.246033668518066406e+00
3.194934844970703125e+00
3.192504167556762695e+00
3.596038579940795898e+00
3.605545759201049805e+00
4.076949119567871094e+00
4.000831604003906250e+00
-9.310513138771057129e-01
-9.385663270950317383e-01
2.192740440368652344e+00
1.914303660392761230e+00
3.898093461990356445e+00
3.963808536529541016e+00
2.875241994857788086e+00
2.889621973037719727e+00
3.204978227615356445e+00
3.420640468597412109e+00
3.659532785415649414e+00
2.540881395339965820e+00
2.969362974166870117e+00
2.828141212463378906e+00
2.747897863388061523e+00
-2.849885523319244385e-01
1.643607020378112793e+00
3.872210502624511719e+00
3.815653800964355469e+00
2.131233736872673035e-02
4.976949095726013184e-01
-1.483831405639648438e-01
6.377571225166320801e-01
3.387292861938476562e+00
3.464296102523803711e+00
2.123300313949584961e+00
2.078563451766967773e+00
1.671012401580810547e+00
4.783217608928680420e-01
2.260447263717651367e+00
2.023594617843627930e+00
3.115282297134399414e+00
3.017740249633789062e+00
3.609996318817138672e+00
3.578761339187622070e+00
2.854059934616088867e+00
2.920869588851928711e+00
3.838172197341918945e+00
3.997116327285766602e+00
3.684439897537231445e+00
3.693094968795776367e+00
3.799997091293334961e+00
3.495990991592407227e+00
3.470469951629638672e+00
3.131509304046630859e+00
2.934091329574584961e+00
2.039790391921997070e+00
7.072454690933227539e-01
8.921448588371276855e-01
1.761420369148254395e+00
3.400846004486083984e+00
3.458513975143432617e+00
3.400664806365966797e+00
3.511050701141357422e+00
1.734751939773559570e+00
-2.840065062046051025e-01
-2.791265398263931274e-02
1.668135285377502441e+00
3.147863626480102539e+00
3.390843152999877930e+00
3.112442493438720703e+00
-2.984237670898437500e-01
3.241493940353393555e+00
2.444966077804565430e+00
2.760864257812500000e+00
1.714499354362487793e+00
6.881599426269531250e-01
-1.060519218444824219e+00
-2.461664825677871704e-01
3.465475559234619141e+00
3.646150112152099609e+00
3.006159067153930664e+00
3.754738271236419678e-01
-1.879747390747070312e+00
3.940142691135406494e-01
8.774232864379882812e-01
1.044213056564331055e+00
1.411162018775939941e-01
-2.058347612619400024e-01
4.321355819702148438e+00
2.198836088180541992e+00
1.175457119941711426e+00
2.331438779830932617e+00
2.667619466781616211e+00
-6.218485906720161438e-02
4.229094386100769043e-01
4.217221260070800781e+00
2.699843347072601318e-01
9.819506406784057617e-01
8.733658194541931152e-01
5.984779596328735352e-01
4.010403633117675781e+00
4.030798435211181641e+00
-7.997846603393554688e-01
1.472898721694946289e+00
2.587623834609985352e+00
2.061615705490112305e+00
-4.009126126766204834e-02
2.881812155246734619e-01
3.740588426589965820e+00
3.726387023925781250e+00
3.171652555465698242e+00
3.107639551162719727e+00
-1.594141006469726562e+00
1.208441257476806641e-01
4.264190196990966797e+00
4.136699676513671875e+00
3.686425209045410156e+00
3.565372705459594727e+00
9.218649268150329590e-01
-1.564111411571502686e-01
3.271568536758422852e+00
2.838851213455200195e+00
1.334856986999511719e+00
8.459154367446899414e-01
2.128702878952026367e+00
1.266195654869079590e+00
2.421449661254882812e+00
3.175127029418945312e+00
1.010478019714355469e+00
1.064535498619079590e+00
-6.058388352394104004e-01
-1.824243664741516113e-01
4.798265397548675537e-01
-8.968957513570785522e-02
-1.554280370473861694e-01
5.388820171356201172e-01
2.264858968555927277e-02
9.723883271217346191e-01
8.301456570625305176e-01
3.672367930412292480e-01
2.007609903812408447e-01
7.402164936065673828e-01
-3.631680309772491455e-01
3.505397960543632507e-02
-3.329841652885079384e-03
-1.148333549499511719e+00
9.007247686386108398e-01
3.417661786079406738e-01
-6.785070896148681641e-02
1.991712301969528198e-02
8.054339289665222168e-01
-4.461087286472320557e-01
6.998961567878723145e-01
-8.629176020622253418e-01
-5.654427036643028259e-02
-7.992517352104187012e-01
2.439745217561721802e-01
6.667874455451965332e-01
8.705138564109802246e-01
-5.001418590545654297e-01
-1.025401830673217773e+00
-2.612638473510742188e-01
4.250333905220031738e-01
1.127314418554306030e-01
-1.167923688888549805e+00
3.209745883941650391e+00
3.210084676742553711e+00
3.026341199874877930e+00
-6.547830700874328613e-01
4.921067655086517334e-01
1.952888369560241699e-01
2.848183214664459229e-01
2.156931757926940918e-01
-5.647388696670532227e-01
3.288438081741333008e+00
-7.005050182342529297e-01
3.010300397872924805e-01
3.146668434143066406e+00
1.657154917716979980e+00
2.767255067825317383e+00
-4.152807593345642090e-01
6.457849740982055664e-01
4.389936029911041260e-01
2.231539249420166016e+00
2.575969934463500977e+00
6.116196513175964355e-01
2.364393949508666992e+00
9.671657681465148926e-01
1.086594104766845703e+00
2.164654016494750977e+00
1.430400848388671875e+00
1.896231293678283691e+00
3.681172728538513184e-01
-1.328798294067382812e+00
6.682698726654052734e-01
-3.070414364337921143e-01
1.097462534904479980e+00
1.159372806549072266e+00
-2.282543927431106567e-01
1.533827543258666992e+00
-2.511471509933471680e-01
4.608094990253448486e-01
-1.307375907897949219e+00
2.344243526458740234e+00
1.882611632347106934e+00
2.352783203125000000e+00
-1.090925633907318115e-01
-6.896729469299316406e-01
-7.614657878875732422e-01
3.271338939666748047e+00
3.280206918716430664e+00
3.282365560531616211e+00
3.608774662017822266e+00
7.531864047050476074e-01
8.857704401016235352e-01
-2.330057621002197266e+00
-8.604685664176940918e-01
3.202161312103271484e+00
3.166850805282592773e+00
4.034363746643066406e+00
3.908502340316772461e+00
-3.803175985813140869e-01
1.530103921890258789e+00
1.916451096534729004e+00
7.606586813926696777e-01
3.249734878540039062e+00
1.661072731018066406e+00
5.669394135475158691e-01
-1.987581998109817505e-01
-2.342545241117477417e-01
2.688691377639770508e+00
-8.122035861015319824e-01
-3.913527131080627441e-01
9.838444739580154419e-02
5.774900913238525391e-01
1.887460470199584961e+00
1.687766790390014648e+00
1.499431729316711426e+00
4.938151240348815918e-01
3.111465215682983398e+00
2.653518199920654297e+00
1.256158232688903809e+00
1.275158643722534180e+00
5.962691307067871094e-01
2.239893913269042969e+00
3.192228078842163086e-01
8.033143281936645508e-01
1.330536603927612305e+00
1.202459335327148438e+00
1.413830637931823730e+00
1.151610374450683594e+00
9.015353322029113770e-01
1.273420095443725586e+00
2.389998912811279297e+00
1.178281903266906738e+00
1.642513513565063477e+00
1.751531481742858887e+00
1.821360111236572266e+00
1.444568991661071777e+00
3.066576957702636719e+00
7.911884188652038574e-01
1.320233345031738281e+00
-2.481567412614822388e-01
4.751498699188232422e-01
1.198065519332885742e+00
5.528329014778137207e-01
2.453980684280395508e+00
8.585124015808105469e-01
3.372408747673034668e-01
8.140724301338195801e-01
-8.423671126365661621e-01
-9.891359806060791016e-01
-4.526777267456054688e-01
6.369555834680795670e-03
-4.960594475269317627e-01
9.425038695335388184e-01
-1.742738038301467896e-01
8.242200613021850586e-01
1.207670927047729492e+00
-8.917514085769653320e-01
-6.856577992439270020e-01
-1.658926606178283691e+00
3.183314800262451172e+00
1.869847416877746582e+00
2.123558044433593750e+00
3.052144765853881836e+00
2.971307516098022461e+00
3.074190855026245117e+00
3.201755046844482422e+00
1.490091443061828613e+00
3.720697164535522461e+00
3.696394681930541992e+00
7.063494324684143066e-01
1.501523613929748535e+00
2.264127731323242188e+00
1.035831332206726074e+00
3.726236104965209961e+00
1.563602328300476074e+00
2.106255531311035156e+00
2.587607800960540771e-01
3.164983689785003662e-01
2.341300725936889648e+00
2.421043962240219116e-01
3.654904365539550781e-01
-1.918873041868209839e-01
3.296633243560791016e+00
3.183681964874267578e-01
4.130602777004241943e-01
1.502315998077392578e+00
1.196796447038650513e-01
3.328752517700195312e+00
3.329900026321411133e+00
3.240874528884887695e+00
3.407752037048339844e+00
3.474948644638061523e+00
6.548179388046264648e-01
1.314977407455444336e+00
9.426369667053222656e-01
5.420421361923217773e-01
3.818220615386962891e+00
-4.410977065563201904e-01
8.291888236999511719e-01
2.002729654312133789e+00
2.735609292984008789e+00
6.347113847732543945e-01
2.002367973327636719e-01
8.031702637672424316e-01
1.013070583343505859e+00
1.843271374702453613e+00
-2.869180738925933838e-01
3.589917182922363281e+00
-1.988566219806671143e-01
2.309946268796920776e-01
3.582354068756103516e+00
1.822583556175231934e+00
1.784005045890808105e+00
2.156522274017333984e+00
4.697962105274200439e-01
1.268180370330810547e+00
8.587363958358764648e-01
1.560192823410034180e+00
-1.368500232696533203e+00
1.382136344909667969e+00
8.616706728935241699e-01
-4.986913204193115234e-01
1.435279726982116699e+00
1.512370467185974121e+00
9.702854156494140625e-01
1.967213302850723267e-01
4.568943977355957031e-01
-2.099193185567855835e-01
-8.214602470397949219e-01
3.881797790527343750e-01
2.972807586193084717e-01
-1.684160470962524414e+00
-6.377768516540527344e-01
-4.056500196456909180e-01
2.256384640932083130e-01
-5.525172352790832520e-01
1.901154398918151855e+00
8.622094243764877319e-02
1.769432984292507172e-02
3.748470172286033630e-02
-7.473520636558532715e-01
3.106475114822387695e+00
3.124834775924682617e+00
3.583881855010986328e+00
1.017964601516723633e+00
3.484093427658081055e+00
2.434102594852447510e-01
1.932949900627136230e+00
2.845185995101928711e+00
1.181454956531524658e-01
2.545430660247802734e+00
2.716227293014526367e+00
3.026138782501220703e+00
3.548231363296508789e+00
3.634697675704956055e+00
3.583680391311645508e+00
-1.020520329475402832e-01
-1.251127839088439941e+00
9.680935740470886230e-01
-1.902710199356079102e-01
9.116955995559692383e-01
2.157011926174163818e-01
9.178426861763000488e-01
-9.734056591987609863e-01
2.289826393127441406e+00
2.925879061222076416e-01
-1.448562741279602051e+00
3.496827185153961182e-01
2.149440795183181763e-01
1.661241054534912109e+00
1.880413532257080078e+00
2.158835649490356445e+00
4.529939889907836914e-01
6.070840358734130859e-01
1.237217187881469727e+00
-4.259507358074188232e-01
7.126548886299133301e-01
4.301285147666931152e-01
4.287215173244476318e-01
2.444819211959838867e+00
2.472402811050415039e+00
2.750272512435913086e+00
3.838523030281066895e-01
3.473406434059143066e-01
1.160916447639465332e+00
1.676977157592773438e+00
1.543911576271057129e+00
6.313966512680053711e-01
6.033600568771362305e-01
4.817874133586883545e-01
2.466238975524902344e+00
4.247239828109741211e-01
9.284878373146057129e-01
2.665117681026458740e-01
1.593864917755126953e+00
3.421986103057861328e-01
1.972749352455139160e+00
9.418880343437194824e-01
2.782900571823120117e+00
1.122131466865539551e+00
-8.627631664276123047e-01
3.219503402709960938e+00
3.126480817794799805e+00
2.453037738800048828e+00
2.566873073577880859e+00
2.351706504821777344e+00
8.048128485679626465e-01
7.146647572517395020e-01
2.010309934616088867e+00
1.040762439370155334e-01
1.350738257169723511e-01
6.187407374382019043e-01
1.412629961967468262e+00
2.391873300075531006e-01
-1.496565341949462891e+00
-2.062275260686874390e-01
2.304710298776626587e-01
2.136602640151977539e+00
2.261090278625488281e+00
2.254089117050170898e+00
4.131831526756286621e-01
7.155979275703430176e-01
5.871032476425170898e-01
-6.222293972969055176e-01
-1.260381489992141724e-01
-4.698039293289184570e-01
7.542681097984313965e-01
2.429493188858032227e+00
2.286734104156494141e+00
2.328388690948486328e+00
-2.775234878063201904e-01
1.956615328788757324e+00
3.149471879005432129e-01
-8.273332715034484863e-01
1.850724220275878906e+00
1.859480619430541992e+00
-2.262198030948638916e-01
-4.994829297065734863e-01
3.084081113338470459e-01
3.598584532737731934e-01
5.792024545371532440e-03
-1.548602879047393799e-01
3.889835774898529053e-01
3.932193294167518616e-02
6.800332069396972656e-01
1.589252591133117676e+00
1.602349996566772461e+00
-5.501231551170349121e-01
8.802978396415710449e-01
1.564374685287475586e+00
1.717266201972961426e+00
1.732895493507385254e+00
1.110822800546884537e-02
-3.323186337947845459e-01
-6.517833471298217773e-01
6.930810809135437012e-01
4.057893753051757812e+00
4.078198432922363281e+00
3.919989824295043945e+00
3.950949668884277344e+00
3.884603977203369141e+00
3.887488603591918945e+00
3.859611511230468750e+00
-2.165849357843399048e-01
-8.818969130516052246e-01
4.089742302894592285e-01
1.079651355743408203e+00
7.259748578071594238e-01
1.941094040870666504e+00
2.146719694137573242e+00
2.135744810104370117e+00
2.219575881958007812e+00
1.795940041542053223e+00
1.457787871360778809e+00
1.697740674018859863e+00
1.382070064544677734e+00
-3.084673881530761719e-01
4.425696283578872681e-02
1.571133255958557129e+00
2.365813553333282471e-01
-5.910263657569885254e-01
