-9.418122172355651855e-01
2.422855347394943237e-01
2.843526899814605713e-01
-1.582213938236236572e-01
1.254443526268005371e+00
1.514439582824707031e+00
8.872347474098205566e-01
-1.977135896682739258e+00
1.179550051689147949e+00
1.057664775848388672e+01
4.053077697753906250e+00
4.041155815124511719e+00
7.289175391197204590e-01
-7.058742046356201172e-01
-1.462018847465515137e+00
1.714865207672119141e+00
3.739239573478698730e-01
1.911733984947204590e+00
8.726153969764709473e-01
1.855536699295043945e+00
-5.837058424949645996e-01
5.667170882225036621e-02
3.517059803009033203e+00
4.344689369201660156e+00
4.268428802490234375e+00
1.110646247863769531e+00
1.705866694450378418e+00
-1.545141220092773438e+00
9.539051055908203125e-01
1.703887283802032471e-01
7.684149146080017090e-01
1.424689650535583496e+00
-3.177936971187591553e-01
-1.581130504608154297e+00
3.992161452770233154e-01
7.300773859024047852e-01
1.636161804199218750e+00
7.112655639648437500e-01
1.050123929977416992e+00
-8.329145908355712891e-01
1.560062527656555176e+00
2.365757703781127930e+00
1.958726525306701660e+00
-1.158831000328063965e+00
-1.103393286466598511e-01
9.730045199394226074e-01
4.969378709793090820e-01
2.002223730087280273e+00
-1.091221928596496582e+00
-6.333304047584533691e-01
-2.174266129732131958e-01
5.557996630668640137e-01
6.739267706871032715e-01
-4.121996760368347168e-01
7.983614206314086914e-01
-2.484771966934204102e+00
2.038649097084999084e-02
2.400857210159301758e-01
1.001857948303222656e+01
9.642912864685058594e+00
1.040863609313964844e+01
9.487804412841796875e+00
8.648636817932128906e+00
4.712123870849609375e+00
4.012825489044189453e+00
5.473526477813720703e+00
2.784235239028930664e+00
-1.535278439521789551e+00
-5.075067877769470215e-01
1.359919548034667969e+00
1.979003995656967163e-01
2.850897073745727539e+00
1.571837306022644043e+00
2.075777053833007812e+00
2.328698635101318359e+00
2.882684469223022461e+00
1.043817281723022461e+00
2.123968601226806641e+00
1.578081607818603516e+00
1.010099053382873535e+00
5.556144714355468750e+00
5.020287990570068359e+00
1.922294139862060547e+00
1.898536562919616699e+00
4.589260101318359375e+00
4.035301208496093750e+00
8.907553553581237793e-01
2.084325999021530151e-01
4.931588768959045410e-01
-3.913395106792449951e-01
5.193416118621826172e+00
5.806917190551757812e+00
2.176198482513427734e+00
9.519839286804199219e-01
-8.352073840796947479e-03
1.077629923820495605e+00
9.319042563438415527e-01
1.498946666717529297e+00
3.156758785247802734e+00
3.311871051788330078e+00
3.453101873397827148e+00
3.073782682418823242e+00
4.830818653106689453e+00
5.482669353485107422e+00
4.317519664764404297e+00
2.385645389556884766e+00
4.755196094512939453e+00
3.549861669540405273e+00
3.927926778793334961e+00
4.778827190399169922e+00
5.768222808837890625e+00
2.014273881912231445e+00
1.905513167381286621e+00
1.570545315742492676e+00
1.732200741767883301e+00
1.487770318984985352e+00
1.610214710235595703e+00
3.593062877655029297e+00
4.032731056213378906e+00
1.806849479675292969e+00
2.198359251022338867e+00
7.648735642433166504e-01
8.789861798286437988e-01
-1.506148338317871094e+00
3.302998840808868408e-01
2.263714075088500977e+00
2.873419046401977539e+00
3.368681430816650391e+00
-1.164127230644226074e+00
3.267951250076293945e+00
3.189660310745239258e+00
3.035664558410644531e+00
1.392739266157150269e-01
2.512952566146850586e+00
1.647006124258041382e-01
2.994958460330963135e-01
2.653336524963378906e+00
3.285263299942016602e+00
2.699594259262084961e+00
1.197720289230346680e+00
7.415998578071594238e-01
5.422988533973693848e-01
-3.913517594337463379e-01
8.428247570991516113e-01
9.776402711868286133e-01
-1.008162736892700195e+00
4.421152591705322266e+00
1.406988263130187988e+00
2.552663564682006836e+00
1.453080177307128906e+00
2.147982120513916016e+00
6.160647869110107422e-01
1.262681365013122559e+00
5.548954486846923828e+00
3.094944953918457031e-01
-6.067158579826354980e-01
9.677877426147460938e-01
6.176327466964721680e-01
4.533775329589843750e+00
3.776489973068237305e+00
5.716447234153747559e-01
4.107841849327087402e-01
1.319551348686218262e+00
1.680415391921997070e+00
6.073820590972900391e-01
1.844638884067535400e-01
6.527994632720947266e+00
5.587500572204589844e+00
1.144867897033691406e+00
1.394336938858032227e+00
-7.848603725433349609e-01
1.780989915132522583e-01
3.010963201522827148e+00
3.168966293334960938e+00
4.371369838714599609e+00
4.567066669464111328e+00
5.752038955688476562e-01
1.099768638610839844e+00
2.915503501892089844e+00
1.385416746139526367e+00
-2.329898774623870850e-01
-3.889740109443664551e-01
9.054930210113525391e-01
9.884728789329528809e-01
2.423333406448364258e+00
9.866648674011230469e+00
1.951845407485961914e+00
1.470082044601440430e+00
-6.486092805862426758e-01
-5.065256953239440918e-01
4.920598566532135010e-01
7.312536239624023438e-01
7.611972093582153320e-01
-5.325759649276733398e-01
1.206709384918212891e+00
1.182417988777160645e+00
3.125423192977905273e+00
2.067070640623569489e-02
3.496104240417480469e+00
1.673112750053405762e+00
4.057818651199340820e-02
3.604409396648406982e-01
1.811657309532165527e+00
3.707362413406372070e-01
1.517139434814453125e+00
5.557585135102272034e-02
2.325268536806106567e-01
1.190085887908935547e+00
2.988942265510559082e-01
6.432476043701171875e-01
-3.869844377040863037e-01
7.758821249008178711e-01
-5.749792456626892090e-01
5.274020433425903320e-01
-3.463997840881347656e-01
3.942477405071258545e-01
1.023809075355529785e+00
2.250770032405853271e-01
2.844508271664381027e-03
1.131843077018857002e-03
-2.170297056436538696e-01
-4.671976268291473389e-01
1.677033066749572754e+00
8.879407882690429688e+00
9.227856636047363281e+00
2.937860727310180664e+00
2.268946170806884766e+00
-4.437971711158752441e-01
2.346059799194335938e+00
-1.161723136901855469e+00
1.068506956100463867e+00
1.735764980316162109e+00
2.712208747863769531e+00
7.204068303108215332e-01
-1.380863547325134277e+00
2.663008451461791992e+00
1.838509798049926758e+00
1.638236522674560547e+00
2.164607942104339600e-01
-5.036810040473937988e-01
-3.202533423900604248e-01
1.788994312286376953e+00
1.055848717689514160e+00
4.239528179168701172e-01
2.633660554885864258e+00
2.680261135101318359e-01
2.072738647460937500e+00
1.904144406318664551e+00
2.212127208709716797e+00
4.127079248428344727e-01
-3.311184421181678772e-02
-1.699876189231872559e+00
1.493197321891784668e+00
9.372571706771850586e-01
1.857766747474670410e+00
2.134186744689941406e+00
-6.901224255561828613e-01
1.731652379035949707e+00
-5.550021529197692871e-01
8.701142668724060059e-01
3.730873167514801025e-01
2.309722185134887695e+00
-1.005951389670372009e-01
2.404125213623046875e+00
-2.014850378036499023e+00
-9.554210901260375977e-01
1.463107317686080933e-01
5.955083847045898438e+00
5.522722244262695312e+00
1.949580430984497070e+00
2.165438890457153320e+00
-2.613538503646850586e-01
-6.250792648643255234e-03
4.210685491561889648e-01
3.226890265941619873e-01
3.969528675079345703e+00
4.763127803802490234e+00
3.832618713378906250e+00
3.342164516448974609e+00
4.669126868247985840e-01
1.995459049940109253e-01
1.029721379280090332e+00
4.079744219779968262e-01
5.813395500183105469e+00
1.278691887855529785e+00
5.030537769198417664e-02
2.335765063762664795e-01
-1.909620910882949829e-01
5.167829990386962891e+00
9.192415475845336914e-01
-1.415973156690597534e-02
-1.220136284828186035e+00
1.103471070528030396e-01
3.342186212539672852e+00
2.399902582168579102e+00
7.601835131645202637e-01
6.907104253768920898e-01
2.625826120376586914e+00
3.208609580993652344e+00
1.183064103126525879e+00
2.098893672227859497e-01
2.543568849563598633e+00
9.434148073196411133e-01
7.851402759552001953e-01
2.501188516616821289e-01
1.797109246253967285e+00
6.976483464241027832e-01
-9.214318394660949707e-01
9.409299492835998535e-01
8.322986364364624023e-01
2.021813869476318359e+00
2.527942180633544922e+00
-2.310290932655334473e-02
4.035923779010772705e-01
1.461282610893249512e+00
3.346706628799438477e+00
-5.414056181907653809e-01
2.520646810531616211e+00
1.602995872497558594e+00
1.769095063209533691e+00
8.916171789169311523e-01
6.431907415390014648e-01
-7.030869126319885254e-01
-1.294719457626342773e+00
1.248946428298950195e+00
1.448461055755615234e+00
-8.139800429344177246e-01
-9.345918893814086914e-01
1.233985543251037598e+00
6.736987829208374023e-01
1.687305212020874023e+00
-8.277267813682556152e-01
4.723306596279144287e-01
-4.737489521503448486e-01
-2.321971207857131958e-01
-1.233577966690063477e+00
1.676309704780578613e+00
1.039621233940124512e+00
9.747528433799743652e-01
-7.191723585128784180e-01
4.265592575073242188e+00
1.807438611984252930e+00
1.656967043876647949e+00
3.359403610229492188e+00
4.003636360168457031e+00
4.754061698913574219e+00
2.486550092697143555e+00
2.515807151794433594e+00
2.746275663375854492e+00
3.956991910934448242e+00
1.262015223503112793e+00
7.130537033081054688e-01
-1.962603181600570679e-01
2.271822690963745117e+00
3.264187097549438477e+00
1.086767554283142090e+00
2.115175962448120117e+00
1.426229357719421387e+00
2.131342411041259766e+00
3.028306007385253906e+00
-1.648669391870498657e-01
-6.592454314231872559e-01
-1.230543032288551331e-01
6.794036388397216797e+00
-2.090212851762771606e-01
9.555421471595764160e-01
1.263020157814025879e+00
-6.082392111420631409e-02
6.863782882690429688e+00
6.261970996856689453e+00
6.116174697875976562e+00
3.049877882003784180e+00
4.676054000854492188e+00
1.216744661331176758e+00
1.115037560462951660e+00
1.402982234954833984e+00
-1.213713169097900391e+00
2.249722480773925781e+00
-4.520879089832305908e-01
1.829237580299377441e+00
2.570422649383544922e+00
1.729137063026428223e+00
5.496852993965148926e-01
1.736572265625000000e+00
2.088169097900390625e+00
-3.927571699023246765e-02
-1.203235834836959839e-01
8.623156547546386719e-01
3.057257652282714844e+00
1.552371531724929810e-01
1.192202210426330566e+00
4.770383834838867188e+00
2.415481805801391602e+00
1.839305400848388672e+00
1.583946824073791504e+00
4.727886617183685303e-01
1.149529933929443359e+00
-5.222840905189514160e-01
-7.191349864006042480e-01
2.243555545806884766e+00
2.748970508575439453e+00
-6.630967259407043457e-01
-2.522501647472381592e-01
1.111940860748291016e+00
-2.174110412597656250e+00
5.358086228370666504e-01
2.886398434638977051e-01
5.363430976867675781e-01
-8.549822866916656494e-02
-8.800809383392333984e-01
3.879000246524810791e-01
-1.900359392166137695e-01
1.534658551216125488e+00
1.145354032516479492e+00
-1.939864903688430786e-01
-1.754569858312606812e-01
1.032733917236328125e+00
-4.334457814693450928e-01
2.658825516700744629e-01
-5.697069764137268066e-01
-8.484823703765869141e-01
-1.069387197494506836e+00
5.099504947662353516e+00
5.428247451782226562e+00
4.342111110687255859e+00
9.823641777038574219e-01
1.902211189270019531e+00
1.272289633750915527e+00
1.472764372825622559e+00
2.387458086013793945e+00
2.616033554077148438e+00
1.180791139602661133e+00
1.990906596183776855e+00
4.072148323059082031e+00
3.602756500244140625e+00
2.448807477951049805e+00
2.299776315689086914e+00
4.551682472229003906e-01
-6.444863677024841309e-01
1.852133035659790039e+00
7.524729520082473755e-02
7.005177736282348633e-01
8.449240922927856445e-01
1.454122304916381836e+00
1.222840845584869385e-01
7.663718461990356445e-01
-1.449800372123718262e+00
5.100632905960083008e-01
2.111938953399658203e+00
3.109885215759277344e+00
2.903696537017822266e+00
2.371942758560180664e+00
3.487481117248535156e+00
-4.965569972991943359e-01
1.542672216892242432e-01
1.567526340484619141e+00
-1.564775466918945312e+00
1.802578091621398926e+00
8.641256093978881836e-01
5.945726484060287476e-02
4.175525665283203125e+00
3.097076416015625000e+00
2.578722715377807617e+00
2.977337837219238281e-01
1.920288443565368652e+00
4.334415495395660400e-01
6.028477549552917480e-01
-8.071646094322204590e-01
1.641376376152038574e+00
2.008989810943603516e+00
1.857838630676269531e+00
2.354749679565429688e+00
-2.159248352050781250e+00
3.087952852249145508e+00
1.990106582641601562e+00
2.925825834274291992e+00
-4.263284206390380859e-01
2.519202232360839844e+00
1.518035769462585449e+00
2.255523681640625000e+00
-1.410165786743164062e+00
-3.752988576889038086e-01
2.339586496353149414e+00
1.584550142288208008e+00
9.733804464340209961e-01
1.316682219505310059e+00
8.843021392822265625e-01
1.954773902893066406e+00
-9.089050889015197754e-01
8.592607378959655762e-01
6.601107716560363770e-01
-1.818621158599853516e+00
1.158652901649475098e+00
8.169575333595275879e-01
1.334461569786071777e+00
-7.978472113609313965e-01
-3.232364654541015625e-01
-9.672093391418457031e-01
5.101851940155029297e+00
4.226963520050048828e+00
5.171015739440917969e+00
8.032793402671813965e-01
2.944600343704223633e+00
3.168473720550537109e+00
2.159982025623321533e-01
4.161660671234130859e-01
-5.519409179687500000e-01
-3.864965140819549561e-01
3.966421842575073242e+00
4.793121814727783203e+00
5.429971694946289062e+00
-1.487775892019271851e-01
1.947193384170532227e+00
9.924260377883911133e-01
6.898562908172607422e-01
3.968808889389038086e+00
1.162470579147338867e+00
-2.409144341945648193e-01
1.467843502759933472e-01
1.131217002868652344e+00
1.195664167404174805e+00
-1.751705855131149292e-01
8.514958620071411133e-01
-1.574091434478759766e+00
9.451643824577331543e-01
1.013295412063598633e+00
4.875616073608398438e+00
4.655833721160888672e+00
-1.049642086029052734e+00
-8.132652640342712402e-01
2.415700912475585938e+00
2.175206184387207031e+00
3.576710224151611328e+00
-3.608534932136535645e-01
7.989206910133361816e-01
5.998193621635437012e-01
-2.526818811893463135e-01
3.570702552795410156e+00
4.002108573913574219e+00
2.341737270355224609e+00
3.673358201980590820e+00
1.741567015647888184e+00
3.069882154464721680e+00
4.423773765563964844e+00
7.599696516990661621e-01
1.163170576095581055e+00
-1.290663242340087891e+00
1.779426336288452148e+00
1.691323518753051758e+00
2.217318296432495117e+00
3.539079666137695312e+00
2.216240406036376953e+00
2.847734928131103516e+00
3.374848842620849609e+00
2.843372106552124023e+00
1.508302211761474609e+00
9.200884699821472168e-01
1.153185248374938965e+00
8.277520537376403809e-01
7.266449332237243652e-01
-6.657234430313110352e-01
7.144640684127807617e-01
